network unknown {
}
variable Age {
    type discrete [ 4 ] { 20-40, 40-50, 50-60, 60+ };
}
variable ChestPainType {
    type discrete [ 4 ] { ASY, ATA, NAP, TA };
}
variable Cholesterol {
    type discrete [ 3 ] { 200-240, 240+, <=200 };
}
variable ExerciseAngina {
    type discrete [ 2 ] { N, Y };
}
variable FastingBS {
    type discrete [ 2 ] { N, Y };
}
variable HeartDisease {
    type discrete [ 2 ] { 0, 1 };
}
variable MaxHR {
    type discrete [ 4 ] { high, low, medium, very-high };
}
variable Oldpeak {
    type discrete [ 4 ] { 0-5-1, 1-2, 2+, <=0.5 };
}
variable RestingBP {
    type discrete [ 3 ] { 120-140, 140+, 90-120 };
}
variable RestingECG {
    type discrete [ 3 ] { LVH, Normal, ST };
}
variable ST_Slope {
    type discrete [ 3 ] { Down, Flat, Up };
}
variable Sex {
    type discrete [ 2 ] { F, M };
}
probability ( Age ) {
    table 0.10211267605633803, 0.2711267605633803, 0.4041471048513302, 0.22261345852895148 ;
}
probability ( ChestPainType | HeartDisease ) {
    ( 0 ) 0.2537481259370315, 0.358695652173913, 0.3137181409295352, 0.07383808095952024;
    ( 1 ) 0.7647299509001637, 0.06096563011456629, 0.12970540098199673, 0.04459901800327332;

}
probability ( Cholesterol | Age, Sex ) {
    ( 20-40, F ) 0.41254125412541254, 0.25412541254125415, 0.3333333333333333;
    ( 20-40, M ) 0.2509897070467142, 0.4980205859065716, 0.2509897070467142;
    ( 40-50, F ) 0.3950299914310197, 0.4361610968294773, 0.16880891173950302;
    ( 40-50, M ) 0.33868271481109996, 0.4590437980608492, 0.20227348712805082;
    ( 50-60, F ) 0.24678837052062202, 0.6362407031778228, 0.11697092630155509;
    ( 50-60, M ) 0.3926679381224836, 0.397753761390125, 0.2095783004873914;
    ( 60+, F ) 0.19158361018826134, 0.6434108527131782, 0.16500553709856033;
    ( 60+, M ) 0.29828753484667464, 0.5276782158502589, 0.1740342493030665;

}
probability ( ExerciseAngina | MaxHR, Sex ) {
    ( high, F ) 0.7606741573033707, 0.2393258426966292;
    ( high, M ) 0.6657579062159215, 0.33424209378407854;
    ( low, F ) 0.6632653061224489, 0.336734693877551;
    ( low, M ) 0.3016838166510758, 0.6983161833489242;
    ( medium, F ) 0.6628959276018099, 0.33710407239819007;
    ( medium, M ) 0.4962581852198316, 0.5037418147801683;
    ( very-high, F ) 0.9075067024128687, 0.09249329758713137;
    ( very-high, M ) 0.9036222509702458, 0.0963777490297542;

}
probability ( FastingBS | Age, RestingBP ) {
    ( 20-40, 120-140 ) 0.9911032028469752, 0.008896797153024912;
    ( 20-40, 140+ ) 0.8564356435643564, 0.14356435643564355;
    ( 20-40, 90-120 ) 0.9638403990024937, 0.03615960099750623;
    ( 40-50, 120-140 ) 0.8976331360946745, 0.10236686390532543;
    ( 40-50, 140+ ) 0.993368700265252, 0.006631299734748012;
    ( 40-50, 90-120 ) 0.9270711785297551, 0.07292882147024504;
    ( 50-60, 120-140 ) 0.7528597230583985, 0.24714027694160148;
    ( 50-60, 140+ ) 0.7563417890520694, 0.24365821094793055;
    ( 50-60, 90-120 ) 0.8918722786647315, 0.10812772133526849;
    ( 60+, 120-140 ) 0.7699564586357039, 0.23004354136429608;
    ( 60+, 140+ ) 0.6480406386066764, 0.3519593613933236;
    ( 60+, 90-120 ) 0.9559270516717325, 0.044072948328267476;

}
probability ( HeartDisease | Age, Cholesterol, ExerciseAngina, FastingBS, RestingECG, Sex ) {
    ( 20-40, 200-240, N, N, LVH, F ) 0.5, 0.5;
    ( 20-40, 200-240, N, N, LVH, M ) 0.9914675767918089, 0.008532423208191127;
    ( 20-40, 200-240, N, N, Normal, F ) 0.9978392394122731, 0.00216076058772688;
    ( 20-40, 200-240, N, N, Normal, M ) 0.7772429726607625, 0.22275702733923758;
    ( 20-40, 200-240, N, N, ST, F ) 0.9914675767918089, 0.008532423208191127;
    ( 20-40, 200-240, N, N, ST, M ) 0.9914675767918089, 0.008532423208191127;
    ( 20-40, 200-240, N, Y, LVH, F ) 0.5, 0.5;
    ( 20-40, 200-240, N, Y, LVH, M ) 0.5, 0.5;
    ( 20-40, 200-240, N, Y, Normal, F ) 0.5, 0.5;
    ( 20-40, 200-240, N, Y, Normal, M ) 0.5, 0.5;
    ( 20-40, 200-240, N, Y, ST, F ) 0.5, 0.5;
    ( 20-40, 200-240, N, Y, ST, M ) 0.5, 0.5;
    ( 20-40, 200-240, Y, N, LVH, F ) 0.5, 0.5;
    ( 20-40, 200-240, Y, N, LVH, M ) 0.5, 0.5;
    ( 20-40, 200-240, Y, N, Normal, F ) 0.5, 0.5;
    ( 20-40, 200-240, Y, N, Normal, M ) 0.5, 0.5;
    ( 20-40, 200-240, Y, N, ST, F ) 0.5, 0.5;
    ( 20-40, 200-240, Y, N, ST, M ) 0.5, 0.5;
    ( 20-40, 200-240, Y, Y, LVH, F ) 0.5, 0.5;
    ( 20-40, 200-240, Y, Y, LVH, M ) 0.5, 0.5;
    ( 20-40, 200-240, Y, Y, Normal, F ) 0.5, 0.5;
    ( 20-40, 200-240, Y, Y, Normal, M ) 0.5, 0.5;
    ( 20-40, 200-240, Y, Y, ST, F ) 0.5, 0.5;
    ( 20-40, 200-240, Y, Y, ST, M ) 0.5, 0.5;
    ( 20-40, 240+, N, N, LVH, F ) 0.5, 0.5;
    ( 20-40, 240+, N, N, LVH, M ) 0.9956970740103271, 0.004302925989672979;
    ( 20-40, 240+, N, N, Normal, F ) 0.5, 0.5;
    ( 20-40, 240+, N, N, Normal, M ) 0.7497831743278405, 0.2502168256721596;
    ( 20-40, 240+, N, N, ST, F ) 0.5, 0.5;
    ( 20-40, 240+, N, N, ST, M ) 0.9914675767918089, 0.008532423208191127;
    ( 20-40, 240+, N, Y, LVH, F ) 0.5, 0.5;
    ( 20-40, 240+, N, Y, LVH, M ) 0.5, 0.5;
    ( 20-40, 240+, N, Y, Normal, F ) 0.5, 0.5;
    ( 20-40, 240+, N, Y, Normal, M ) 0.5, 0.5;
    ( 20-40, 240+, N, Y, ST, F ) 0.5, 0.5;
    ( 20-40, 240+, N, Y, ST, M ) 0.5, 0.5;
    ( 20-40, 240+, Y, N, LVH, F ) 0.5, 0.5;
    ( 20-40, 240+, Y, N, LVH, M ) 0.5, 0.5;
    ( 20-40, 240+, Y, N, Normal, F ) 0.008532423208191127, 0.9914675767918089;
    ( 20-40, 240+, Y, N, Normal, M ) 0.004302925989672979, 0.9956970740103271;
    ( 20-40, 240+, Y, N, ST, F ) 0.5, 0.5;
    ( 20-40, 240+, Y, N, ST, M ) 0.5, 0.5;
    ( 20-40, 240+, Y, Y, LVH, F ) 0.5, 0.5;
    ( 20-40, 240+, Y, Y, LVH, M ) 0.5, 0.5;
    ( 20-40, 240+, Y, Y, Normal, F ) 0.5, 0.5;
    ( 20-40, 240+, Y, Y, Normal, M ) 0.008532423208191127, 0.9914675767918089;
    ( 20-40, 240+, Y, Y, ST, F ) 0.5, 0.5;
    ( 20-40, 240+, Y, Y, ST, M ) 0.5, 0.5;
    ( 20-40, <=200, N, N, LVH, F ) 0.5, 0.5;
    ( 20-40, <=200, N, N, LVH, M ) 0.9914675767918089, 0.008532423208191127;
    ( 20-40, <=200, N, N, Normal, F ) 0.9914675767918089, 0.008532423208191127;
    ( 20-40, <=200, N, N, Normal, M ) 0.5, 0.5;
    ( 20-40, <=200, N, N, ST, F ) 0.9971231300345225, 0.002876869965477561;
    ( 20-40, <=200, N, N, ST, M ) 0.9914675767918089, 0.008532423208191127;
    ( 20-40, <=200, N, Y, LVH, F ) 0.5, 0.5;
    ( 20-40, <=200, N, Y, LVH, M ) 0.5, 0.5;
    ( 20-40, <=200, N, Y, Normal, F ) 0.5, 0.5;
    ( 20-40, <=200, N, Y, Normal, M ) 0.9914675767918089, 0.008532423208191127;
    ( 20-40, <=200, N, Y, ST, F ) 0.5, 0.5;
    ( 20-40, <=200, N, Y, ST, M ) 0.5, 0.5;
    ( 20-40, <=200, Y, N, LVH, F ) 0.5, 0.5;
    ( 20-40, <=200, Y, N, LVH, M ) 0.008532423208191127, 0.9914675767918089;
    ( 20-40, <=200, Y, N, Normal, F ) 0.5, 0.5;
    ( 20-40, <=200, Y, N, Normal, M ) 0.40034602076124565, 0.5996539792387543;
    ( 20-40, <=200, Y, N, ST, F ) 0.5, 0.5;
    ( 20-40, <=200, Y, N, ST, M ) 0.5, 0.5;
    ( 20-40, <=200, Y, Y, LVH, F ) 0.5, 0.5;
    ( 20-40, <=200, Y, Y, LVH, M ) 0.5, 0.5;
    ( 20-40, <=200, Y, Y, Normal, F ) 0.5, 0.5;
    ( 20-40, <=200, Y, Y, Normal, M ) 0.5, 0.5;
    ( 20-40, <=200, Y, Y, ST, F ) 0.5, 0.5;
    ( 20-40, <=200, Y, Y, ST, M ) 0.5, 0.5;
    ( 40-50, 200-240, N, N, LVH, F ) 0.9956970740103271, 0.004302925989672979;
    ( 40-50, 200-240, N, N, LVH, M ) 0.9971231300345225, 0.002876869965477561;
    ( 40-50, 200-240, N, N, Normal, F ) 0.9992121021115664, 0.0007878978884336591;
    ( 40-50, 200-240, N, N, Normal, M ) 0.7497831743278405, 0.2502168256721596;
    ( 40-50, 200-240, N, N, ST, F ) 0.9971231300345225, 0.002876869965477561;
    ( 40-50, 200-240, N, N, ST, M ) 0.9956970740103271, 0.004302925989672979;
    ( 40-50, 200-240, N, Y, LVH, F ) 0.5, 0.5;
    ( 40-50, 200-240, N, Y, LVH, M ) 0.5, 0.5;
    ( 40-50, 200-240, N, Y, Normal, F ) 0.5, 0.5;
    ( 40-50, 200-240, N, Y, Normal, M ) 0.9914675767918089, 0.008532423208191127;
    ( 40-50, 200-240, N, Y, ST, F ) 0.5, 0.5;
    ( 40-50, 200-240, N, Y, ST, M ) 0.008532423208191127, 0.9914675767918089;
    ( 40-50, 200-240, Y, N, LVH, F ) 0.5, 0.5;
    ( 40-50, 200-240, Y, N, LVH, M ) 0.9914675767918089, 0.008532423208191127;
    ( 40-50, 200-240, Y, N, Normal, F ) 0.3342922899884926, 0.6657077100115075;
    ( 40-50, 200-240, Y, N, Normal, M ) 0.30034662045060656, 0.6996533795493934;
    ( 40-50, 200-240, Y, N, ST, F ) 0.5, 0.5;
    ( 40-50, 200-240, Y, N, ST, M ) 0.3342922899884926, 0.6657077100115075;
    ( 40-50, 200-240, Y, Y, LVH, F ) 0.5, 0.5;
    ( 40-50, 200-240, Y, Y, LVH, M ) 0.5, 0.5;
    ( 40-50, 200-240, Y, Y, Normal, F ) 0.5, 0.5;
    ( 40-50, 200-240, Y, Y, Normal, M ) 0.008532423208191127, 0.9914675767918089;
    ( 40-50, 200-240, Y, Y, ST, F ) 0.5, 0.5;
    ( 40-50, 200-240, Y, Y, ST, M ) 0.5, 0.5;
    ( 40-50, 240+, N, N, LVH, F ) 0.9956970740103271, 0.004302925989672979;
    ( 40-50, 240+, N, N, LVH, M ) 0.7137555665512123, 0.2862444334487877;
    ( 40-50, 240+, N, N, Normal, F ) 0.9992121021115664, 0.0007878978884336591;
    ( 40-50, 240+, N, N, Normal, M ) 0.7081827381812924, 0.2918172618187075;
    ( 40-50, 240+, N, N, ST, F ) 0.9971231300345225, 0.002876869965477561;
    ( 40-50, 240+, N, N, ST, M ) 0.7489196197061366, 0.2510803802938635;
    ( 40-50, 240+, N, Y, LVH, F ) 0.5, 0.5;
    ( 40-50, 240+, N, Y, LVH, M ) 0.5, 0.5;
    ( 40-50, 240+, N, Y, Normal, F ) 0.008532423208191127, 0.9914675767918089;
    ( 40-50, 240+, N, Y, Normal, M ) 0.3342922899884926, 0.6657077100115075;
    ( 40-50, 240+, N, Y, ST, F ) 0.5, 0.5;
    ( 40-50, 240+, N, Y, ST, M ) 0.5, 0.5;
    ( 40-50, 240+, Y, N, LVH, F ) 0.9956970740103271, 0.004302925989672979;
    ( 40-50, 240+, Y, N, LVH, M ) 0.002876869965477561, 0.9971231300345225;
    ( 40-50, 240+, Y, N, Normal, F ) 0.5, 0.5;
    ( 40-50, 240+, Y, N, Normal, M ) 0.08393527882114996, 0.9160647211788501;
    ( 40-50, 240+, Y, N, ST, F ) 0.5, 0.5;
    ( 40-50, 240+, Y, N, ST, M ) 0.008532423208191127, 0.9914675767918089;
    ( 40-50, 240+, Y, Y, LVH, F ) 0.5, 0.5;
    ( 40-50, 240+, Y, Y, LVH, M ) 0.004302925989672979, 0.9956970740103271;
    ( 40-50, 240+, Y, Y, Normal, F ) 0.5, 0.5;
    ( 40-50, 240+, Y, Y, Normal, M ) 0.9914675767918089, 0.008532423208191127;
    ( 40-50, 240+, Y, Y, ST, F ) 0.5, 0.5;
    ( 40-50, 240+, Y, Y, ST, M ) 0.5, 0.5;
    ( 40-50, <=200, N, N, LVH, F ) 0.5, 0.5;
    ( 40-50, <=200, N, N, LVH, M ) 0.004302925989672979, 0.9956970740103271;
    ( 40-50, <=200, N, N, Normal, F ) 0.9985574148874784, 0.0014425851125216388;
    ( 40-50, <=200, N, N, Normal, M ) 0.9225126700453454, 0.07748732995465459;
    ( 40-50, <=200, N, N, ST, F ) 0.5, 0.5;
    ( 40-50, <=200, N, N, ST, M ) 0.008532423208191127, 0.9914675767918089;
    ( 40-50, <=200, N, Y, LVH, F ) 0.5, 0.5;
    ( 40-50, <=200, N, Y, LVH, M ) 0.5, 0.5;
    ( 40-50, <=200, N, Y, Normal, F ) 0.5, 0.5;
    ( 40-50, <=200, N, Y, Normal, M ) 0.9914675767918089, 0.008532423208191127;
    ( 40-50, <=200, N, Y, ST, F ) 0.9914675767918089, 0.008532423208191127;
    ( 40-50, <=200, N, Y, ST, M ) 0.5, 0.5;
    ( 40-50, <=200, Y, N, LVH, F ) 0.9914675767918089, 0.008532423208191127;
    ( 40-50, <=200, Y, N, LVH, M ) 0.004302925989672979, 0.9956970740103271;
    ( 40-50, <=200, Y, N, Normal, F ) 0.5, 0.5;
    ( 40-50, <=200, Y, N, Normal, M ) 0.16762839007501443, 0.8323716099249856;
    ( 40-50, <=200, Y, N, ST, F ) 0.5, 0.5;
    ( 40-50, <=200, Y, N, ST, M ) 0.5, 0.5;
    ( 40-50, <=200, Y, Y, LVH, F ) 0.5, 0.5;
    ( 40-50, <=200, Y, Y, LVH, M ) 0.5, 0.5;
    ( 40-50, <=200, Y, Y, Normal, F ) 0.5, 0.5;
    ( 40-50, <=200, Y, Y, Normal, M ) 0.5, 0.5;
    ( 40-50, <=200, Y, Y, ST, F ) 0.5, 0.5;
    ( 40-50, <=200, Y, Y, ST, M ) 0.5, 0.5;
    ( 50-60, 200-240, N, N, LVH, F ) 0.6657077100115075, 0.3342922899884926;
    ( 50-60, 200-240, N, N, LVH, M ) 0.5, 0.5;
    ( 50-60, 200-240, N, N, Normal, F ) 0.9985574148874784, 0.0014425851125216388;
    ( 50-60, 200-240, N, N, Normal, M ) 0.6189492813480919, 0.38105071865190815;
    ( 50-60, 200-240, N, N, ST, F ) 0.9914675767918089, 0.008532423208191127;
    ( 50-60, 200-240, N, N, ST, M ) 0.6657077100115075, 0.3342922899884926;
    ( 50-60, 200-240, N, Y, LVH, F ) 0.5, 0.5;
    ( 50-60, 200-240, N, Y, LVH, M ) 0.9914675767918089, 0.008532423208191127;
    ( 50-60, 200-240, N, Y, Normal, F ) 0.9914675767918089, 0.008532423208191127;
    ( 50-60, 200-240, N, Y, Normal, M ) 0.5996539792387543, 0.40034602076124565;
    ( 50-60, 200-240, N, Y, ST, F ) 0.5, 0.5;
    ( 50-60, 200-240, N, Y, ST, M ) 0.5, 0.5;
    ( 50-60, 200-240, Y, N, LVH, F ) 0.5, 0.5;
    ( 50-60, 200-240, Y, N, LVH, M ) 0.37527067994802943, 0.6247293200519706;
    ( 50-60, 200-240, Y, N, Normal, F ) 0.9956970740103271, 0.004302925989672979;
    ( 50-60, 200-240, Y, N, Normal, M ) 0.42865989596234827, 0.5713401040376517;
    ( 50-60, 200-240, Y, N, ST, F ) 0.008532423208191127, 0.9914675767918089;
    ( 50-60, 200-240, Y, N, ST, M ) 0.12581203984408837, 0.8741879601559117;
    ( 50-60, 200-240, Y, Y, LVH, F ) 0.008532423208191127, 0.9914675767918089;
    ( 50-60, 200-240, Y, Y, LVH, M ) 0.008532423208191127, 0.9914675767918089;
    ( 50-60, 200-240, Y, Y, Normal, F ) 0.5, 0.5;
    ( 50-60, 200-240, Y, Y, Normal, M ) 0.00216076058772688, 0.9978392394122731;
    ( 50-60, 200-240, Y, Y, ST, F ) 0.5, 0.5;
    ( 50-60, 200-240, Y, Y, ST, M ) 0.004302925989672979, 0.9956970740103271;
    ( 50-60, 240+, N, N, LVH, F ) 0.7994800693240901, 0.20051993067590987;
    ( 50-60, 240+, N, N, LVH, M ) 0.30034662045060656, 0.6996533795493934;
    ( 50-60, 240+, N, N, Normal, F ) 0.8993067590987869, 0.10069324090121318;
    ( 50-60, 240+, N, N, Normal, M ) 0.7140203121129551, 0.2859796878870448;
    ( 50-60, 240+, N, N, ST, F ) 0.9914675767918089, 0.008532423208191127;
    ( 50-60, 240+, N, N, ST, M ) 0.6657077100115075, 0.3342922899884926;
    ( 50-60, 240+, N, Y, LVH, F ) 0.6657077100115075, 0.3342922899884926;
    ( 50-60, 240+, N, Y, LVH, M ) 0.9971231300345225, 0.002876869965477561;
    ( 50-60, 240+, N, Y, Normal, F ) 0.9914675767918089, 0.008532423208191127;
    ( 50-60, 240+, N, Y, Normal, M ) 0.9978392394122731, 0.00216076058772688;
    ( 50-60, 240+, N, Y, ST, F ) 0.008532423208191127, 0.9914675767918089;
    ( 50-60, 240+, N, Y, ST, M ) 0.004302925989672979, 0.9956970740103271;
    ( 50-60, 240+, Y, N, LVH, F ) 0.008532423208191127, 0.9914675767918089;
    ( 50-60, 240+, Y, N, LVH, M ) 0.0010827197921178, 0.9989172802078822;
    ( 50-60, 240+, Y, N, Normal, F ) 0.16762839007501443, 0.8323716099249856;
    ( 50-60, 240+, Y, N, Normal, M ) 0.11803713527851457, 0.8819628647214854;
    ( 50-60, 240+, Y, N, ST, F ) 0.3342922899884926, 0.6657077100115075;
    ( 50-60, 240+, Y, N, ST, M ) 0.16762839007501443, 0.8323716099249856;
    ( 50-60, 240+, Y, Y, LVH, F ) 0.5, 0.5;
    ( 50-60, 240+, Y, Y, LVH, M ) 0.00216076058772688, 0.9978392394122731;
    ( 50-60, 240+, Y, Y, Normal, F ) 0.5, 0.5;
    ( 50-60, 240+, Y, Y, Normal, M ) 0.004302925989672979, 0.9956970740103271;
    ( 50-60, 240+, Y, Y, ST, F ) 0.008532423208191127, 0.9914675767918089;
    ( 50-60, 240+, Y, Y, ST, M ) 0.001730103806228374, 0.9982698961937717;
    ( 50-60, <=200, N, N, LVH, F ) 0.9914675767918089, 0.008532423208191127;
    ( 50-60, <=200, N, N, LVH, M ) 0.5, 0.5;
    ( 50-60, <=200, N, N, Normal, F ) 0.9978392394122731, 0.00216076058772688;
    ( 50-60, <=200, N, N, Normal, M ) 0.7892094212159941, 0.21079057878400584;
    ( 50-60, <=200, N, N, ST, F ) 0.5, 0.5;
    ( 50-60, <=200, N, N, ST, M ) 0.9971231300345225, 0.002876869965477561;
    ( 50-60, <=200, N, Y, LVH, F ) 0.5, 0.5;
    ( 50-60, <=200, N, Y, LVH, M ) 0.5, 0.5;
    ( 50-60, <=200, N, Y, Normal, F ) 0.9914675767918089, 0.008532423208191127;
    ( 50-60, <=200, N, Y, Normal, M ) 0.9914675767918089, 0.008532423208191127;
    ( 50-60, <=200, N, Y, ST, F ) 0.5, 0.5;
    ( 50-60, <=200, N, Y, ST, M ) 0.9914675767918089, 0.008532423208191127;
    ( 50-60, <=200, Y, N, LVH, F ) 0.5, 0.5;
    ( 50-60, <=200, Y, N, LVH, M ) 0.004302925989672979, 0.9956970740103271;
    ( 50-60, <=200, Y, N, Normal, F ) 0.9914675767918089, 0.008532423208191127;
    ( 50-60, <=200, Y, N, Normal, M ) 0.14374072241464622, 0.8562592775853538;
    ( 50-60, <=200, Y, N, ST, F ) 0.5, 0.5;
    ( 50-60, <=200, Y, N, ST, M ) 0.008532423208191127, 0.9914675767918089;
    ( 50-60, <=200, Y, Y, LVH, F ) 0.5, 0.5;
    ( 50-60, <=200, Y, Y, LVH, M ) 0.004302925989672979, 0.9956970740103271;
    ( 50-60, <=200, Y, Y, Normal, F ) 0.5, 0.5;
    ( 50-60, <=200, Y, Y, Normal, M ) 0.5, 0.5;
    ( 50-60, <=200, Y, Y, ST, F ) 0.5, 0.5;
    ( 50-60, <=200, Y, Y, ST, M ) 0.008532423208191127, 0.9914675767918089;
    ( 60+, 200-240, N, N, LVH, F ) 0.5, 0.5;
    ( 60+, 200-240, N, N, LVH, M ) 0.5996539792387543, 0.40034602076124565;
    ( 60+, 200-240, N, N, Normal, F ) 0.9978392394122731, 0.00216076058772688;
    ( 60+, 200-240, N, N, Normal, M ) 0.20103806228373705, 0.798961937716263;
    ( 60+, 200-240, N, N, ST, F ) 0.5, 0.5;
    ( 60+, 200-240, N, N, ST, M ) 0.9956970740103271, 0.004302925989672979;
    ( 60+, 200-240, N, Y, LVH, F ) 0.5, 0.5;
    ( 60+, 200-240, N, Y, LVH, M ) 0.9956970740103271, 0.004302925989672979;
    ( 60+, 200-240, N, Y, Normal, F ) 0.5, 0.5;
    ( 60+, 200-240, N, Y, Normal, M ) 0.008532423208191127, 0.9914675767918089;
    ( 60+, 200-240, N, Y, ST, F ) 0.5, 0.5;
    ( 60+, 200-240, N, Y, ST, M ) 0.008532423208191127, 0.9914675767918089;
    ( 60+, 200-240, Y, N, LVH, F ) 0.5, 0.5;
    ( 60+, 200-240, Y, N, LVH, M ) 0.004302925989672979, 0.9956970740103271;
    ( 60+, 200-240, Y, N, Normal, F ) 0.5, 0.5;
    ( 60+, 200-240, Y, N, Normal, M ) 0.001730103806228374, 0.9982698961937717;
    ( 60+, 200-240, Y, N, ST, F ) 0.5, 0.5;
    ( 60+, 200-240, Y, N, ST, M ) 0.002876869965477561, 0.9971231300345225;
    ( 60+, 200-240, Y, Y, LVH, F ) 0.5, 0.5;
    ( 60+, 200-240, Y, Y, LVH, M ) 0.008532423208191127, 0.9914675767918089;
    ( 60+, 200-240, Y, Y, Normal, F ) 0.008532423208191127, 0.9914675767918089;
    ( 60+, 200-240, Y, Y, Normal, M ) 0.004302925989672979, 0.9956970740103271;
    ( 60+, 200-240, Y, Y, ST, F ) 0.5, 0.5;
    ( 60+, 200-240, Y, Y, ST, M ) 0.004302925989672979, 0.9956970740103271;
    ( 60+, 240+, N, N, LVH, F ) 0.6247293200519706, 0.37527067994802943;
    ( 60+, 240+, N, N, LVH, M ) 0.33365421640354254, 0.6663457835964575;
    ( 60+, 240+, N, N, Normal, F ) 0.8323716099249856, 0.16762839007501443;
    ( 60+, 240+, N, N, Normal, M ) 0.6661858049624928, 0.3338141950375072;
    ( 60+, 240+, N, N, ST, F ) 0.5, 0.5;
    ( 60+, 240+, N, N, ST, M ) 0.5, 0.5;
    ( 60+, 240+, N, Y, LVH, F ) 0.9956970740103271, 0.004302925989672979;
    ( 60+, 240+, N, Y, LVH, M ) 0.004302925989672979, 0.9956970740103271;
    ( 60+, 240+, N, Y, Normal, F ) 0.008532423208191127, 0.9914675767918089;
    ( 60+, 240+, N, Y, Normal, M ) 0.008532423208191127, 0.9914675767918089;
    ( 60+, 240+, N, Y, ST, F ) 0.5, 0.5;
    ( 60+, 240+, N, Y, ST, M ) 0.5, 0.5;
    ( 60+, 240+, Y, N, LVH, F ) 0.9914675767918089, 0.008532423208191127;
    ( 60+, 240+, Y, N, LVH, M ) 0.001730103806228374, 0.9982698961937717;
    ( 60+, 240+, Y, N, Normal, F ) 0.2510803802938635, 0.7489196197061366;
    ( 60+, 240+, Y, N, Normal, M ) 0.08393527882114996, 0.9160647211788501;
    ( 60+, 240+, Y, N, ST, F ) 0.9914675767918089, 0.008532423208191127;
    ( 60+, 240+, Y, N, ST, M ) 0.12581203984408837, 0.8741879601559117;
    ( 60+, 240+, Y, Y, LVH, F ) 0.5, 0.5;
    ( 60+, 240+, Y, Y, LVH, M ) 0.002876869965477561, 0.9971231300345225;
    ( 60+, 240+, Y, Y, Normal, F ) 0.9914675767918089, 0.008532423208191127;
    ( 60+, 240+, Y, Y, Normal, M ) 0.5996539792387543, 0.40034602076124565;
    ( 60+, 240+, Y, Y, ST, F ) 0.5, 0.5;
    ( 60+, 240+, Y, Y, ST, M ) 0.00216076058772688, 0.9978392394122731;
    ( 60+, <=200, N, N, LVH, F ) 0.008532423208191127, 0.9914675767918089;
    ( 60+, <=200, N, N, LVH, M ) 0.008532423208191127, 0.9914675767918089;
    ( 60+, <=200, N, N, Normal, F ) 0.9971231300345225, 0.002876869965477561;
    ( 60+, <=200, N, N, Normal, M ) 0.9914675767918089, 0.008532423208191127;
    ( 60+, <=200, N, N, ST, F ) 0.9914675767918089, 0.008532423208191127;
    ( 60+, <=200, N, N, ST, M ) 0.9956970740103271, 0.004302925989672979;
    ( 60+, <=200, N, Y, LVH, F ) 0.5, 0.5;
    ( 60+, <=200, N, Y, LVH, M ) 0.008532423208191127, 0.9914675767918089;
    ( 60+, <=200, N, Y, Normal, F ) 0.5, 0.5;
    ( 60+, <=200, N, Y, Normal, M ) 0.008532423208191127, 0.9914675767918089;
    ( 60+, <=200, N, Y, ST, F ) 0.5, 0.5;
    ( 60+, <=200, N, Y, ST, M ) 0.5, 0.5;
    ( 60+, <=200, Y, N, LVH, F ) 0.5, 0.5;
    ( 60+, <=200, Y, N, LVH, M ) 0.004302925989672979, 0.9956970740103271;
    ( 60+, <=200, Y, N, Normal, F ) 0.008532423208191127, 0.9914675767918089;
    ( 60+, <=200, Y, N, Normal, M ) 0.002876869965477561, 0.9971231300345225;
    ( 60+, <=200, Y, N, ST, F ) 0.5, 0.5;
    ( 60+, <=200, Y, N, ST, M ) 0.00216076058772688, 0.9978392394122731;
    ( 60+, <=200, Y, Y, LVH, F ) 0.5, 0.5;
    ( 60+, <=200, Y, Y, LVH, M ) 0.5, 0.5;
    ( 60+, <=200, Y, Y, Normal, F ) 0.5, 0.5;
    ( 60+, <=200, Y, Y, Normal, M ) 0.008532423208191127, 0.9914675767918089;
    ( 60+, <=200, Y, Y, ST, F ) 0.5, 0.5;
    ( 60+, <=200, Y, Y, ST, M ) 0.5, 0.5;

}
probability ( MaxHR | Age, Sex ) {
    ( 20-40, F ) 0.25, 0.012376237623762377, 0.1707920792079208, 0.5668316831683168;
    ( 20-40, M ) 0.2690023752969121, 0.1169833729216152, 0.17399049881235154, 0.44002375296912116;
    ( 40-50, F ) 0.2911311053984576, 0.16773778920308482, 0.14717223650385605, 0.3939588688946015;
    ( 40-50, M ) 0.2660481444332999, 0.17778335005015045, 0.25802407221664997, 0.2981444332998997;
    ( 50-60, F ) 0.40821501014198786, 0.1810344827586207, 0.21348884381338742, 0.19726166328600406;
    ( 50-60, M ) 0.2398283534647171, 0.30594405594405594, 0.2906865861411316, 0.16354100445009537;
    ( 60+, F ) 0.3496677740863787, 0.29651162790697677, 0.13704318936877077, 0.21677740863787376;
    ( 60+, M ) 0.19265232974910393, 0.4316009557945042, 0.33602150537634407, 0.03972520908004779;

}
probability ( Oldpeak | ExerciseAngina, HeartDisease ) {
    ( N, 0 ) 0.10204525674499565, 0.10552654482158398, 0.021975630983463883, 0.7704525674499565;
    ( N, 1 ) 0.11588235294117646, 0.21941176470588236, 0.16294117647058823, 0.5017647058823529;
    ( Y, 0 ) 0.2662162162162162, 0.2445945945945946, 0.05, 0.4391891891891892;
    ( Y, 1 ) 0.18224592220828106, 0.44824341279799246, 0.2374529485570891, 0.13205771643663738;

}
probability ( RestingBP | Age, Cholesterol ) {
    ( 20-40, 200-240 ) 0.38763197586727, 0.17043740573152336, 0.4419306184012066;
    ( 20-40, 240+ ) 0.34466477809254015, 0.14069877242681775, 0.5146364494806421;
    ( 20-40, <=200 ) 0.3524720893141946, 0.06539074960127592, 0.5821371610845295;
    ( 40-50, 200-240 ) 0.4744459520578923, 0.09995477159656264, 0.42559927634554495;
    ( 40-50, 240+ ) 0.40984767977329084, 0.23131420474672337, 0.3588381154799859;
    ( 40-50, <=200 ) 0.2734829592684954, 0.2136325852036575, 0.512884455527847;
    ( 50-60, 200-240 ) 0.5317102494740006, 0.19627291854523599, 0.2720168319807635;
    ( 50-60, 240+ ) 0.5292169387272297, 0.2907499408563993, 0.18003312041637096;
    ( 50-60, <=200 ) 0.5605278255880665, 0.20940906483075156, 0.23006310958118187;
    ( 60+, 200-240 ) 0.3159797541576283, 0.49819233550253067, 0.18582791033984092;
    ( 60+, 240+ ) 0.44246239944036375, 0.34172787688002804, 0.2158097236796083;
    ( 60+, <=200 ) 0.4152445961319681, 0.45620022753128553, 0.1285551763367463;

}
probability ( RestingECG | Age ) {
    ( 20-40 ) 0.08301404853128992, 0.8033205619412516, 0.1136653895274585;
    ( 40-50 ) 0.15824915824915825, 0.7296777296777297, 0.11207311207311207;
    ( 50-60 ) 0.27266860277508875, 0.5437237818651177, 0.18360761535979347;
    ( 60+ ) 0.3333333333333333, 0.45284124194493264, 0.21382542472173405;

}
probability ( ST_Slope | ExerciseAngina, HeartDisease, Oldpeak ) {
    ( N, 0, 0-5-1 ) 0.07178393745557925, 0.34470504619758346, 0.5835110163468373;
    ( N, 0, 1-2 ) 0.036426116838487975, 0.5312714776632302, 0.43230240549828175;
    ( N, 0, 2+ ) 0.6501650165016502, 0.1749174917491749, 0.1749174917491749;
    ( N, 0, <=0.5 ) 0.004989174432834417, 0.07276663842605667, 0.9222441871411089;
    ( N, 1, 0-5-1 ) 0.08967851099830797, 0.6582064297800339, 0.2521150592216582;
    ( N, 1, 1-2 ) 0.04736371760500446, 0.905272564789991, 0.04736371760500446;
    ( N, 1, 2+ ) 0.2370637785800241, 0.6991576413959085, 0.06377858002406739;
    ( N, 1, <=0.5 ) 0.00195388823759281, 0.6772176631496678, 0.32082844861273935;
    ( Y, 0, 0-5-1 ) 0.008460236886632827, 0.8206429780033841, 0.1708967851099831;
    ( Y, 0, 1-2 ) 0.1860036832412523, 0.5395948434622468, 0.2744014732965009;
    ( Y, 0, 2+ ) 0.04504504504504506, 0.90990990990991, 0.04504504504504506;
    ( Y, 0, <=0.5 ) 0.005128205128205128, 0.15282051282051282, 0.8420512820512821;
    ( Y, 1, 0-5-1 ) 0.0028686173264486524, 0.8841078600114746, 0.11302352266207691;
    ( Y, 1, 1-2 ) 0.05714952181012362, 0.874504315372055, 0.06834616281782131;
    ( Y, 1, 2+ ) 0.3403786878027301, 0.615147512109203, 0.04447380008806693;
    ( Y, 1, <=0.5 ) 0.00395882818685669, 0.8400633412509897, 0.15597783056215359;

}
probability ( Sex ) {
    table 0.2511737089201878, 0.7488262910798122 ;
}
