<?xml version='1.0' encoding='utf-8'?>
<BIF VERSION="0.3">
  <NETWORK>
    <NAME>UNTITLED</NAME>
    <VARIABLE TYPE="nature">
      <NAME>Age</NAME>
      <OUTCOME>20_40</OUTCOME>
      <OUTCOME>40_50</OUTCOME>
      <OUTCOME>50_60</OUTCOME>
      <OUTCOME>60_70</OUTCOME>
      <OUTCOME>70_</OUTCOME>
      <PROPERTY />
    </VARIABLE>
    <VARIABLE TYPE="nature">
      <NAME>ChestPainType</NAME>
      <OUTCOME>ASY</OUTCOME>
      <OUTCOME>ATA</OUTCOME>
      <OUTCOME>NAP</OUTCOME>
      <OUTCOME>TA</OUTCOME>
      <PROPERTY />
    </VARIABLE>
    <VARIABLE TYPE="nature">
      <NAME>Cholesterol</NAME>
      <OUTCOME>200_240</OUTCOME>
      <OUTCOME>240_</OUTCOME>
      <OUTCOME>_200</OUTCOME>
      <PROPERTY />
    </VARIABLE>
    <VARIABLE TYPE="nature">
      <NAME>ExerciseAngina</NAME>
      <OUTCOME>N</OUTCOME>
      <OUTCOME>Y</OUTCOME>
      <PROPERTY />
    </VARIABLE>
    <VARIABLE TYPE="nature">
      <NAME>FastingBS</NAME>
      <OUTCOME>N</OUTCOME>
      <OUTCOME>Y</OUTCOME>
      <PROPERTY />
    </VARIABLE>
    <VARIABLE TYPE="nature">
      <NAME>HeartDisease</NAME>
      <OUTCOME>0</OUTCOME>
      <OUTCOME>1</OUTCOME>
      <PROPERTY />
    </VARIABLE>
    <VARIABLE TYPE="nature">
      <NAME>MaxHR</NAME>
      <OUTCOME>high</OUTCOME>
      <OUTCOME>low</OUTCOME>
      <OUTCOME>medium</OUTCOME>
      <OUTCOME>very_high</OUTCOME>
      <PROPERTY />
    </VARIABLE>
    <VARIABLE TYPE="nature">
      <NAME>Oldpeak</NAME>
      <OUTCOME>0_5_1</OUTCOME>
      <OUTCOME>1_2</OUTCOME>
      <OUTCOME>2_</OUTCOME>
      <OUTCOME>_0_5</OUTCOME>
      <PROPERTY />
    </VARIABLE>
    <VARIABLE TYPE="nature">
      <NAME>RestingBP</NAME>
      <OUTCOME>120_140</OUTCOME>
      <OUTCOME>140_</OUTCOME>
      <OUTCOME>90_120</OUTCOME>
      <PROPERTY />
    </VARIABLE>
    <VARIABLE TYPE="nature">
      <NAME>RestingECG</NAME>
      <OUTCOME>LVH</OUTCOME>
      <OUTCOME>Normal</OUTCOME>
      <OUTCOME>ST</OUTCOME>
      <PROPERTY />
    </VARIABLE>
    <VARIABLE TYPE="nature">
      <NAME>ST_Slope</NAME>
      <OUTCOME>Down</OUTCOME>
      <OUTCOME>Flat</OUTCOME>
      <OUTCOME>Up</OUTCOME>
      <PROPERTY />
    </VARIABLE>
    <VARIABLE TYPE="nature">
      <NAME>Sex</NAME>
      <OUTCOME>F</OUTCOME>
      <OUTCOME>M</OUTCOME>
      <PROPERTY />
    </VARIABLE>
    <DEFINITION>
      <FOR>Age</FOR>
      <TABLE>0.10172143974960876 0.27073552425665104 0.40375586854460094 0.19405320813771518 0.0297339593114241 </TABLE>
    </DEFINITION>
    <DEFINITION>
      <FOR>ChestPainType</FOR>
      <GIVEN>HeartDisease</GIVEN>
      <TABLE>0.2537481259370315 0.358695652173913 0.3137181409295352 0.07383808095952024 0.7647299509001637 0.06096563011456629 0.12970540098199673 0.04459901800327332 </TABLE>
    </DEFINITION>
    <DEFINITION>
      <FOR>Cholesterol</FOR>
      <GIVEN>Age</GIVEN>
      <GIVEN>Sex</GIVEN>
      <TABLE>0.41333333333333333 0.2533333333333333 0.33333333333333337 0.2507936507936508 0.4984126984126984 0.2507936507936508 0.39518900343642616 0.436426116838488 0.1683848797250859 0.3386880856760375 0.45917001338688085 0.20214190093708168 0.24661246612466126 0.6368563685636857 0.11653116531165314 0.3927056827820187 0.3977947413061917 0.20949957591178964 0.22051282051282053 0.6512820512820513 0.12820512820512822 0.2641165755919854 0.5591985428051002 0.1766848816029144 0.0303030303030303 0.5757575757575757 0.3939393939393939 0.5308641975308642 0.308641975308642 0.16049382716049382 </TABLE>
    </DEFINITION>
    <DEFINITION>
      <FOR>ExerciseAngina</FOR>
      <GIVEN>MaxHR</GIVEN>
      <GIVEN>Sex</GIVEN>
      <TABLE>0.7606741573033707 0.2393258426966292 0.6657579062159215 0.33424209378407854 0.6632653061224489 0.336734693877551 0.3016838166510758 0.6983161833489242 0.6628959276018099 0.33710407239819007 0.4962581852198316 0.5037418147801683 0.9075067024128687 0.09249329758713137 0.9036222509702458 0.0963777490297542 </TABLE>
    </DEFINITION>
    <DEFINITION>
      <FOR>FastingBS</FOR>
      <GIVEN>Age</GIVEN>
      <GIVEN>RestingBP</GIVEN>
      <TABLE>0.9928571428571428 0.007142857142857142 0.86 0.13999999999999999 0.9650000000000001 0.03500000000000001 0.8981042654028436 0.10189573459715641 0.9946808510638298 0.005319148936170212 0.9275700934579438 0.07242990654205607 0.7530120481927711 0.24698795180722888 0.7566844919786097 0.24331550802139038 0.8924418604651163 0.10755813953488373 0.771875 0.22812500000000002 0.6862068965517242 0.3137931034482759 0.9925373134328358 0.007462686567164178 0.7307692307692308 0.2692307692307693 0.44642857142857145 0.5535714285714286 0.78125 0.21875 </TABLE>
    </DEFINITION>
    <DEFINITION>
      <FOR>HeartDisease</FOR>
      <GIVEN>Age</GIVEN>
      <GIVEN>Cholesterol</GIVEN>
      <GIVEN>ExerciseAngina</GIVEN>
      <GIVEN>FastingBS</GIVEN>
      <GIVEN>RestingECG</GIVEN>
      <GIVEN>Sex</GIVEN>
      <TABLE>0.5 0.5 0.9931506849315068 0.00684931506849315 0.9982698961937716 0.0017301038062283735 0.7773497688751926 0.22265023112480742 0.9931506849315068 0.00684931506849315 0.9931506849315068 0.00684931506849315 0.5 0.5 0.5 0.5 0.5 0.5 0.5 0.5 0.5 0.5 0.5 0.5 0.5 0.5 0.5 0.5 0.5 0.5 0.5 0.5 0.5 0.5 0.5 0.5 0.5 0.5 0.5 0.5 0.5 0.5 0.5 0.5 0.5 0.5 0.5 0.5 0.5 0.5 0.9965517241379309 0.0034482758620689646 0.5 0.5 0.749826509368494 0.2501734906315059 0.5 0.5 0.9931506849315068 0.00684931506849315 0.5 0.5 0.5 0.5 0.5 0.5 0.5 0.5 0.5 0.5 0.5 0.5 0.5 0.5 0.5 0.5 0.00684931506849315 0.9931506849315068 0.0034482758620689646 0.9965517241379309 0.5 0.5 0.5 0.5 0.5 0.5 0.5 0.5 0.5 0.5 0.00684931506849315 0.9931506849315068 0.5 0.5 0.5 0.5 0.5 0.5 0.9931506849315068 0.00684931506849315 0.9931506849315068 0.00684931506849315 0.5 0.5 0.9976958525345622 0.0023041474654377876 0.9931506849315068 0.00684931506849315 0.5 0.5 0.5 0.5 0.5 0.5 0.9931506849315068 0.00684931506849315 0.5 0.5 0.5 0.5 0.5 0.5 0.00684931506849315 0.9931506849315068 0.5 0.5 0.4002770083102493 0.5997229916897507 0.5 0.5 0.5 0.5 0.5 0.5 0.5 0.5 0.5 0.5 0.5 0.5 0.5 0.5 0.5 0.5 0.9965517241379309 0.0034482758620689646 0.9976958525345622 0.0023041474654377876 0.9993694829760403 0.0006305170239596468 0.749826509368494 0.2501734906315059 0.9976958525345622 0.0023041474654377876 0.9965517241379309 0.0034482758620689646 0.5 0.5 0.5 0.5 0.5 0.5 0.9931506849315068 0.00684931506849315 0.5 0.5 0.00684931506849315 0.9931506849315068 0.5 0.5 0.9931506849315068 0.00684931506849315 0.3341013824884792 0.6658986175115207 0.30027739251040225 0.6997226074895978 0.5 0.5 0.3341013824884792 0.6658986175115207 0.5 0.5 0.5 0.5 0.5 0.5 0.00684931506849315 0.9931506849315068 0.5 0.5 0.5 0.5 0.9965517241379309 0.0034482758620689646 0.7138613861386138 0.28613861386138617 0.9993694829760403 0.0006305170239596468 0.7082128397917872 0.2917871602082129 0.9976958525345622 0.0023041474654377876 0.7491349480968857 0.25086505190311414 0.5 0.5 0.5 0.5 0.00684931506849315 0.9931506849315068 0.3341013824884792 0.6658986175115207 0.5 0.5 0.5 0.5 0.9965517241379309 0.0034482758620689646 0.0023041474654377876 0.9976958525345622 0.5 0.5 0.0838150289017341 0.9161849710982659 0.5 0.5 0.00684931506849315 0.9931506849315068 0.5 0.5 0.0034482758620689646 0.9965517241379309 0.5 0.5 0.9931506849315068 0.00684931506849315 0.5 0.5 0.5 0.5 0.5 0.5 0.0034482758620689646 0.9965517241379309 0.9988452655889145 0.0011547344110854501 0.9226254002134472 0.07737459978655283 0.5 0.5 0.00684931506849315 0.9931506849315068 0.5 0.5 0.5 0.5 0.5 0.5 0.9931506849315068 0.00684931506849315 0.9931506849315068 0.00684931506849315 0.5 0.5 0.9931506849315068 0.00684931506849315 0.0034482758620689646 0.9965517241379309 0.5 0.5 0.1674364896073903 0.8325635103926097 0.5 0.5 0.5 0.5 0.5 0.5 0.5 0.5 0.5 0.5 0.5 0.5 0.5 0.5 0.5 0.5 0.6658986175115207 0.3341013824884792 0.5 0.5 0.9988452655889145 0.0011547344110854501 0.6189689358889623 0.38103106411103765 0.9931506849315068 0.00684931506849315 0.6658986175115207 0.3341013824884792 0.5 0.5 0.9931506849315068 0.00684931506849315 0.9931506849315068 0.00684931506849315 0.5997229916897507 0.4002770083102493 0.5 0.5 0.5 0.5 0.5 0.5 0.3752166377816291 0.6247833622183708 0.9965517241379309 0.0034482758620689646 0.4286422200198216 0.5713577799801783 0.00684931506849315 0.9931506849315068 0.12564991334488734 0.8743500866551126 0.00684931506849315 0.9931506849315068 0.00684931506849315 0.9931506849315068 0.5 0.5 0.0017301038062283735 0.9982698961937716 0.5 0.5 0.0034482758620689646 0.9965517241379309 0.7995839112343966 0.20041608876560335 0.30027739251040225 0.6997226074895978 0.8994452149791955 0.10055478502080444 0.7140733399405351 0.2859266600594648 0.9931506849315068 0.00684931506849315 0.6658986175115207 0.3341013824884792 0.6658986175115207 0.3341013824884792 0.9976958525345622 0.0023041474654377876 0.9931506849315068 0.00684931506849315 0.9982698961937716 0.0017301038062283735 0.00684931506849315 0.9931506849315068 0.0034482758620689646 0.9965517241379309 0.00684931506849315 0.9931506849315068 0.0008665511265164644 0.9991334488734835 0.1674364896073903 0.8325635103926097 0.1179591836734694 0.8820408163265306 0.3341013824884792 0.6658986175115207 0.1674364896073903 0.8325635103926097 0.5 0.5 0.0017301038062283735 0.9982698961937716 0.5 0.5 0.0034482758620689646 0.9965517241379309 0.00684931506849315 0.9931506849315068 0.0013850415512465372 0.9986149584487535 0.9931506849315068 0.00684931506849315 0.5 0.5 0.9982698961937716 0.0017301038062283735 0.7892622352081812 0.21073776479181885 0.5 0.5 0.9976958525345622 0.0023041474654377876 0.5 0.5 0.5 0.5 0.9931506849315068 0.00684931506849315 0.9931506849315068 0.00684931506849315 0.5 0.5 0.9931506849315068 0.00684931506849315 0.5 0.5 0.0034482758620689646 0.9965517241379309 0.9931506849315068 0.00684931506849315 0.14356435643564355 0.8564356435643564 0.5 0.5 0.00684931506849315 0.9931506849315068 0.5 0.5 0.0034482758620689646 0.9965517241379309 0.5 0.5 0.5 0.5 0.5 0.5 0.00684931506849315 0.9931506849315068 0.5 0.5 0.5997229916897507 0.4002770083102493 0.9982698961937716 0.0017301038062283735 0.2008310249307479 0.7991689750692521 0.5 0.5 0.9965517241379309 0.0034482758620689646 0.5 0.5 0.9965517241379309 0.0034482758620689646 0.5 0.5 0.5 0.5 0.5 0.5 0.5 0.5 0.5 0.5 0.0034482758620689646 0.9965517241379309 0.5 0.5 0.00684931506849315 0.9931506849315068 0.5 0.5 0.0023041474654377876 0.9976958525345622 0.5 0.5 0.00684931506849315 0.9931506849315068 0.00684931506849315 0.9931506849315068 0.00684931506849315 0.9931506849315068 0.5 0.5 0.0034482758620689646 0.9965517241379309 0.6247833622183708 0.3752166377816291 0.33359013867488446 0.6664098613251156 0.7991689750692521 0.2008310249307479 0.6662817551963048 0.33371824480369516 0.5 0.5 0.5 0.5 0.9931506849315068 0.00684931506849315 0.0034482758620689646 0.9965517241379309 0.00684931506849315 0.9931506849315068 0.00684931506849315 0.9931506849315068 0.5 0.5 0.5 0.5 0.5 0.5 0.0017301038062283735 0.9982698961937716 0.25086505190311414 0.7491349480968857 0.0914249684741488 0.9085750315258512 0.9931506849315068 0.00684931506849315 0.12564991334488734 0.8743500866551126 0.5 0.5 0.0023041474654377876 0.9976958525345622 0.9931506849315068 0.00684931506849315 0.5 0.5 0.5 0.5 0.0023041474654377876 0.9976958525345622 0.00684931506849315 0.9931506849315068 0.5 0.5 0.9965517241379309 0.0034482758620689646 0.9931506849315068 0.00684931506849315 0.5 0.5 0.9965517241379309 0.0034482758620689646 0.5 0.5 0.5 0.5 0.5 0.5 0.00684931506849315 0.9931506849315068 0.5 0.5 0.5 0.5 0.5 0.5 0.0034482758620689646 0.9965517241379309 0.00684931506849315 0.9931506849315068 0.0023041474654377876 0.9976958525345622 0.5 0.5 0.0017301038062283735 0.9982698961937716 0.5 0.5 0.5 0.5 0.5 0.5 0.00684931506849315 0.9931506849315068 0.5 0.5 0.5 0.5 0.5 0.5 0.5 0.5 0.5 0.5 0.5 0.5 0.5 0.5 0.5 0.5 0.5 0.5 0.5 0.5 0.5 0.5 0.00684931506849315 0.9931506849315068 0.5 0.5 0.00684931506849315 0.9931506849315068 0.5 0.5 0.5 0.5 0.5 0.5 0.0017301038062283735 0.9982698961937716 0.5 0.5 0.5 0.5 0.5 0.5 0.5 0.5 0.5 0.5 0.00684931506849315 0.9931506849315068 0.5 0.5 0.5 0.5 0.5 0.5 0.5 0.5 0.9931506849315068 0.00684931506849315 0.5 0.5 0.5 0.5 0.5 0.5 0.9931506849315068 0.00684931506849315 0.5 0.5 0.5 0.5 0.5 0.5 0.5 0.5 0.5 0.5 0.9931506849315068 0.00684931506849315 0.00684931506849315 0.9931506849315068 0.5 0.5 0.00684931506849315 0.9931506849315068 0.5 0.5 0.5 0.5 0.5 0.5 0.5 0.5 0.5 0.5 0.9931506849315068 0.00684931506849315 0.5 0.5 0.00684931506849315 0.9931506849315068 0.5 0.5 0.00684931506849315 0.9931506849315068 0.9931506849315068 0.00684931506849315 0.5 0.5 0.9931506849315068 0.00684931506849315 0.5 0.5 0.5 0.5 0.00684931506849315 0.9931506849315068 0.5 0.5 0.5 0.5 0.5 0.5 0.5 0.5 0.5 0.5 0.5 0.5 0.5 0.5 0.5 0.5 0.5 0.5 0.5 0.5 0.5 0.5 0.5 0.5 0.5 0.5 0.5 0.5 0.5 0.5 0.5 0.5 </TABLE>
    </DEFINITION>
    <DEFINITION>
      <FOR>MaxHR</FOR>
      <GIVEN>Age</GIVEN>
      <GIVEN>Sex</GIVEN>
      <TABLE>0.25 0.01 0.17 0.57 0.26904761904761904 0.11666666666666667 0.1738095238095238 0.44047619047619047 0.2912371134020619 0.16752577319587628 0.14690721649484537 0.3943298969072165 0.2660642570281124 0.17771084337349397 0.2580321285140562 0.29819277108433734 0.40853658536585363 0.18089430894308944 0.21341463414634146 0.19715447154471544 0.23982188295165394 0.3059796437659033 0.2907124681933842 0.16348600508905853 0.40384615384615385 0.28076923076923077 0.09615384615384616 0.21923076923076923 0.21994535519125682 0.383879781420765 0.3620218579234973 0.03415300546448088 0.022727272727272728 0.38636363636363635 0.38636363636363635 0.20454545454545456 0.009259259259259259 0.75 0.1574074074074074 0.08333333333333333 </TABLE>
    </DEFINITION>
    <DEFINITION>
      <FOR>Oldpeak</FOR>
      <GIVEN>ExerciseAngina</GIVEN>
      <GIVEN>HeartDisease</GIVEN>
      <TABLE>0.10204525674499565 0.10552654482158398 0.021975630983463883 0.7704525674499565 0.11588235294117646 0.21941176470588236 0.16294117647058823 0.5017647058823529 0.2662162162162162 0.2445945945945946 0.05 0.4391891891891892 0.18224592220828106 0.44824341279799246 0.2374529485570891 0.13205771643663738 </TABLE>
    </DEFINITION>
    <DEFINITION>
      <FOR>RestingBP</FOR>
      <GIVEN>Age</GIVEN>
      <GIVEN>Cholesterol</GIVEN>
      <TABLE>0.3878787878787879 0.1696969696969697 0.44242424242424244 0.3446969696969697 0.14015151515151514 0.5151515151515151 0.3525641025641026 0.06410256410256411 0.5833333333333334 0.47463768115942034 0.09963768115942029 0.4257246376811594 0.4099290780141844 0.23120567375886522 0.3588652482269503 0.2733333333333334 0.21333333333333335 0.5133333333333334 0.5318892900120337 0.1961492178098676 0.2719614921780986 0.5293560606060606 0.29071969696969696 0.1799242424242424 0.5609195402298851 0.20919540229885059 0.2298850574712644 0.32269503546099293 0.4822695035460993 0.1950354609929078 0.4715821812596006 0.31950844854070654 0.20890937019969275 0.44808743169398907 0.4972677595628415 0.054644808743169404 0.28787878787878796 0.5606060606060607 0.15151515151515155 0.15151515151515155 0.5606060606060607 0.28787878787878796 0.2564102564102564 0.2564102564102564 0.4871794871794871 </TABLE>
    </DEFINITION>
    <DEFINITION>
      <FOR>RestingECG</FOR>
      <GIVEN>Age</GIVEN>
      <TABLE>0.08205128205128205 0.8051282051282052 0.11282051282051282 0.1579961464354528 0.7302504816955684 0.1117533718689788 0.272609819121447 0.5439276485788114 0.1834625322997416 0.3413978494623656 0.4381720430107527 0.22043010752688172 0.2807017543859649 0.543859649122807 0.1754385964912281 </TABLE>
    </DEFINITION>
    <DEFINITION>
      <FOR>ST_Slope</FOR>
      <GIVEN>ExerciseAngina</GIVEN>
      <GIVEN>HeartDisease</GIVEN>
      <GIVEN>Oldpeak</GIVEN>
      <TABLE>0.07178393745557925 0.34470504619758346 0.5835110163468373 0.036426116838487975 0.5312714776632302 0.43230240549828175 0.6501650165016502 0.1749174917491749 0.1749174917491749 0.004989174432834417 0.07276663842605667 0.9222441871411089 0.08967851099830797 0.6582064297800339 0.2521150592216582 0.04736371760500446 0.905272564789991 0.04736371760500446 0.2370637785800241 0.6991576413959085 0.06377858002406739 0.00195388823759281 0.6772176631496678 0.32082844861273935 0.008460236886632827 0.8206429780033841 0.1708967851099831 0.1860036832412523 0.5395948434622468 0.2744014732965009 0.04504504504504506 0.90990990990991 0.04504504504504506 0.005128205128205128 0.15282051282051282 0.8420512820512821 0.0028686173264486524 0.8841078600114746 0.11302352266207691 0.05714952181012362 0.874504315372055 0.06834616281782131 0.3403786878027301 0.615147512109203 0.04447380008806693 0.00395882818685669 0.8400633412509897 0.15597783056215359 </TABLE>
    </DEFINITION>
    <DEFINITION>
      <FOR>Sex</FOR>
      <TABLE>0.2511737089201878 0.7488262910798122 </TABLE>
    </DEFINITION>
  </NETWORK>
</BIF>
