network unknown {
}
variable Age {
    type discrete [ 5 ] { 20-40, 40-50, 50-60, 60-70, 70+ };
}
variable ChestPainType {
    type discrete [ 4 ] { ASY, ATA, NAP, TA };
}
variable Cholesterol {
    type discrete [ 3 ] { 200-240, 240+, <=200 };
}
variable ExerciseAngina {
    type discrete [ 2 ] { N, Y };
}
variable FastingBS {
    type discrete [ 2 ] { N, Y };
}
variable HeartDisease {
    type discrete [ 2 ] { 0, 1 };
}
variable MaxHR {
    type discrete [ 4 ] { high, low, medium, very-high };
}
variable Oldpeak {
    type discrete [ 4 ] { 0-5-1, 1-2, 2+, <=0.5 };
}
variable RestingBP {
    type discrete [ 3 ] { 120-140, 140+, 90-120 };
}
variable RestingECG {
    type discrete [ 3 ] { LVH, Normal, ST };
}
variable ST_Slope {
    type discrete [ 3 ] { Down, Flat, Up };
}
variable Sex {
    type discrete [ 2 ] { F, M };
}
probability ( Age ) {
    table 0.10172143974960876, 0.27073552425665104, 0.40375586854460094, 0.19405320813771518, 0.0297339593114241 ;
}
probability ( ChestPainType | HeartDisease ) {
    ( 0 ) 0.2537481259370315, 0.358695652173913, 0.3137181409295352, 0.07383808095952024;
    ( 1 ) 0.7647299509001637, 0.06096563011456629, 0.12970540098199673, 0.04459901800327332;

}
probability ( Cholesterol | Age, Sex ) {
    ( 20-40, F ) 0.41333333333333333, 0.2533333333333333, 0.33333333333333337;
    ( 20-40, M ) 0.2507936507936508, 0.4984126984126984, 0.2507936507936508;
    ( 40-50, F ) 0.39518900343642616, 0.436426116838488, 0.1683848797250859;
    ( 40-50, M ) 0.3386880856760375, 0.45917001338688085, 0.20214190093708168;
    ( 50-60, F ) 0.24661246612466126, 0.6368563685636857, 0.11653116531165314;
    ( 50-60, M ) 0.3927056827820187, 0.3977947413061917, 0.20949957591178964;
    ( 60-70, F ) 0.22051282051282053, 0.6512820512820513, 0.12820512820512822;
    ( 60-70, M ) 0.2641165755919854, 0.5591985428051002, 0.1766848816029144;
    ( 70+, F ) 0.0303030303030303, 0.5757575757575757, 0.3939393939393939;
    ( 70+, M ) 0.5308641975308642, 0.308641975308642, 0.16049382716049382;

}
probability ( ExerciseAngina | MaxHR, Sex ) {
    ( high, F ) 0.7606741573033707, 0.2393258426966292;
    ( high, M ) 0.6657579062159215, 0.33424209378407854;
    ( low, F ) 0.6632653061224489, 0.336734693877551;
    ( low, M ) 0.3016838166510758, 0.6983161833489242;
    ( medium, F ) 0.6628959276018099, 0.33710407239819007;
    ( medium, M ) 0.4962581852198316, 0.5037418147801683;
    ( very-high, F ) 0.9075067024128687, 0.09249329758713137;
    ( very-high, M ) 0.9036222509702458, 0.0963777490297542;

}
probability ( FastingBS | Age, RestingBP ) {
    ( 20-40, 120-140 ) 0.9928571428571428, 0.007142857142857142;
    ( 20-40, 140+ ) 0.86, 0.13999999999999999;
    ( 20-40, 90-120 ) 0.9650000000000001, 0.03500000000000001;
    ( 40-50, 120-140 ) 0.8981042654028436, 0.10189573459715641;
    ( 40-50, 140+ ) 0.9946808510638298, 0.005319148936170212;
    ( 40-50, 90-120 ) 0.9275700934579438, 0.07242990654205607;
    ( 50-60, 120-140 ) 0.7530120481927711, 0.24698795180722888;
    ( 50-60, 140+ ) 0.7566844919786097, 0.24331550802139038;
    ( 50-60, 90-120 ) 0.8924418604651163, 0.10755813953488373;
    ( 60-70, 120-140 ) 0.771875, 0.22812500000000002;
    ( 60-70, 140+ ) 0.6862068965517242, 0.3137931034482759;
    ( 60-70, 90-120 ) 0.9925373134328358, 0.007462686567164178;
    ( 70+, 120-140 ) 0.7307692307692308, 0.2692307692307693;
    ( 70+, 140+ ) 0.44642857142857145, 0.5535714285714286;
    ( 70+, 90-120 ) 0.78125, 0.21875;

}
probability ( HeartDisease | Age, Cholesterol, ExerciseAngina, FastingBS, RestingECG, Sex ) {
    ( 20-40, 200-240, N, N, LVH, F ) 0.5, 0.5;
    ( 20-40, 200-240, N, N, LVH, M ) 0.9931506849315068, 0.00684931506849315;
    ( 20-40, 200-240, N, N, Normal, F ) 0.9982698961937716, 0.0017301038062283735;
    ( 20-40, 200-240, N, N, Normal, M ) 0.7773497688751926, 0.22265023112480742;
    ( 20-40, 200-240, N, N, ST, F ) 0.9931506849315068, 0.00684931506849315;
    ( 20-40, 200-240, N, N, ST, M ) 0.9931506849315068, 0.00684931506849315;
    ( 20-40, 200-240, N, Y, LVH, F ) 0.5, 0.5;
    ( 20-40, 200-240, N, Y, LVH, M ) 0.5, 0.5;
    ( 20-40, 200-240, N, Y, Normal, F ) 0.5, 0.5;
    ( 20-40, 200-240, N, Y, Normal, M ) 0.5, 0.5;
    ( 20-40, 200-240, N, Y, ST, F ) 0.5, 0.5;
    ( 20-40, 200-240, N, Y, ST, M ) 0.5, 0.5;
    ( 20-40, 200-240, Y, N, LVH, F ) 0.5, 0.5;
    ( 20-40, 200-240, Y, N, LVH, M ) 0.5, 0.5;
    ( 20-40, 200-240, Y, N, Normal, F ) 0.5, 0.5;
    ( 20-40, 200-240, Y, N, Normal, M ) 0.5, 0.5;
    ( 20-40, 200-240, Y, N, ST, F ) 0.5, 0.5;
    ( 20-40, 200-240, Y, N, ST, M ) 0.5, 0.5;
    ( 20-40, 200-240, Y, Y, LVH, F ) 0.5, 0.5;
    ( 20-40, 200-240, Y, Y, LVH, M ) 0.5, 0.5;
    ( 20-40, 200-240, Y, Y, Normal, F ) 0.5, 0.5;
    ( 20-40, 200-240, Y, Y, Normal, M ) 0.5, 0.5;
    ( 20-40, 200-240, Y, Y, ST, F ) 0.5, 0.5;
    ( 20-40, 200-240, Y, Y, ST, M ) 0.5, 0.5;
    ( 20-40, 240+, N, N, LVH, F ) 0.5, 0.5;
    ( 20-40, 240+, N, N, LVH, M ) 0.9965517241379309, 0.0034482758620689646;
    ( 20-40, 240+, N, N, Normal, F ) 0.5, 0.5;
    ( 20-40, 240+, N, N, Normal, M ) 0.749826509368494, 0.2501734906315059;
    ( 20-40, 240+, N, N, ST, F ) 0.5, 0.5;
    ( 20-40, 240+, N, N, ST, M ) 0.9931506849315068, 0.00684931506849315;
    ( 20-40, 240+, N, Y, LVH, F ) 0.5, 0.5;
    ( 20-40, 240+, N, Y, LVH, M ) 0.5, 0.5;
    ( 20-40, 240+, N, Y, Normal, F ) 0.5, 0.5;
    ( 20-40, 240+, N, Y, Normal, M ) 0.5, 0.5;
    ( 20-40, 240+, N, Y, ST, F ) 0.5, 0.5;
    ( 20-40, 240+, N, Y, ST, M ) 0.5, 0.5;
    ( 20-40, 240+, Y, N, LVH, F ) 0.5, 0.5;
    ( 20-40, 240+, Y, N, LVH, M ) 0.5, 0.5;
    ( 20-40, 240+, Y, N, Normal, F ) 0.00684931506849315, 0.9931506849315068;
    ( 20-40, 240+, Y, N, Normal, M ) 0.0034482758620689646, 0.9965517241379309;
    ( 20-40, 240+, Y, N, ST, F ) 0.5, 0.5;
    ( 20-40, 240+, Y, N, ST, M ) 0.5, 0.5;
    ( 20-40, 240+, Y, Y, LVH, F ) 0.5, 0.5;
    ( 20-40, 240+, Y, Y, LVH, M ) 0.5, 0.5;
    ( 20-40, 240+, Y, Y, Normal, F ) 0.5, 0.5;
    ( 20-40, 240+, Y, Y, Normal, M ) 0.00684931506849315, 0.9931506849315068;
    ( 20-40, 240+, Y, Y, ST, F ) 0.5, 0.5;
    ( 20-40, 240+, Y, Y, ST, M ) 0.5, 0.5;
    ( 20-40, <=200, N, N, LVH, F ) 0.5, 0.5;
    ( 20-40, <=200, N, N, LVH, M ) 0.9931506849315068, 0.00684931506849315;
    ( 20-40, <=200, N, N, Normal, F ) 0.9931506849315068, 0.00684931506849315;
    ( 20-40, <=200, N, N, Normal, M ) 0.5, 0.5;
    ( 20-40, <=200, N, N, ST, F ) 0.9976958525345622, 0.0023041474654377876;
    ( 20-40, <=200, N, N, ST, M ) 0.9931506849315068, 0.00684931506849315;
    ( 20-40, <=200, N, Y, LVH, F ) 0.5, 0.5;
    ( 20-40, <=200, N, Y, LVH, M ) 0.5, 0.5;
    ( 20-40, <=200, N, Y, Normal, F ) 0.5, 0.5;
    ( 20-40, <=200, N, Y, Normal, M ) 0.9931506849315068, 0.00684931506849315;
    ( 20-40, <=200, N, Y, ST, F ) 0.5, 0.5;
    ( 20-40, <=200, N, Y, ST, M ) 0.5, 0.5;
    ( 20-40, <=200, Y, N, LVH, F ) 0.5, 0.5;
    ( 20-40, <=200, Y, N, LVH, M ) 0.00684931506849315, 0.9931506849315068;
    ( 20-40, <=200, Y, N, Normal, F ) 0.5, 0.5;
    ( 20-40, <=200, Y, N, Normal, M ) 0.4002770083102493, 0.5997229916897507;
    ( 20-40, <=200, Y, N, ST, F ) 0.5, 0.5;
    ( 20-40, <=200, Y, N, ST, M ) 0.5, 0.5;
    ( 20-40, <=200, Y, Y, LVH, F ) 0.5, 0.5;
    ( 20-40, <=200, Y, Y, LVH, M ) 0.5, 0.5;
    ( 20-40, <=200, Y, Y, Normal, F ) 0.5, 0.5;
    ( 20-40, <=200, Y, Y, Normal, M ) 0.5, 0.5;
    ( 20-40, <=200, Y, Y, ST, F ) 0.5, 0.5;
    ( 20-40, <=200, Y, Y, ST, M ) 0.5, 0.5;
    ( 40-50, 200-240, N, N, LVH, F ) 0.9965517241379309, 0.0034482758620689646;
    ( 40-50, 200-240, N, N, LVH, M ) 0.9976958525345622, 0.0023041474654377876;
    ( 40-50, 200-240, N, N, Normal, F ) 0.9993694829760403, 0.0006305170239596468;
    ( 40-50, 200-240, N, N, Normal, M ) 0.749826509368494, 0.2501734906315059;
    ( 40-50, 200-240, N, N, ST, F ) 0.9976958525345622, 0.0023041474654377876;
    ( 40-50, 200-240, N, N, ST, M ) 0.9965517241379309, 0.0034482758620689646;
    ( 40-50, 200-240, N, Y, LVH, F ) 0.5, 0.5;
    ( 40-50, 200-240, N, Y, LVH, M ) 0.5, 0.5;
    ( 40-50, 200-240, N, Y, Normal, F ) 0.5, 0.5;
    ( 40-50, 200-240, N, Y, Normal, M ) 0.9931506849315068, 0.00684931506849315;
    ( 40-50, 200-240, N, Y, ST, F ) 0.5, 0.5;
    ( 40-50, 200-240, N, Y, ST, M ) 0.00684931506849315, 0.9931506849315068;
    ( 40-50, 200-240, Y, N, LVH, F ) 0.5, 0.5;
    ( 40-50, 200-240, Y, N, LVH, M ) 0.9931506849315068, 0.00684931506849315;
    ( 40-50, 200-240, Y, N, Normal, F ) 0.3341013824884792, 0.6658986175115207;
    ( 40-50, 200-240, Y, N, Normal, M ) 0.30027739251040225, 0.6997226074895978;
    ( 40-50, 200-240, Y, N, ST, F ) 0.5, 0.5;
    ( 40-50, 200-240, Y, N, ST, M ) 0.3341013824884792, 0.6658986175115207;
    ( 40-50, 200-240, Y, Y, LVH, F ) 0.5, 0.5;
    ( 40-50, 200-240, Y, Y, LVH, M ) 0.5, 0.5;
    ( 40-50, 200-240, Y, Y, Normal, F ) 0.5, 0.5;
    ( 40-50, 200-240, Y, Y, Normal, M ) 0.00684931506849315, 0.9931506849315068;
    ( 40-50, 200-240, Y, Y, ST, F ) 0.5, 0.5;
    ( 40-50, 200-240, Y, Y, ST, M ) 0.5, 0.5;
    ( 40-50, 240+, N, N, LVH, F ) 0.9965517241379309, 0.0034482758620689646;
    ( 40-50, 240+, N, N, LVH, M ) 0.7138613861386138, 0.28613861386138617;
    ( 40-50, 240+, N, N, Normal, F ) 0.9993694829760403, 0.0006305170239596468;
    ( 40-50, 240+, N, N, Normal, M ) 0.7082128397917872, 0.2917871602082129;
    ( 40-50, 240+, N, N, ST, F ) 0.9976958525345622, 0.0023041474654377876;
    ( 40-50, 240+, N, N, ST, M ) 0.7491349480968857, 0.25086505190311414;
    ( 40-50, 240+, N, Y, LVH, F ) 0.5, 0.5;
    ( 40-50, 240+, N, Y, LVH, M ) 0.5, 0.5;
    ( 40-50, 240+, N, Y, Normal, F ) 0.00684931506849315, 0.9931506849315068;
    ( 40-50, 240+, N, Y, Normal, M ) 0.3341013824884792, 0.6658986175115207;
    ( 40-50, 240+, N, Y, ST, F ) 0.5, 0.5;
    ( 40-50, 240+, N, Y, ST, M ) 0.5, 0.5;
    ( 40-50, 240+, Y, N, LVH, F ) 0.9965517241379309, 0.0034482758620689646;
    ( 40-50, 240+, Y, N, LVH, M ) 0.0023041474654377876, 0.9976958525345622;
    ( 40-50, 240+, Y, N, Normal, F ) 0.5, 0.5;
    ( 40-50, 240+, Y, N, Normal, M ) 0.0838150289017341, 0.9161849710982659;
    ( 40-50, 240+, Y, N, ST, F ) 0.5, 0.5;
    ( 40-50, 240+, Y, N, ST, M ) 0.00684931506849315, 0.9931506849315068;
    ( 40-50, 240+, Y, Y, LVH, F ) 0.5, 0.5;
    ( 40-50, 240+, Y, Y, LVH, M ) 0.0034482758620689646, 0.9965517241379309;
    ( 40-50, 240+, Y, Y, Normal, F ) 0.5, 0.5;
    ( 40-50, 240+, Y, Y, Normal, M ) 0.9931506849315068, 0.00684931506849315;
    ( 40-50, 240+, Y, Y, ST, F ) 0.5, 0.5;
    ( 40-50, 240+, Y, Y, ST, M ) 0.5, 0.5;
    ( 40-50, <=200, N, N, LVH, F ) 0.5, 0.5;
    ( 40-50, <=200, N, N, LVH, M ) 0.0034482758620689646, 0.9965517241379309;
    ( 40-50, <=200, N, N, Normal, F ) 0.9988452655889145, 0.0011547344110854501;
    ( 40-50, <=200, N, N, Normal, M ) 0.9226254002134472, 0.07737459978655283;
    ( 40-50, <=200, N, N, ST, F ) 0.5, 0.5;
    ( 40-50, <=200, N, N, ST, M ) 0.00684931506849315, 0.9931506849315068;
    ( 40-50, <=200, N, Y, LVH, F ) 0.5, 0.5;
    ( 40-50, <=200, N, Y, LVH, M ) 0.5, 0.5;
    ( 40-50, <=200, N, Y, Normal, F ) 0.5, 0.5;
    ( 40-50, <=200, N, Y, Normal, M ) 0.9931506849315068, 0.00684931506849315;
    ( 40-50, <=200, N, Y, ST, F ) 0.9931506849315068, 0.00684931506849315;
    ( 40-50, <=200, N, Y, ST, M ) 0.5, 0.5;
    ( 40-50, <=200, Y, N, LVH, F ) 0.9931506849315068, 0.00684931506849315;
    ( 40-50, <=200, Y, N, LVH, M ) 0.0034482758620689646, 0.9965517241379309;
    ( 40-50, <=200, Y, N, Normal, F ) 0.5, 0.5;
    ( 40-50, <=200, Y, N, Normal, M ) 0.1674364896073903, 0.8325635103926097;
    ( 40-50, <=200, Y, N, ST, F ) 0.5, 0.5;
    ( 40-50, <=200, Y, N, ST, M ) 0.5, 0.5;
    ( 40-50, <=200, Y, Y, LVH, F ) 0.5, 0.5;
    ( 40-50, <=200, Y, Y, LVH, M ) 0.5, 0.5;
    ( 40-50, <=200, Y, Y, Normal, F ) 0.5, 0.5;
    ( 40-50, <=200, Y, Y, Normal, M ) 0.5, 0.5;
    ( 40-50, <=200, Y, Y, ST, F ) 0.5, 0.5;
    ( 40-50, <=200, Y, Y, ST, M ) 0.5, 0.5;
    ( 50-60, 200-240, N, N, LVH, F ) 0.6658986175115207, 0.3341013824884792;
    ( 50-60, 200-240, N, N, LVH, M ) 0.5, 0.5;
    ( 50-60, 200-240, N, N, Normal, F ) 0.9988452655889145, 0.0011547344110854501;
    ( 50-60, 200-240, N, N, Normal, M ) 0.6189689358889623, 0.38103106411103765;
    ( 50-60, 200-240, N, N, ST, F ) 0.9931506849315068, 0.00684931506849315;
    ( 50-60, 200-240, N, N, ST, M ) 0.6658986175115207, 0.3341013824884792;
    ( 50-60, 200-240, N, Y, LVH, F ) 0.5, 0.5;
    ( 50-60, 200-240, N, Y, LVH, M ) 0.9931506849315068, 0.00684931506849315;
    ( 50-60, 200-240, N, Y, Normal, F ) 0.9931506849315068, 0.00684931506849315;
    ( 50-60, 200-240, N, Y, Normal, M ) 0.5997229916897507, 0.4002770083102493;
    ( 50-60, 200-240, N, Y, ST, F ) 0.5, 0.5;
    ( 50-60, 200-240, N, Y, ST, M ) 0.5, 0.5;
    ( 50-60, 200-240, Y, N, LVH, F ) 0.5, 0.5;
    ( 50-60, 200-240, Y, N, LVH, M ) 0.3752166377816291, 0.6247833622183708;
    ( 50-60, 200-240, Y, N, Normal, F ) 0.9965517241379309, 0.0034482758620689646;
    ( 50-60, 200-240, Y, N, Normal, M ) 0.4286422200198216, 0.5713577799801783;
    ( 50-60, 200-240, Y, N, ST, F ) 0.00684931506849315, 0.9931506849315068;
    ( 50-60, 200-240, Y, N, ST, M ) 0.12564991334488734, 0.8743500866551126;
    ( 50-60, 200-240, Y, Y, LVH, F ) 0.00684931506849315, 0.9931506849315068;
    ( 50-60, 200-240, Y, Y, LVH, M ) 0.00684931506849315, 0.9931506849315068;
    ( 50-60, 200-240, Y, Y, Normal, F ) 0.5, 0.5;
    ( 50-60, 200-240, Y, Y, Normal, M ) 0.0017301038062283735, 0.9982698961937716;
    ( 50-60, 200-240, Y, Y, ST, F ) 0.5, 0.5;
    ( 50-60, 200-240, Y, Y, ST, M ) 0.0034482758620689646, 0.9965517241379309;
    ( 50-60, 240+, N, N, LVH, F ) 0.7995839112343966, 0.20041608876560335;
    ( 50-60, 240+, N, N, LVH, M ) 0.30027739251040225, 0.6997226074895978;
    ( 50-60, 240+, N, N, Normal, F ) 0.8994452149791955, 0.10055478502080444;
    ( 50-60, 240+, N, N, Normal, M ) 0.7140733399405351, 0.2859266600594648;
    ( 50-60, 240+, N, N, ST, F ) 0.9931506849315068, 0.00684931506849315;
    ( 50-60, 240+, N, N, ST, M ) 0.6658986175115207, 0.3341013824884792;
    ( 50-60, 240+, N, Y, LVH, F ) 0.6658986175115207, 0.3341013824884792;
    ( 50-60, 240+, N, Y, LVH, M ) 0.9976958525345622, 0.0023041474654377876;
    ( 50-60, 240+, N, Y, Normal, F ) 0.9931506849315068, 0.00684931506849315;
    ( 50-60, 240+, N, Y, Normal, M ) 0.9982698961937716, 0.0017301038062283735;
    ( 50-60, 240+, N, Y, ST, F ) 0.00684931506849315, 0.9931506849315068;
    ( 50-60, 240+, N, Y, ST, M ) 0.0034482758620689646, 0.9965517241379309;
    ( 50-60, 240+, Y, N, LVH, F ) 0.00684931506849315, 0.9931506849315068;
    ( 50-60, 240+, Y, N, LVH, M ) 0.0008665511265164644, 0.9991334488734835;
    ( 50-60, 240+, Y, N, Normal, F ) 0.1674364896073903, 0.8325635103926097;
    ( 50-60, 240+, Y, N, Normal, M ) 0.1179591836734694, 0.8820408163265306;
    ( 50-60, 240+, Y, N, ST, F ) 0.3341013824884792, 0.6658986175115207;
    ( 50-60, 240+, Y, N, ST, M ) 0.1674364896073903, 0.8325635103926097;
    ( 50-60, 240+, Y, Y, LVH, F ) 0.5, 0.5;
    ( 50-60, 240+, Y, Y, LVH, M ) 0.0017301038062283735, 0.9982698961937716;
    ( 50-60, 240+, Y, Y, Normal, F ) 0.5, 0.5;
    ( 50-60, 240+, Y, Y, Normal, M ) 0.0034482758620689646, 0.9965517241379309;
    ( 50-60, 240+, Y, Y, ST, F ) 0.00684931506849315, 0.9931506849315068;
    ( 50-60, 240+, Y, Y, ST, M ) 0.0013850415512465372, 0.9986149584487535;
    ( 50-60, <=200, N, N, LVH, F ) 0.9931506849315068, 0.00684931506849315;
    ( 50-60, <=200, N, N, LVH, M ) 0.5, 0.5;
    ( 50-60, <=200, N, N, Normal, F ) 0.9982698961937716, 0.0017301038062283735;
    ( 50-60, <=200, N, N, Normal, M ) 0.7892622352081812, 0.21073776479181885;
    ( 50-60, <=200, N, N, ST, F ) 0.5, 0.5;
    ( 50-60, <=200, N, N, ST, M ) 0.9976958525345622, 0.0023041474654377876;
    ( 50-60, <=200, N, Y, LVH, F ) 0.5, 0.5;
    ( 50-60, <=200, N, Y, LVH, M ) 0.5, 0.5;
    ( 50-60, <=200, N, Y, Normal, F ) 0.9931506849315068, 0.00684931506849315;
    ( 50-60, <=200, N, Y, Normal, M ) 0.9931506849315068, 0.00684931506849315;
    ( 50-60, <=200, N, Y, ST, F ) 0.5, 0.5;
    ( 50-60, <=200, N, Y, ST, M ) 0.9931506849315068, 0.00684931506849315;
    ( 50-60, <=200, Y, N, LVH, F ) 0.5, 0.5;
    ( 50-60, <=200, Y, N, LVH, M ) 0.0034482758620689646, 0.9965517241379309;
    ( 50-60, <=200, Y, N, Normal, F ) 0.9931506849315068, 0.00684931506849315;
    ( 50-60, <=200, Y, N, Normal, M ) 0.14356435643564355, 0.8564356435643564;
    ( 50-60, <=200, Y, N, ST, F ) 0.5, 0.5;
    ( 50-60, <=200, Y, N, ST, M ) 0.00684931506849315, 0.9931506849315068;
    ( 50-60, <=200, Y, Y, LVH, F ) 0.5, 0.5;
    ( 50-60, <=200, Y, Y, LVH, M ) 0.0034482758620689646, 0.9965517241379309;
    ( 50-60, <=200, Y, Y, Normal, F ) 0.5, 0.5;
    ( 50-60, <=200, Y, Y, Normal, M ) 0.5, 0.5;
    ( 50-60, <=200, Y, Y, ST, F ) 0.5, 0.5;
    ( 50-60, <=200, Y, Y, ST, M ) 0.00684931506849315, 0.9931506849315068;
    ( 60-70, 200-240, N, N, LVH, F ) 0.5, 0.5;
    ( 60-70, 200-240, N, N, LVH, M ) 0.5997229916897507, 0.4002770083102493;
    ( 60-70, 200-240, N, N, Normal, F ) 0.9982698961937716, 0.0017301038062283735;
    ( 60-70, 200-240, N, N, Normal, M ) 0.2008310249307479, 0.7991689750692521;
    ( 60-70, 200-240, N, N, ST, F ) 0.5, 0.5;
    ( 60-70, 200-240, N, N, ST, M ) 0.9965517241379309, 0.0034482758620689646;
    ( 60-70, 200-240, N, Y, LVH, F ) 0.5, 0.5;
    ( 60-70, 200-240, N, Y, LVH, M ) 0.9965517241379309, 0.0034482758620689646;
    ( 60-70, 200-240, N, Y, Normal, F ) 0.5, 0.5;
    ( 60-70, 200-240, N, Y, Normal, M ) 0.5, 0.5;
    ( 60-70, 200-240, N, Y, ST, F ) 0.5, 0.5;
    ( 60-70, 200-240, N, Y, ST, M ) 0.5, 0.5;
    ( 60-70, 200-240, Y, N, LVH, F ) 0.5, 0.5;
    ( 60-70, 200-240, Y, N, LVH, M ) 0.0034482758620689646, 0.9965517241379309;
    ( 60-70, 200-240, Y, N, Normal, F ) 0.5, 0.5;
    ( 60-70, 200-240, Y, N, Normal, M ) 0.00684931506849315, 0.9931506849315068;
    ( 60-70, 200-240, Y, N, ST, F ) 0.5, 0.5;
    ( 60-70, 200-240, Y, N, ST, M ) 0.0023041474654377876, 0.9976958525345622;
    ( 60-70, 200-240, Y, Y, LVH, F ) 0.5, 0.5;
    ( 60-70, 200-240, Y, Y, LVH, M ) 0.00684931506849315, 0.9931506849315068;
    ( 60-70, 200-240, Y, Y, Normal, F ) 0.00684931506849315, 0.9931506849315068;
    ( 60-70, 200-240, Y, Y, Normal, M ) 0.00684931506849315, 0.9931506849315068;
    ( 60-70, 200-240, Y, Y, ST, F ) 0.5, 0.5;
    ( 60-70, 200-240, Y, Y, ST, M ) 0.0034482758620689646, 0.9965517241379309;
    ( 60-70, 240+, N, N, LVH, F ) 0.6247833622183708, 0.3752166377816291;
    ( 60-70, 240+, N, N, LVH, M ) 0.33359013867488446, 0.6664098613251156;
    ( 60-70, 240+, N, N, Normal, F ) 0.7991689750692521, 0.2008310249307479;
    ( 60-70, 240+, N, N, Normal, M ) 0.6662817551963048, 0.33371824480369516;
    ( 60-70, 240+, N, N, ST, F ) 0.5, 0.5;
    ( 60-70, 240+, N, N, ST, M ) 0.5, 0.5;
    ( 60-70, 240+, N, Y, LVH, F ) 0.9931506849315068, 0.00684931506849315;
    ( 60-70, 240+, N, Y, LVH, M ) 0.0034482758620689646, 0.9965517241379309;
    ( 60-70, 240+, N, Y, Normal, F ) 0.00684931506849315, 0.9931506849315068;
    ( 60-70, 240+, N, Y, Normal, M ) 0.00684931506849315, 0.9931506849315068;
    ( 60-70, 240+, N, Y, ST, F ) 0.5, 0.5;
    ( 60-70, 240+, N, Y, ST, M ) 0.5, 0.5;
    ( 60-70, 240+, Y, N, LVH, F ) 0.5, 0.5;
    ( 60-70, 240+, Y, N, LVH, M ) 0.0017301038062283735, 0.9982698961937716;
    ( 60-70, 240+, Y, N, Normal, F ) 0.25086505190311414, 0.7491349480968857;
    ( 60-70, 240+, Y, N, Normal, M ) 0.0914249684741488, 0.9085750315258512;
    ( 60-70, 240+, Y, N, ST, F ) 0.9931506849315068, 0.00684931506849315;
    ( 60-70, 240+, Y, N, ST, M ) 0.12564991334488734, 0.8743500866551126;
    ( 60-70, 240+, Y, Y, LVH, F ) 0.5, 0.5;
    ( 60-70, 240+, Y, Y, LVH, M ) 0.0023041474654377876, 0.9976958525345622;
    ( 60-70, 240+, Y, Y, Normal, F ) 0.9931506849315068, 0.00684931506849315;
    ( 60-70, 240+, Y, Y, Normal, M ) 0.5, 0.5;
    ( 60-70, 240+, Y, Y, ST, F ) 0.5, 0.5;
    ( 60-70, 240+, Y, Y, ST, M ) 0.0023041474654377876, 0.9976958525345622;
    ( 60-70, <=200, N, N, LVH, F ) 0.00684931506849315, 0.9931506849315068;
    ( 60-70, <=200, N, N, LVH, M ) 0.5, 0.5;
    ( 60-70, <=200, N, N, Normal, F ) 0.9965517241379309, 0.0034482758620689646;
    ( 60-70, <=200, N, N, Normal, M ) 0.9931506849315068, 0.00684931506849315;
    ( 60-70, <=200, N, N, ST, F ) 0.5, 0.5;
    ( 60-70, <=200, N, N, ST, M ) 0.9965517241379309, 0.0034482758620689646;
    ( 60-70, <=200, N, Y, LVH, F ) 0.5, 0.5;
    ( 60-70, <=200, N, Y, LVH, M ) 0.5, 0.5;
    ( 60-70, <=200, N, Y, Normal, F ) 0.5, 0.5;
    ( 60-70, <=200, N, Y, Normal, M ) 0.00684931506849315, 0.9931506849315068;
    ( 60-70, <=200, N, Y, ST, F ) 0.5, 0.5;
    ( 60-70, <=200, N, Y, ST, M ) 0.5, 0.5;
    ( 60-70, <=200, Y, N, LVH, F ) 0.5, 0.5;
    ( 60-70, <=200, Y, N, LVH, M ) 0.0034482758620689646, 0.9965517241379309;
    ( 60-70, <=200, Y, N, Normal, F ) 0.00684931506849315, 0.9931506849315068;
    ( 60-70, <=200, Y, N, Normal, M ) 0.0023041474654377876, 0.9976958525345622;
    ( 60-70, <=200, Y, N, ST, F ) 0.5, 0.5;
    ( 60-70, <=200, Y, N, ST, M ) 0.0017301038062283735, 0.9982698961937716;
    ( 60-70, <=200, Y, Y, LVH, F ) 0.5, 0.5;
    ( 60-70, <=200, Y, Y, LVH, M ) 0.5, 0.5;
    ( 60-70, <=200, Y, Y, Normal, F ) 0.5, 0.5;
    ( 60-70, <=200, Y, Y, Normal, M ) 0.00684931506849315, 0.9931506849315068;
    ( 60-70, <=200, Y, Y, ST, F ) 0.5, 0.5;
    ( 60-70, <=200, Y, Y, ST, M ) 0.5, 0.5;
    ( 70+, 200-240, N, N, LVH, F ) 0.5, 0.5;
    ( 70+, 200-240, N, N, LVH, M ) 0.5, 0.5;
    ( 70+, 200-240, N, N, Normal, F ) 0.5, 0.5;
    ( 70+, 200-240, N, N, Normal, M ) 0.5, 0.5;
    ( 70+, 200-240, N, N, ST, F ) 0.5, 0.5;
    ( 70+, 200-240, N, N, ST, M ) 0.5, 0.5;
    ( 70+, 200-240, N, Y, LVH, F ) 0.5, 0.5;
    ( 70+, 200-240, N, Y, LVH, M ) 0.5, 0.5;
    ( 70+, 200-240, N, Y, Normal, F ) 0.5, 0.5;
    ( 70+, 200-240, N, Y, Normal, M ) 0.00684931506849315, 0.9931506849315068;
    ( 70+, 200-240, N, Y, ST, F ) 0.5, 0.5;
    ( 70+, 200-240, N, Y, ST, M ) 0.00684931506849315, 0.9931506849315068;
    ( 70+, 200-240, Y, N, LVH, F ) 0.5, 0.5;
    ( 70+, 200-240, Y, N, LVH, M ) 0.5, 0.5;
    ( 70+, 200-240, Y, N, Normal, F ) 0.5, 0.5;
    ( 70+, 200-240, Y, N, Normal, M ) 0.0017301038062283735, 0.9982698961937716;
    ( 70+, 200-240, Y, N, ST, F ) 0.5, 0.5;
    ( 70+, 200-240, Y, N, ST, M ) 0.5, 0.5;
    ( 70+, 200-240, Y, Y, LVH, F ) 0.5, 0.5;
    ( 70+, 200-240, Y, Y, LVH, M ) 0.5, 0.5;
    ( 70+, 200-240, Y, Y, Normal, F ) 0.5, 0.5;
    ( 70+, 200-240, Y, Y, Normal, M ) 0.00684931506849315, 0.9931506849315068;
    ( 70+, 200-240, Y, Y, ST, F ) 0.5, 0.5;
    ( 70+, 200-240, Y, Y, ST, M ) 0.5, 0.5;
    ( 70+, 240+, N, N, LVH, F ) 0.5, 0.5;
    ( 70+, 240+, N, N, LVH, M ) 0.5, 0.5;
    ( 70+, 240+, N, N, Normal, F ) 0.9931506849315068, 0.00684931506849315;
    ( 70+, 240+, N, N, Normal, M ) 0.5, 0.5;
    ( 70+, 240+, N, N, ST, F ) 0.5, 0.5;
    ( 70+, 240+, N, N, ST, M ) 0.5, 0.5;
    ( 70+, 240+, N, Y, LVH, F ) 0.9931506849315068, 0.00684931506849315;
    ( 70+, 240+, N, Y, LVH, M ) 0.5, 0.5;
    ( 70+, 240+, N, Y, Normal, F ) 0.5, 0.5;
    ( 70+, 240+, N, Y, Normal, M ) 0.5, 0.5;
    ( 70+, 240+, N, Y, ST, F ) 0.5, 0.5;
    ( 70+, 240+, N, Y, ST, M ) 0.5, 0.5;
    ( 70+, 240+, Y, N, LVH, F ) 0.9931506849315068, 0.00684931506849315;
    ( 70+, 240+, Y, N, LVH, M ) 0.00684931506849315, 0.9931506849315068;
    ( 70+, 240+, Y, N, Normal, F ) 0.5, 0.5;
    ( 70+, 240+, Y, N, Normal, M ) 0.00684931506849315, 0.9931506849315068;
    ( 70+, 240+, Y, N, ST, F ) 0.5, 0.5;
    ( 70+, 240+, Y, N, ST, M ) 0.5, 0.5;
    ( 70+, 240+, Y, Y, LVH, F ) 0.5, 0.5;
    ( 70+, 240+, Y, Y, LVH, M ) 0.5, 0.5;
    ( 70+, 240+, Y, Y, Normal, F ) 0.5, 0.5;
    ( 70+, 240+, Y, Y, Normal, M ) 0.9931506849315068, 0.00684931506849315;
    ( 70+, 240+, Y, Y, ST, F ) 0.5, 0.5;
    ( 70+, 240+, Y, Y, ST, M ) 0.00684931506849315, 0.9931506849315068;
    ( 70+, <=200, N, N, LVH, F ) 0.5, 0.5;
    ( 70+, <=200, N, N, LVH, M ) 0.00684931506849315, 0.9931506849315068;
    ( 70+, <=200, N, N, Normal, F ) 0.9931506849315068, 0.00684931506849315;
    ( 70+, <=200, N, N, Normal, M ) 0.5, 0.5;
    ( 70+, <=200, N, N, ST, F ) 0.9931506849315068, 0.00684931506849315;
    ( 70+, <=200, N, N, ST, M ) 0.5, 0.5;
    ( 70+, <=200, N, Y, LVH, F ) 0.5, 0.5;
    ( 70+, <=200, N, Y, LVH, M ) 0.00684931506849315, 0.9931506849315068;
    ( 70+, <=200, N, Y, Normal, F ) 0.5, 0.5;
    ( 70+, <=200, N, Y, Normal, M ) 0.5, 0.5;
    ( 70+, <=200, N, Y, ST, F ) 0.5, 0.5;
    ( 70+, <=200, N, Y, ST, M ) 0.5, 0.5;
    ( 70+, <=200, Y, N, LVH, F ) 0.5, 0.5;
    ( 70+, <=200, Y, N, LVH, M ) 0.5, 0.5;
    ( 70+, <=200, Y, N, Normal, F ) 0.5, 0.5;
    ( 70+, <=200, Y, N, Normal, M ) 0.5, 0.5;
    ( 70+, <=200, Y, N, ST, F ) 0.5, 0.5;
    ( 70+, <=200, Y, N, ST, M ) 0.5, 0.5;
    ( 70+, <=200, Y, Y, LVH, F ) 0.5, 0.5;
    ( 70+, <=200, Y, Y, LVH, M ) 0.5, 0.5;
    ( 70+, <=200, Y, Y, Normal, F ) 0.5, 0.5;
    ( 70+, <=200, Y, Y, Normal, M ) 0.5, 0.5;
    ( 70+, <=200, Y, Y, ST, F ) 0.5, 0.5;
    ( 70+, <=200, Y, Y, ST, M ) 0.5, 0.5;

}
probability ( MaxHR | Age, Sex ) {
    ( 20-40, F ) 0.25, 0.01, 0.17, 0.57;
    ( 20-40, M ) 0.26904761904761904, 0.11666666666666667, 0.1738095238095238, 0.44047619047619047;
    ( 40-50, F ) 0.2912371134020619, 0.16752577319587628, 0.14690721649484537, 0.3943298969072165;
    ( 40-50, M ) 0.2660642570281124, 0.17771084337349397, 0.2580321285140562, 0.29819277108433734;
    ( 50-60, F ) 0.40853658536585363, 0.18089430894308944, 0.21341463414634146, 0.19715447154471544;
    ( 50-60, M ) 0.23982188295165394, 0.3059796437659033, 0.2907124681933842, 0.16348600508905853;
    ( 60-70, F ) 0.40384615384615385, 0.28076923076923077, 0.09615384615384616, 0.21923076923076923;
    ( 60-70, M ) 0.21994535519125682, 0.383879781420765, 0.3620218579234973, 0.03415300546448088;
    ( 70+, F ) 0.022727272727272728, 0.38636363636363635, 0.38636363636363635, 0.20454545454545456;
    ( 70+, M ) 0.009259259259259259, 0.75, 0.1574074074074074, 0.08333333333333333;

}
probability ( Oldpeak | ExerciseAngina, HeartDisease ) {
    ( N, 0 ) 0.10204525674499565, 0.10552654482158398, 0.021975630983463883, 0.7704525674499565;
    ( N, 1 ) 0.11588235294117646, 0.21941176470588236, 0.16294117647058823, 0.5017647058823529;
    ( Y, 0 ) 0.2662162162162162, 0.2445945945945946, 0.05, 0.4391891891891892;
    ( Y, 1 ) 0.18224592220828106, 0.44824341279799246, 0.2374529485570891, 0.13205771643663738;

}
probability ( RestingBP | Age, Cholesterol ) {
    ( 20-40, 200-240 ) 0.3878787878787879, 0.1696969696969697, 0.44242424242424244;
    ( 20-40, 240+ ) 0.3446969696969697, 0.14015151515151514, 0.5151515151515151;
    ( 20-40, <=200 ) 0.3525641025641026, 0.06410256410256411, 0.5833333333333334;
    ( 40-50, 200-240 ) 0.47463768115942034, 0.09963768115942029, 0.4257246376811594;
    ( 40-50, 240+ ) 0.4099290780141844, 0.23120567375886522, 0.3588652482269503;
    ( 40-50, <=200 ) 0.2733333333333334, 0.21333333333333335, 0.5133333333333334;
    ( 50-60, 200-240 ) 0.5318892900120337, 0.1961492178098676, 0.2719614921780986;
    ( 50-60, 240+ ) 0.5293560606060606, 0.29071969696969696, 0.1799242424242424;
    ( 50-60, <=200 ) 0.5609195402298851, 0.20919540229885059, 0.2298850574712644;
    ( 60-70, 200-240 ) 0.32269503546099293, 0.4822695035460993, 0.1950354609929078;
    ( 60-70, 240+ ) 0.4715821812596006, 0.31950844854070654, 0.20890937019969275;
    ( 60-70, <=200 ) 0.44808743169398907, 0.4972677595628415, 0.054644808743169404;
    ( 70+, 200-240 ) 0.28787878787878796, 0.5606060606060607, 0.15151515151515155;
    ( 70+, 240+ ) 0.15151515151515155, 0.5606060606060607, 0.28787878787878796;
    ( 70+, <=200 ) 0.2564102564102564, 0.2564102564102564, 0.4871794871794871;

}
probability ( RestingECG | Age ) {
    ( 20-40 ) 0.08205128205128205, 0.8051282051282052, 0.11282051282051282;
    ( 40-50 ) 0.1579961464354528, 0.7302504816955684, 0.1117533718689788;
    ( 50-60 ) 0.272609819121447, 0.5439276485788114, 0.1834625322997416;
    ( 60-70 ) 0.3413978494623656, 0.4381720430107527, 0.22043010752688172;
    ( 70+ ) 0.2807017543859649, 0.543859649122807, 0.1754385964912281;

}
probability ( ST_Slope | ExerciseAngina, HeartDisease, Oldpeak ) {
    ( N, 0, 0-5-1 ) 0.07178393745557925, 0.34470504619758346, 0.5835110163468373;
    ( N, 0, 1-2 ) 0.036426116838487975, 0.5312714776632302, 0.43230240549828175;
    ( N, 0, 2+ ) 0.6501650165016502, 0.1749174917491749, 0.1749174917491749;
    ( N, 0, <=0.5 ) 0.004989174432834417, 0.07276663842605667, 0.9222441871411089;
    ( N, 1, 0-5-1 ) 0.08967851099830797, 0.6582064297800339, 0.2521150592216582;
    ( N, 1, 1-2 ) 0.04736371760500446, 0.905272564789991, 0.04736371760500446;
    ( N, 1, 2+ ) 0.2370637785800241, 0.6991576413959085, 0.06377858002406739;
    ( N, 1, <=0.5 ) 0.00195388823759281, 0.6772176631496678, 0.32082844861273935;
    ( Y, 0, 0-5-1 ) 0.008460236886632827, 0.8206429780033841, 0.1708967851099831;
    ( Y, 0, 1-2 ) 0.1860036832412523, 0.5395948434622468, 0.2744014732965009;
    ( Y, 0, 2+ ) 0.04504504504504506, 0.90990990990991, 0.04504504504504506;
    ( Y, 0, <=0.5 ) 0.005128205128205128, 0.15282051282051282, 0.8420512820512821;
    ( Y, 1, 0-5-1 ) 0.0028686173264486524, 0.8841078600114746, 0.11302352266207691;
    ( Y, 1, 1-2 ) 0.05714952181012362, 0.874504315372055, 0.06834616281782131;
    ( Y, 1, 2+ ) 0.3403786878027301, 0.615147512109203, 0.04447380008806693;
    ( Y, 1, <=0.5 ) 0.00395882818685669, 0.8400633412509897, 0.15597783056215359;

}
probability ( Sex ) {
    table 0.2511737089201878, 0.7488262910798122 ;
}
