network unknown {
}
variable Age {
    type discrete [ 5 ] { 20-40, 40-50, 50-60, 60-70, 70+ };
}
variable ChestPainType {
    type discrete [ 4 ] { ASY, ATA, NAP, TA };
}
variable Cholesterol {
    type discrete [ 3 ] { 200-240, 240+, <=200 };
}
variable ExerciseAngina {
    type discrete [ 2 ] { N, Y };
}
variable FastingBS {
    type discrete [ 2 ] { N, Y };
}
variable HeartDisease {
    type discrete [ 2 ] { 0, 1 };
}
variable MaxHR {
    type discrete [ 4 ] { high, low, medium, very-high };
}
variable Oldpeak {
    type discrete [ 4 ] { 0-5-1, 1-2, 2+, <=0.5 };
}
variable RestingBP {
    type discrete [ 3 ] { 120-140, 140+, 90-120 };
}
variable RestingECG {
    type discrete [ 3 ] { LVH, Normal, ST };
}
variable ST_Slope {
    type discrete [ 3 ] { Down, Flat, Up };
}
variable Sex {
    type discrete [ 2 ] { F, M };
}
probability ( Age ) {
    table 0.11332312404287902, 0.26339969372128635, 0.40428790199081166, 0.19142419601837674, 0.027565084226646247 ;
}
probability ( ChestPainType | HeartDisease ) {
    ( 0 ) 0.23976608187134502, 0.38011695906432746, 0.3128654970760234, 0.06725146198830409;
    ( 1 ) 0.7620578778135049, 0.05787781350482315, 0.13183279742765272, 0.04823151125401929;

}
probability ( Cholesterol | Age, Sex ) {
    ( 20-40, F ) 0.3125, 0.1875, 0.5;
    ( 20-40, M ) 0.27586206896551724, 0.46551724137931033, 0.25862068965517243;
    ( 40-50, F ) 0.3673469387755102, 0.46938775510204084, 0.16326530612244897;
    ( 40-50, M ) 0.2926829268292683, 0.4796747967479675, 0.22764227642276422;
    ( 50-60, F ) 0.22580645161290322, 0.6451612903225806, 0.12903225806451613;
    ( 50-60, M ) 0.3811881188118812, 0.39603960396039606, 0.22277227722772278;
    ( 60-70, F ) 0.14814814814814814, 0.7037037037037037, 0.14814814814814814;
    ( 60-70, M ) 0.2653061224489796, 0.5510204081632653, 0.1836734693877551;
    ( 70+, F ) 0.0, 0.75, 0.25;
    ( 70+, M ) 0.5714285714285714, 0.2857142857142857, 0.14285714285714285;

}
probability ( ExerciseAngina | MaxHR, Sex ) {
    ( high, F ) 0.7547169811320755, 0.24528301886792453;
    ( high, M ) 0.628099173553719, 0.371900826446281;
    ( low, F ) 0.6538461538461539, 0.34615384615384615;
    ( low, M ) 0.3037037037037037, 0.6962962962962963;
    ( medium, F ) 0.6428571428571429, 0.35714285714285715;
    ( medium, M ) 0.49230769230769234, 0.5076923076923077;
    ( very-high, F ) 0.9215686274509803, 0.0784313725490196;
    ( very-high, M ) 0.908256880733945, 0.09174311926605505;

}
probability ( FastingBS | Age, RestingBP ) {
    ( 20-40, 120-140 ) 1.0, 0.0;
    ( 20-40, 140+ ) 0.8571428571428571, 0.14285714285714285;
    ( 20-40, 90-120 ) 0.9736842105263158, 0.02631578947368421;
    ( 40-50, 120-140 ) 0.875, 0.125;
    ( 40-50, 140+ ) 1.0, 0.0;
    ( 40-50, 90-120 ) 0.9444444444444444, 0.05555555555555555;
    ( 50-60, 120-140 ) 0.8169014084507042, 0.18309859154929578;
    ( 50-60, 140+ ) 0.7288135593220338, 0.2711864406779661;
    ( 50-60, 90-120 ) 0.873015873015873, 0.12698412698412698;
    ( 60-70, 120-140 ) 0.7450980392156863, 0.2549019607843137;
    ( 60-70, 140+ ) 0.6122448979591837, 0.3877551020408163;
    ( 60-70, 90-120 ) 0.96, 0.04;
    ( 70+, 120-140 ) 0.8333333333333334, 0.16666666666666666;
    ( 70+, 140+ ) 0.5, 0.5;
    ( 70+, 90-120 ) 0.75, 0.25;

}
probability ( HeartDisease | Age, Cholesterol, ExerciseAngina, FastingBS, RestingECG, Sex ) {
    ( 20-40, 200-240, N, N, LVH, F ) 0.5, 0.5;
    ( 20-40, 200-240, N, N, LVH, M ) 1.0, 0.0;
    ( 20-40, 200-240, N, N, Normal, F ) 1.0, 0.0;
    ( 20-40, 200-240, N, N, Normal, M ) 0.8, 0.2;
    ( 20-40, 200-240, N, N, ST, F ) 1.0, 0.0;
    ( 20-40, 200-240, N, N, ST, M ) 1.0, 0.0;
    ( 20-40, 200-240, N, Y, LVH, F ) 0.5, 0.5;
    ( 20-40, 200-240, N, Y, LVH, M ) 0.5, 0.5;
    ( 20-40, 200-240, N, Y, Normal, F ) 0.5, 0.5;
    ( 20-40, 200-240, N, Y, Normal, M ) 0.5, 0.5;
    ( 20-40, 200-240, N, Y, ST, F ) 0.5, 0.5;
    ( 20-40, 200-240, N, Y, ST, M ) 0.5, 0.5;
    ( 20-40, 200-240, Y, N, LVH, F ) 0.5, 0.5;
    ( 20-40, 200-240, Y, N, LVH, M ) 0.5, 0.5;
    ( 20-40, 200-240, Y, N, Normal, F ) 0.5, 0.5;
    ( 20-40, 200-240, Y, N, Normal, M ) 0.3333333333333333, 0.6666666666666666;
    ( 20-40, 200-240, Y, N, ST, F ) 0.5, 0.5;
    ( 20-40, 200-240, Y, N, ST, M ) 0.5, 0.5;
    ( 20-40, 200-240, Y, Y, LVH, F ) 0.5, 0.5;
    ( 20-40, 200-240, Y, Y, LVH, M ) 0.5, 0.5;
    ( 20-40, 200-240, Y, Y, Normal, F ) 0.5, 0.5;
    ( 20-40, 200-240, Y, Y, Normal, M ) 0.5, 0.5;
    ( 20-40, 200-240, Y, Y, ST, F ) 0.5, 0.5;
    ( 20-40, 200-240, Y, Y, ST, M ) 0.5, 0.5;
    ( 20-40, 240+, N, N, LVH, F ) 0.5, 0.5;
    ( 20-40, 240+, N, N, LVH, M ) 1.0, 0.0;
    ( 20-40, 240+, N, N, Normal, F ) 1.0, 0.0;
    ( 20-40, 240+, N, N, Normal, M ) 0.7894736842105263, 0.21052631578947367;
    ( 20-40, 240+, N, N, ST, F ) 0.5, 0.5;
    ( 20-40, 240+, N, N, ST, M ) 1.0, 0.0;
    ( 20-40, 240+, N, Y, LVH, F ) 0.5, 0.5;
    ( 20-40, 240+, N, Y, LVH, M ) 0.5, 0.5;
    ( 20-40, 240+, N, Y, Normal, F ) 0.5, 0.5;
    ( 20-40, 240+, N, Y, Normal, M ) 0.5, 0.5;
    ( 20-40, 240+, N, Y, ST, F ) 0.5, 0.5;
    ( 20-40, 240+, N, Y, ST, M ) 0.5, 0.5;
    ( 20-40, 240+, Y, N, LVH, F ) 0.5, 0.5;
    ( 20-40, 240+, Y, N, LVH, M ) 0.0, 1.0;
    ( 20-40, 240+, Y, N, Normal, F ) 0.0, 1.0;
    ( 20-40, 240+, Y, N, Normal, M ) 0.0, 1.0;
    ( 20-40, 240+, Y, N, ST, F ) 0.5, 0.5;
    ( 20-40, 240+, Y, N, ST, M ) 0.5, 0.5;
    ( 20-40, 240+, Y, Y, LVH, F ) 0.5, 0.5;
    ( 20-40, 240+, Y, Y, LVH, M ) 0.5, 0.5;
    ( 20-40, 240+, Y, Y, Normal, F ) 0.5, 0.5;
    ( 20-40, 240+, Y, Y, Normal, M ) 0.0, 1.0;
    ( 20-40, 240+, Y, Y, ST, F ) 0.5, 0.5;
    ( 20-40, 240+, Y, Y, ST, M ) 0.5, 0.5;
    ( 20-40, <=200, N, N, LVH, F ) 0.5, 0.5;
    ( 20-40, <=200, N, N, LVH, M ) 1.0, 0.0;
    ( 20-40, <=200, N, N, Normal, F ) 1.0, 0.0;
    ( 20-40, <=200, N, N, Normal, M ) 0.7142857142857143, 0.2857142857142857;
    ( 20-40, <=200, N, N, ST, F ) 1.0, 0.0;
    ( 20-40, <=200, N, N, ST, M ) 0.5, 0.5;
    ( 20-40, <=200, N, Y, LVH, F ) 0.5, 0.5;
    ( 20-40, <=200, N, Y, LVH, M ) 0.5, 0.5;
    ( 20-40, <=200, N, Y, Normal, F ) 0.5, 0.5;
    ( 20-40, <=200, N, Y, Normal, M ) 1.0, 0.0;
    ( 20-40, <=200, N, Y, ST, F ) 0.5, 0.5;
    ( 20-40, <=200, N, Y, ST, M ) 0.5, 0.5;
    ( 20-40, <=200, Y, N, LVH, F ) 0.5, 0.5;
    ( 20-40, <=200, Y, N, LVH, M ) 0.0, 1.0;
    ( 20-40, <=200, Y, N, Normal, F ) 0.5, 0.5;
    ( 20-40, <=200, Y, N, Normal, M ) 0.5, 0.5;
    ( 20-40, <=200, Y, N, ST, F ) 0.5, 0.5;
    ( 20-40, <=200, Y, N, ST, M ) 0.5, 0.5;
    ( 20-40, <=200, Y, Y, LVH, F ) 0.5, 0.5;
    ( 20-40, <=200, Y, Y, LVH, M ) 0.5, 0.5;
    ( 20-40, <=200, Y, Y, Normal, F ) 0.5, 0.5;
    ( 20-40, <=200, Y, Y, Normal, M ) 0.5, 0.5;
    ( 20-40, <=200, Y, Y, ST, F ) 0.5, 0.5;
    ( 20-40, <=200, Y, Y, ST, M ) 0.5, 0.5;
    ( 40-50, 200-240, N, N, LVH, F ) 1.0, 0.0;
    ( 40-50, 200-240, N, N, LVH, M ) 1.0, 0.0;
    ( 40-50, 200-240, N, N, Normal, F ) 1.0, 0.0;
    ( 40-50, 200-240, N, N, Normal, M ) 0.6666666666666666, 0.3333333333333333;
    ( 40-50, 200-240, N, N, ST, F ) 1.0, 0.0;
    ( 40-50, 200-240, N, N, ST, M ) 1.0, 0.0;
    ( 40-50, 200-240, N, Y, LVH, F ) 0.5, 0.5;
    ( 40-50, 200-240, N, Y, LVH, M ) 0.5, 0.5;
    ( 40-50, 200-240, N, Y, Normal, F ) 0.5, 0.5;
    ( 40-50, 200-240, N, Y, Normal, M ) 1.0, 0.0;
    ( 40-50, 200-240, N, Y, ST, F ) 0.5, 0.5;
    ( 40-50, 200-240, N, Y, ST, M ) 0.0, 1.0;
    ( 40-50, 200-240, Y, N, LVH, F ) 1.0, 0.0;
    ( 40-50, 200-240, Y, N, LVH, M ) 1.0, 0.0;
    ( 40-50, 200-240, Y, N, Normal, F ) 0.3333333333333333, 0.6666666666666666;
    ( 40-50, 200-240, Y, N, Normal, M ) 0.25, 0.75;
    ( 40-50, 200-240, Y, N, ST, F ) 0.5, 0.5;
    ( 40-50, 200-240, Y, N, ST, M ) 0.5, 0.5;
    ( 40-50, 200-240, Y, Y, LVH, F ) 0.5, 0.5;
    ( 40-50, 200-240, Y, Y, LVH, M ) 0.5, 0.5;
    ( 40-50, 200-240, Y, Y, Normal, F ) 0.5, 0.5;
    ( 40-50, 200-240, Y, Y, Normal, M ) 0.5, 0.5;
    ( 40-50, 200-240, Y, Y, ST, F ) 0.5, 0.5;
    ( 40-50, 200-240, Y, Y, ST, M ) 0.5, 0.5;
    ( 40-50, 240+, N, N, LVH, F ) 1.0, 0.0;
    ( 40-50, 240+, N, N, LVH, M ) 0.5, 0.5;
    ( 40-50, 240+, N, N, Normal, F ) 1.0, 0.0;
    ( 40-50, 240+, N, N, Normal, M ) 0.72, 0.28;
    ( 40-50, 240+, N, N, ST, F ) 1.0, 0.0;
    ( 40-50, 240+, N, N, ST, M ) 0.75, 0.25;
    ( 40-50, 240+, N, Y, LVH, F ) 0.5, 0.5;
    ( 40-50, 240+, N, Y, LVH, M ) 0.5, 0.5;
    ( 40-50, 240+, N, Y, Normal, F ) 0.0, 1.0;
    ( 40-50, 240+, N, Y, Normal, M ) 0.3333333333333333, 0.6666666666666666;
    ( 40-50, 240+, N, Y, ST, F ) 0.5, 0.5;
    ( 40-50, 240+, N, Y, ST, M ) 0.5, 0.5;
    ( 40-50, 240+, Y, N, LVH, F ) 1.0, 0.0;
    ( 40-50, 240+, Y, N, LVH, M ) 0.0, 1.0;
    ( 40-50, 240+, Y, N, Normal, F ) 0.5, 0.5;
    ( 40-50, 240+, Y, N, Normal, M ) 0.08333333333333333, 0.9166666666666666;
    ( 40-50, 240+, Y, N, ST, F ) 0.5, 0.5;
    ( 40-50, 240+, Y, N, ST, M ) 0.0, 1.0;
    ( 40-50, 240+, Y, Y, LVH, F ) 0.0, 1.0;
    ( 40-50, 240+, Y, Y, LVH, M ) 0.0, 1.0;
    ( 40-50, 240+, Y, Y, Normal, F ) 0.5, 0.5;
    ( 40-50, 240+, Y, Y, Normal, M ) 1.0, 0.0;
    ( 40-50, 240+, Y, Y, ST, F ) 0.5, 0.5;
    ( 40-50, 240+, Y, Y, ST, M ) 0.0, 1.0;
    ( 40-50, <=200, N, N, LVH, F ) 0.5, 0.5;
    ( 40-50, <=200, N, N, LVH, M ) 0.0, 1.0;
    ( 40-50, <=200, N, N, Normal, F ) 1.0, 0.0;
    ( 40-50, <=200, N, N, Normal, M ) 0.8666666666666667, 0.13333333333333333;
    ( 40-50, <=200, N, N, ST, F ) 0.5, 0.5;
    ( 40-50, <=200, N, N, ST, M ) 0.0, 1.0;
    ( 40-50, <=200, N, Y, LVH, F ) 0.5, 0.5;
    ( 40-50, <=200, N, Y, LVH, M ) 0.5, 0.5;
    ( 40-50, <=200, N, Y, Normal, F ) 0.5, 0.5;
    ( 40-50, <=200, N, Y, Normal, M ) 1.0, 0.0;
    ( 40-50, <=200, N, Y, ST, F ) 1.0, 0.0;
    ( 40-50, <=200, N, Y, ST, M ) 0.5, 0.5;
    ( 40-50, <=200, Y, N, LVH, F ) 1.0, 0.0;
    ( 40-50, <=200, Y, N, LVH, M ) 0.0, 1.0;
    ( 40-50, <=200, Y, N, Normal, F ) 0.5, 0.5;
    ( 40-50, <=200, Y, N, Normal, M ) 0.16666666666666666, 0.8333333333333334;
    ( 40-50, <=200, Y, N, ST, F ) 0.5, 0.5;
    ( 40-50, <=200, Y, N, ST, M ) 0.5, 0.5;
    ( 40-50, <=200, Y, Y, LVH, F ) 0.5, 0.5;
    ( 40-50, <=200, Y, Y, LVH, M ) 0.5, 0.5;
    ( 40-50, <=200, Y, Y, Normal, F ) 0.5, 0.5;
    ( 40-50, <=200, Y, Y, Normal, M ) 0.5, 0.5;
    ( 40-50, <=200, Y, Y, ST, F ) 0.5, 0.5;
    ( 40-50, <=200, Y, Y, ST, M ) 0.5, 0.5;
    ( 50-60, 200-240, N, N, LVH, F ) 0.6666666666666666, 0.3333333333333333;
    ( 50-60, 200-240, N, N, LVH, M ) 0.3333333333333333, 0.6666666666666666;
    ( 50-60, 200-240, N, N, Normal, F ) 1.0, 0.0;
    ( 50-60, 200-240, N, N, Normal, M ) 0.6363636363636364, 0.36363636363636365;
    ( 50-60, 200-240, N, N, ST, F ) 1.0, 0.0;
    ( 50-60, 200-240, N, N, ST, M ) 0.6666666666666666, 0.3333333333333333;
    ( 50-60, 200-240, N, Y, LVH, F ) 0.5, 0.5;
    ( 50-60, 200-240, N, Y, LVH, M ) 1.0, 0.0;
    ( 50-60, 200-240, N, Y, Normal, F ) 1.0, 0.0;
    ( 50-60, 200-240, N, Y, Normal, M ) 0.75, 0.25;
    ( 50-60, 200-240, N, Y, ST, F ) 0.5, 0.5;
    ( 50-60, 200-240, N, Y, ST, M ) 0.3333333333333333, 0.6666666666666666;
    ( 50-60, 200-240, Y, N, LVH, F ) 0.5, 0.5;
    ( 50-60, 200-240, Y, N, LVH, M ) 0.2857142857142857, 0.7142857142857143;
    ( 50-60, 200-240, Y, N, Normal, F ) 1.0, 0.0;
    ( 50-60, 200-240, Y, N, Normal, M ) 0.375, 0.625;
    ( 50-60, 200-240, Y, N, ST, F ) 0.0, 1.0;
    ( 50-60, 200-240, Y, N, ST, M ) 0.125, 0.875;
    ( 50-60, 200-240, Y, Y, LVH, F ) 0.0, 1.0;
    ( 50-60, 200-240, Y, Y, LVH, M ) 0.0, 1.0;
    ( 50-60, 200-240, Y, Y, Normal, F ) 0.5, 0.5;
    ( 50-60, 200-240, Y, Y, Normal, M ) 0.0, 1.0;
    ( 50-60, 200-240, Y, Y, ST, F ) 0.5, 0.5;
    ( 50-60, 200-240, Y, Y, ST, M ) 0.0, 1.0;
    ( 50-60, 240+, N, N, LVH, F ) 0.9090909090909091, 0.09090909090909091;
    ( 50-60, 240+, N, N, LVH, M ) 0.36363636363636365, 0.6363636363636364;
    ( 50-60, 240+, N, N, Normal, F ) 0.9, 0.1;
    ( 50-60, 240+, N, N, Normal, M ) 0.7058823529411765, 0.29411764705882354;
    ( 50-60, 240+, N, N, ST, F ) 1.0, 0.0;
    ( 50-60, 240+, N, N, ST, M ) 1.0, 0.0;
    ( 50-60, 240+, N, Y, LVH, F ) 1.0, 0.0;
    ( 50-60, 240+, N, Y, LVH, M ) 0.75, 0.25;
    ( 50-60, 240+, N, Y, Normal, F ) 1.0, 0.0;
    ( 50-60, 240+, N, Y, Normal, M ) 1.0, 0.0;
    ( 50-60, 240+, N, Y, ST, F ) 0.0, 1.0;
    ( 50-60, 240+, N, Y, ST, M ) 0.0, 1.0;
    ( 50-60, 240+, Y, N, LVH, F ) 0.0, 1.0;
    ( 50-60, 240+, Y, N, LVH, M ) 0.14285714285714285, 0.8571428571428571;
    ( 50-60, 240+, Y, N, Normal, F ) 0.16666666666666666, 0.8333333333333334;
    ( 50-60, 240+, Y, N, Normal, M ) 0.15, 0.85;
    ( 50-60, 240+, Y, N, ST, F ) 0.3333333333333333, 0.6666666666666666;
    ( 50-60, 240+, Y, N, ST, M ) 0.16666666666666666, 0.8333333333333334;
    ( 50-60, 240+, Y, Y, LVH, F ) 1.0, 0.0;
    ( 50-60, 240+, Y, Y, LVH, M ) 0.0, 1.0;
    ( 50-60, 240+, Y, Y, Normal, F ) 0.5, 0.5;
    ( 50-60, 240+, Y, Y, Normal, M ) 0.0, 1.0;
    ( 50-60, 240+, Y, Y, ST, F ) 0.0, 1.0;
    ( 50-60, 240+, Y, Y, ST, M ) 0.0, 1.0;
    ( 50-60, <=200, N, N, LVH, F ) 1.0, 0.0;
    ( 50-60, <=200, N, N, LVH, M ) 0.75, 0.25;
    ( 50-60, <=200, N, N, Normal, F ) 1.0, 0.0;
    ( 50-60, <=200, N, N, Normal, M ) 0.8095238095238095, 0.19047619047619047;
    ( 50-60, <=200, N, N, ST, F ) 0.5, 0.5;
    ( 50-60, <=200, N, N, ST, M ) 1.0, 0.0;
    ( 50-60, <=200, N, Y, LVH, F ) 0.5, 0.5;
    ( 50-60, <=200, N, Y, LVH, M ) 1.0, 0.0;
    ( 50-60, <=200, N, Y, Normal, F ) 1.0, 0.0;
    ( 50-60, <=200, N, Y, Normal, M ) 1.0, 0.0;
    ( 50-60, <=200, N, Y, ST, F ) 0.5, 0.5;
    ( 50-60, <=200, N, Y, ST, M ) 0.5, 0.5;
    ( 50-60, <=200, Y, N, LVH, F ) 0.5, 0.5;
    ( 50-60, <=200, Y, N, LVH, M ) 0.0, 1.0;
    ( 50-60, <=200, Y, N, Normal, F ) 1.0, 0.0;
    ( 50-60, <=200, Y, N, Normal, M ) 0.2, 0.8;
    ( 50-60, <=200, Y, N, ST, F ) 0.5, 0.5;
    ( 50-60, <=200, Y, N, ST, M ) 0.0, 1.0;
    ( 50-60, <=200, Y, Y, LVH, F ) 0.5, 0.5;
    ( 50-60, <=200, Y, Y, LVH, M ) 0.0, 1.0;
    ( 50-60, <=200, Y, Y, Normal, F ) 0.5, 0.5;
    ( 50-60, <=200, Y, Y, Normal, M ) 0.5, 0.5;
    ( 50-60, <=200, Y, Y, ST, F ) 0.5, 0.5;
    ( 50-60, <=200, Y, Y, ST, M ) 0.0, 1.0;
    ( 60-70, 200-240, N, N, LVH, F ) 1.0, 0.0;
    ( 60-70, 200-240, N, N, LVH, M ) 0.3333333333333333, 0.6666666666666666;
    ( 60-70, 200-240, N, N, Normal, F ) 1.0, 0.0;
    ( 60-70, 200-240, N, N, Normal, M ) 0.2, 0.8;
    ( 60-70, 200-240, N, N, ST, F ) 0.5, 0.5;
    ( 60-70, 200-240, N, N, ST, M ) 1.0, 0.0;
    ( 60-70, 200-240, N, Y, LVH, F ) 0.5, 0.5;
    ( 60-70, 200-240, N, Y, LVH, M ) 1.0, 0.0;
    ( 60-70, 200-240, N, Y, Normal, F ) 0.5, 0.5;
    ( 60-70, 200-240, N, Y, Normal, M ) 0.5, 0.5;
    ( 60-70, 200-240, N, Y, ST, F ) 0.5, 0.5;
    ( 60-70, 200-240, N, Y, ST, M ) 0.5, 0.5;
    ( 60-70, 200-240, Y, N, LVH, F ) 0.5, 0.5;
    ( 60-70, 200-240, Y, N, LVH, M ) 0.0, 1.0;
    ( 60-70, 200-240, Y, N, Normal, F ) 0.5, 0.5;
    ( 60-70, 200-240, Y, N, Normal, M ) 0.0, 1.0;
    ( 60-70, 200-240, Y, N, ST, F ) 0.5, 0.5;
    ( 60-70, 200-240, Y, N, ST, M ) 0.0, 1.0;
    ( 60-70, 200-240, Y, Y, LVH, F ) 0.5, 0.5;
    ( 60-70, 200-240, Y, Y, LVH, M ) 0.5, 0.5;
    ( 60-70, 200-240, Y, Y, Normal, F ) 0.0, 1.0;
    ( 60-70, 200-240, Y, Y, Normal, M ) 0.0, 1.0;
    ( 60-70, 200-240, Y, Y, ST, F ) 0.5, 0.5;
    ( 60-70, 200-240, Y, Y, ST, M ) 0.0, 1.0;
    ( 60-70, 240+, N, N, LVH, F ) 0.6666666666666666, 0.3333333333333333;
    ( 60-70, 240+, N, N, LVH, M ) 0.375, 0.625;
    ( 60-70, 240+, N, N, Normal, F ) 0.8, 0.2;
    ( 60-70, 240+, N, N, Normal, M ) 0.6666666666666666, 0.3333333333333333;
    ( 60-70, 240+, N, N, ST, F ) 0.5, 0.5;
    ( 60-70, 240+, N, N, ST, M ) 0.5, 0.5;
    ( 60-70, 240+, N, Y, LVH, F ) 1.0, 0.0;
    ( 60-70, 240+, N, Y, LVH, M ) 0.0, 1.0;
    ( 60-70, 240+, N, Y, Normal, F ) 0.0, 1.0;
    ( 60-70, 240+, N, Y, Normal, M ) 0.0, 1.0;
    ( 60-70, 240+, N, Y, ST, F ) 0.5, 0.5;
    ( 60-70, 240+, N, Y, ST, M ) 0.5, 0.5;
    ( 60-70, 240+, Y, N, LVH, F ) 0.0, 1.0;
    ( 60-70, 240+, Y, N, LVH, M ) 0.0, 1.0;
    ( 60-70, 240+, Y, N, Normal, F ) 0.25, 0.75;
    ( 60-70, 240+, Y, N, Normal, M ) 0.08333333333333333, 0.9166666666666666;
    ( 60-70, 240+, Y, N, ST, F ) 1.0, 0.0;
    ( 60-70, 240+, Y, N, ST, M ) 0.0, 1.0;
    ( 60-70, 240+, Y, Y, LVH, F ) 0.5, 0.5;
    ( 60-70, 240+, Y, Y, LVH, M ) 0.0, 1.0;
    ( 60-70, 240+, Y, Y, Normal, F ) 0.5, 0.5;
    ( 60-70, 240+, Y, Y, Normal, M ) 0.3333333333333333, 0.6666666666666666;
    ( 60-70, 240+, Y, Y, ST, F ) 0.5, 0.5;
    ( 60-70, 240+, Y, Y, ST, M ) 0.0, 1.0;
    ( 60-70, <=200, N, N, LVH, F ) 0.0, 1.0;
    ( 60-70, <=200, N, N, LVH, M ) 0.5, 0.5;
    ( 60-70, <=200, N, N, Normal, F ) 1.0, 0.0;
    ( 60-70, <=200, N, N, Normal, M ) 1.0, 0.0;
    ( 60-70, <=200, N, N, ST, F ) 0.5, 0.5;
    ( 60-70, <=200, N, N, ST, M ) 1.0, 0.0;
    ( 60-70, <=200, N, Y, LVH, F ) 0.5, 0.5;
    ( 60-70, <=200, N, Y, LVH, M ) 0.5, 0.5;
    ( 60-70, <=200, N, Y, Normal, F ) 0.5, 0.5;
    ( 60-70, <=200, N, Y, Normal, M ) 0.0, 1.0;
    ( 60-70, <=200, N, Y, ST, F ) 0.5, 0.5;
    ( 60-70, <=200, N, Y, ST, M ) 0.5, 0.5;
    ( 60-70, <=200, Y, N, LVH, F ) 0.5, 0.5;
    ( 60-70, <=200, Y, N, LVH, M ) 0.0, 1.0;
    ( 60-70, <=200, Y, N, Normal, F ) 0.0, 1.0;
    ( 60-70, <=200, Y, N, Normal, M ) 0.0, 1.0;
    ( 60-70, <=200, Y, N, ST, F ) 0.5, 0.5;
    ( 60-70, <=200, Y, N, ST, M ) 0.0, 1.0;
    ( 60-70, <=200, Y, Y, LVH, F ) 0.5, 0.5;
    ( 60-70, <=200, Y, Y, LVH, M ) 0.5, 0.5;
    ( 60-70, <=200, Y, Y, Normal, F ) 0.5, 0.5;
    ( 60-70, <=200, Y, Y, Normal, M ) 0.0, 1.0;
    ( 60-70, <=200, Y, Y, ST, F ) 0.5, 0.5;
    ( 60-70, <=200, Y, Y, ST, M ) 0.5, 0.5;
    ( 70+, 200-240, N, N, LVH, F ) 0.5, 0.5;
    ( 70+, 200-240, N, N, LVH, M ) 0.5, 0.5;
    ( 70+, 200-240, N, N, Normal, F ) 0.5, 0.5;
    ( 70+, 200-240, N, N, Normal, M ) 0.5, 0.5;
    ( 70+, 200-240, N, N, ST, F ) 0.5, 0.5;
    ( 70+, 200-240, N, N, ST, M ) 0.5, 0.5;
    ( 70+, 200-240, N, Y, LVH, F ) 0.5, 0.5;
    ( 70+, 200-240, N, Y, LVH, M ) 0.5, 0.5;
    ( 70+, 200-240, N, Y, Normal, F ) 0.5, 0.5;
    ( 70+, 200-240, N, Y, Normal, M ) 0.0, 1.0;
    ( 70+, 200-240, N, Y, ST, F ) 0.5, 0.5;
    ( 70+, 200-240, N, Y, ST, M ) 0.0, 1.0;
    ( 70+, 200-240, Y, N, LVH, F ) 0.5, 0.5;
    ( 70+, 200-240, Y, N, LVH, M ) 0.5, 0.5;
    ( 70+, 200-240, Y, N, Normal, F ) 0.5, 0.5;
    ( 70+, 200-240, Y, N, Normal, M ) 0.0, 1.0;
    ( 70+, 200-240, Y, N, ST, F ) 0.5, 0.5;
    ( 70+, 200-240, Y, N, ST, M ) 0.0, 1.0;
    ( 70+, 200-240, Y, Y, LVH, F ) 0.5, 0.5;
    ( 70+, 200-240, Y, Y, LVH, M ) 0.5, 0.5;
    ( 70+, 200-240, Y, Y, Normal, F ) 0.5, 0.5;
    ( 70+, 200-240, Y, Y, Normal, M ) 0.0, 1.0;
    ( 70+, 200-240, Y, Y, ST, F ) 0.5, 0.5;
    ( 70+, 200-240, Y, Y, ST, M ) 0.5, 0.5;
    ( 70+, 240+, N, N, LVH, F ) 0.5, 0.5;
    ( 70+, 240+, N, N, LVH, M ) 0.5, 0.5;
    ( 70+, 240+, N, N, Normal, F ) 1.0, 0.0;
    ( 70+, 240+, N, N, Normal, M ) 0.5, 0.5;
    ( 70+, 240+, N, N, ST, F ) 0.5, 0.5;
    ( 70+, 240+, N, N, ST, M ) 0.5, 0.5;
    ( 70+, 240+, N, Y, LVH, F ) 1.0, 0.0;
    ( 70+, 240+, N, Y, LVH, M ) 0.5, 0.5;
    ( 70+, 240+, N, Y, Normal, F ) 0.5, 0.5;
    ( 70+, 240+, N, Y, Normal, M ) 0.5, 0.5;
    ( 70+, 240+, N, Y, ST, F ) 0.5, 0.5;
    ( 70+, 240+, N, Y, ST, M ) 0.5, 0.5;
    ( 70+, 240+, Y, N, LVH, F ) 1.0, 0.0;
    ( 70+, 240+, Y, N, LVH, M ) 0.0, 1.0;
    ( 70+, 240+, Y, N, Normal, F ) 0.5, 0.5;
    ( 70+, 240+, Y, N, Normal, M ) 0.0, 1.0;
    ( 70+, 240+, Y, N, ST, F ) 0.5, 0.5;
    ( 70+, 240+, Y, N, ST, M ) 0.5, 0.5;
    ( 70+, 240+, Y, Y, LVH, F ) 0.5, 0.5;
    ( 70+, 240+, Y, Y, LVH, M ) 0.5, 0.5;
    ( 70+, 240+, Y, Y, Normal, F ) 0.5, 0.5;
    ( 70+, 240+, Y, Y, Normal, M ) 1.0, 0.0;
    ( 70+, 240+, Y, Y, ST, F ) 0.5, 0.5;
    ( 70+, 240+, Y, Y, ST, M ) 0.0, 1.0;
    ( 70+, <=200, N, N, LVH, F ) 0.5, 0.5;
    ( 70+, <=200, N, N, LVH, M ) 0.0, 1.0;
    ( 70+, <=200, N, N, Normal, F ) 0.5, 0.5;
    ( 70+, <=200, N, N, Normal, M ) 0.5, 0.5;
    ( 70+, <=200, N, N, ST, F ) 1.0, 0.0;
    ( 70+, <=200, N, N, ST, M ) 0.5, 0.5;
    ( 70+, <=200, N, Y, LVH, F ) 0.5, 0.5;
    ( 70+, <=200, N, Y, LVH, M ) 0.5, 0.5;
    ( 70+, <=200, N, Y, Normal, F ) 0.5, 0.5;
    ( 70+, <=200, N, Y, Normal, M ) 0.5, 0.5;
    ( 70+, <=200, N, Y, ST, F ) 0.5, 0.5;
    ( 70+, <=200, N, Y, ST, M ) 0.5, 0.5;
    ( 70+, <=200, Y, N, LVH, F ) 0.5, 0.5;
    ( 70+, <=200, Y, N, LVH, M ) 0.5, 0.5;
    ( 70+, <=200, Y, N, Normal, F ) 0.5, 0.5;
    ( 70+, <=200, Y, N, Normal, M ) 0.5, 0.5;
    ( 70+, <=200, Y, N, ST, F ) 0.5, 0.5;
    ( 70+, <=200, Y, N, ST, M ) 0.0, 1.0;
    ( 70+, <=200, Y, Y, LVH, F ) 0.5, 0.5;
    ( 70+, <=200, Y, Y, LVH, M ) 0.5, 0.5;
    ( 70+, <=200, Y, Y, Normal, F ) 0.5, 0.5;
    ( 70+, <=200, Y, Y, Normal, M ) 0.5, 0.5;
    ( 70+, <=200, Y, Y, ST, F ) 0.5, 0.5;
    ( 70+, <=200, Y, Y, ST, M ) 0.5, 0.5;

}
probability ( MaxHR | Age, Sex ) {
    ( 20-40, F ) 0.3125, 0.0, 0.125, 0.5625;
    ( 20-40, M ) 0.25862068965517243, 0.10344827586206896, 0.13793103448275862, 0.5;
    ( 40-50, F ) 0.24489795918367346, 0.14285714285714285, 0.16326530612244897, 0.4489795918367347;
    ( 40-50, M ) 0.25203252032520324, 0.17073170731707318, 0.25203252032520324, 0.3252032520325203;
    ( 50-60, F ) 0.3870967741935484, 0.1774193548387097, 0.22580645161290322, 0.20967741935483872;
    ( 50-60, M ) 0.27722772277227725, 0.28217821782178215, 0.2623762376237624, 0.1782178217821782;
    ( 60-70, F ) 0.4444444444444444, 0.2222222222222222, 0.1111111111111111, 0.2222222222222222;
    ( 60-70, M ) 0.19387755102040816, 0.3979591836734694, 0.37755102040816324, 0.030612244897959183;
    ( 70+, F ) 0.0, 0.5, 0.25, 0.25;
    ( 70+, M ) 0.0, 0.8571428571428571, 0.07142857142857142, 0.07142857142857142;

}
probability ( Oldpeak | ExerciseAngina, HeartDisease ) {
    ( N, 0 ) 0.09698996655518395, 0.10702341137123746, 0.013377926421404682, 0.782608695652174;
    ( N, 1 ) 0.11650485436893204, 0.20388349514563106, 0.1553398058252427, 0.5242718446601942;
    ( Y, 0 ) 0.2558139534883721, 0.27906976744186046, 0.046511627906976744, 0.4186046511627907;
    ( Y, 1 ) 0.16826923076923078, 0.4423076923076923, 0.25, 0.13942307692307693;

}
probability ( RestingBP | Age, Cholesterol ) {
    ( 20-40, 200-240 ) 0.38095238095238093, 0.14285714285714285, 0.47619047619047616;
    ( 20-40, 240+ ) 0.36666666666666664, 0.06666666666666667, 0.5666666666666667;
    ( 20-40, <=200 ) 0.43478260869565216, 0.08695652173913043, 0.4782608695652174;
    ( 40-50, 200-240 ) 0.5185185185185185, 0.07407407407407407, 0.4074074074074074;
    ( 40-50, 240+ ) 0.4146341463414634, 0.21951219512195122, 0.36585365853658536;
    ( 40-50, <=200 ) 0.2777777777777778, 0.16666666666666666, 0.5555555555555556;
    ( 50-60, 200-240 ) 0.5604395604395604, 0.17582417582417584, 0.26373626373626374;
    ( 50-60, 240+ ) 0.5333333333333333, 0.26666666666666666, 0.2;
    ( 50-60, <=200 ) 0.5094339622641509, 0.20754716981132076, 0.2830188679245283;
    ( 60-70, 200-240 ) 0.36666666666666664, 0.4, 0.23333333333333334;
    ( 60-70, 240+ ) 0.410958904109589, 0.3561643835616438, 0.2328767123287671;
    ( 60-70, <=200 ) 0.45454545454545453, 0.5, 0.045454545454545456;
    ( 70+, 200-240 ) 0.375, 0.5, 0.125;
    ( 70+, 240+ ) 0.14285714285714285, 0.5714285714285714, 0.2857142857142857;
    ( 70+, <=200 ) 0.6666666666666666, 0.0, 0.3333333333333333;

}
probability ( RestingECG | Age ) {
    ( 20-40 ) 0.10810810810810811, 0.7837837837837838, 0.10810810810810811;
    ( 40-50 ) 0.1686046511627907, 0.7151162790697675, 0.11627906976744186;
    ( 50-60 ) 0.26515151515151514, 0.5643939393939394, 0.17045454545454544;
    ( 60-70 ) 0.328, 0.424, 0.248;
    ( 70+ ) 0.2222222222222222, 0.5, 0.2777777777777778;

}
probability ( ST_Slope | ExerciseAngina, HeartDisease, Oldpeak ) {
    ( N, 0, 0-5-1 ) 0.034482758620689655, 0.3793103448275862, 0.5862068965517241;
    ( N, 0, 1-2 ) 0.03125, 0.46875, 0.5;
    ( N, 0, 2+ ) 0.75, 0.25, 0.0;
    ( N, 0, <=0.5 ) 0.008547008547008548, 0.07692307692307693, 0.9145299145299145;
    ( N, 1, 0-5-1 ) 0.08333333333333333, 0.5, 0.4166666666666667;
    ( N, 1, 1-2 ) 0.047619047619047616, 0.9047619047619048, 0.047619047619047616;
    ( N, 1, 2+ ) 0.125, 0.75, 0.125;
    ( N, 1, <=0.5 ) 0.0, 0.7407407407407407, 0.25925925925925924;
    ( Y, 0, 0-5-1 ) 0.0, 0.8181818181818182, 0.18181818181818182;
    ( Y, 0, 1-2 ) 0.16666666666666666, 0.5833333333333334, 0.25;
    ( Y, 0, 2+ ) 0.0, 1.0, 0.0;
    ( Y, 0, <=0.5 ) 0.0, 0.2222222222222222, 0.7777777777777778;
    ( Y, 1, 0-5-1 ) 0.0, 0.8857142857142857, 0.11428571428571428;
    ( Y, 1, 1-2 ) 0.07608695652173914, 0.8478260869565217, 0.07608695652173914;
    ( Y, 1, 2+ ) 0.2692307692307692, 0.6923076923076923, 0.038461538461538464;
    ( Y, 1, <=0.5 ) 0.0, 0.7931034482758621, 0.20689655172413793;

}
probability ( Sex ) {
    table 0.24196018376722817, 0.7580398162327718 ;
}
