<?xml version='1.0' encoding='utf-8'?>
<BIF VERSION="0.3">
  <NETWORK>
    <NAME>UNTITLED</NAME>
    <VARIABLE TYPE="nature">
      <NAME>Age</NAME>
      <OUTCOME>20_30</OUTCOME>
      <OUTCOME>30_40</OUTCOME>
      <OUTCOME>40_50</OUTCOME>
      <OUTCOME>50_60</OUTCOME>
      <OUTCOME>60_70</OUTCOME>
      <OUTCOME>70_80</OUTCOME>
      <PROPERTY />
    </VARIABLE>
    <VARIABLE TYPE="nature">
      <NAME>ChestPainType</NAME>
      <OUTCOME>ASY</OUTCOME>
      <OUTCOME>ATA</OUTCOME>
      <OUTCOME>NAP</OUTCOME>
      <OUTCOME>TA</OUTCOME>
      <PROPERTY />
    </VARIABLE>
    <VARIABLE TYPE="nature">
      <NAME>Cholesterol</NAME>
      <OUTCOME>borderline</OUTCOME>
      <OUTCOME>high</OUTCOME>
      <OUTCOME>optimal</OUTCOME>
      <PROPERTY />
    </VARIABLE>
    <VARIABLE TYPE="nature">
      <NAME>ExerciseAngina</NAME>
      <OUTCOME>False</OUTCOME>
      <OUTCOME>True</OUTCOME>
      <PROPERTY />
    </VARIABLE>
    <VARIABLE TYPE="nature">
      <NAME>FastingBS</NAME>
      <OUTCOME>False</OUTCOME>
      <OUTCOME>True</OUTCOME>
      <PROPERTY />
    </VARIABLE>
    <VARIABLE TYPE="nature">
      <NAME>HeartDisease</NAME>
      <OUTCOME>False</OUTCOME>
      <OUTCOME>True</OUTCOME>
      <PROPERTY />
    </VARIABLE>
    <VARIABLE TYPE="nature">
      <NAME>MaxHR</NAME>
      <OUTCOME>high</OUTCOME>
      <OUTCOME>low</OUTCOME>
      <OUTCOME>medium</OUTCOME>
      <OUTCOME>very_high</OUTCOME>
      <PROPERTY />
    </VARIABLE>
    <VARIABLE TYPE="nature">
      <NAME>Oldpeak</NAME>
      <OUTCOME>0_5_1</OUTCOME>
      <OUTCOME>1_2</OUTCOME>
      <OUTCOME>2_</OUTCOME>
      <OUTCOME>_0_5</OUTCOME>
      <PROPERTY />
    </VARIABLE>
    <VARIABLE TYPE="nature">
      <NAME>RestingBP</NAME>
      <OUTCOME>high</OUTCOME>
      <OUTCOME>normal</OUTCOME>
      <OUTCOME>very_high</OUTCOME>
      <PROPERTY />
    </VARIABLE>
    <VARIABLE TYPE="nature">
      <NAME>RestingECG</NAME>
      <OUTCOME>LVH</OUTCOME>
      <OUTCOME>Normal</OUTCOME>
      <OUTCOME>ST</OUTCOME>
      <PROPERTY />
    </VARIABLE>
    <VARIABLE TYPE="nature">
      <NAME>ST_Slope</NAME>
      <OUTCOME>Down</OUTCOME>
      <OUTCOME>Flat</OUTCOME>
      <OUTCOME>Up</OUTCOME>
      <PROPERTY />
    </VARIABLE>
    <VARIABLE TYPE="nature">
      <NAME>Sex</NAME>
      <OUTCOME>F</OUTCOME>
      <OUTCOME>M</OUTCOME>
      <PROPERTY />
    </VARIABLE>
    <DEFINITION>
      <FOR>Age</FOR>
      <TABLE>0.006378258458125345 0.10288408208541318 0.26927343316694397 0.41569606211869103 0.1794231835829173 0.026344980587909038 </TABLE>
    </DEFINITION>
    <DEFINITION>
      <FOR>ChestPainType</FOR>
      <GIVEN>HeartDisease</GIVEN>
      <TABLE>0.25699844479004663 0.3689735614307932 0.3067651632970451 0.06726283048211508 0.7714669051878354 0.06305903398926654 0.1310375670840787 0.03443649373881932 </TABLE>
    </DEFINITION>
    <DEFINITION>
      <FOR>Cholesterol</FOR>
      <GIVEN>Age</GIVEN>
      <GIVEN>Sex</GIVEN>
      <TABLE>0.3333333333333333 0.3333333333333333 0.3333333333333333 0.3333333333333333 0.6260162601626016 0.04065040650406505 0.3084886128364389 0.23395445134575568 0.4575569358178054 0.29202524383247275 0.43660355708548476 0.27137119908204244 0.3670601461495222 0.44800449690837546 0.1849353569421023 0.38374104274771437 0.42821843340746235 0.18804052384482334 0.25061546036435256 0.6582964057114722 0.09108813392417531 0.3729714203647853 0.42984345827947723 0.19718512135573746 0.22391084093211752 0.6616008105369807 0.11448834853090172 0.30017271157167535 0.524006908462867 0.1758203799654577 0.03144654088050315 0.4842767295597485 0.4842767295597485 0.45012165450121655 0.27493917274939167 0.27493917274939167 </TABLE>
    </DEFINITION>
    <DEFINITION>
      <FOR>ExerciseAngina</FOR>
      <GIVEN>MaxHR</GIVEN>
      <GIVEN>Sex</GIVEN>
      <TABLE>0.7808716707021792 0.21912832929782083 0.6749136939010357 0.32508630609896433 0.6502347417840375 0.34976525821596244 0.3018200202224469 0.6981799797775531 0.7096069868995634 0.2903930131004367 0.5 0.5 0.9033613445378151 0.09663865546218488 0.8972413793103449 0.10275862068965518 </TABLE>
    </DEFINITION>
    <DEFINITION>
      <FOR>FastingBS</FOR>
      <GIVEN>Age</GIVEN>
      <GIVEN>RestingBP</GIVEN>
      <TABLE>0.9390243902439025 0.06097560975609757 0.891304347826087 0.10869565217391305 0.5 0.5 0.9940334128878281 0.0059665871121718375 0.9647160068846816 0.035283993115318414 0.9778761061946902 0.022123893805309734 0.9044943820224719 0.0955056179775281 0.9559625876851131 0.04403741231488699 0.9947145877378435 0.005285412262156448 0.7548863183087355 0.24511368169126443 0.8825717321997875 0.11742826780021257 0.7573879885605339 0.2426120114394662 0.7593037214885955 0.2406962785114046 0.9464751958224543 0.05352480417754569 0.6986206896551724 0.30137931034482757 0.9675324675324675 0.032467532467532464 0.7337662337662337 0.2662337662337662 0.2938931297709923 0.7061068702290076 </TABLE>
    </DEFINITION>
    <DEFINITION>
      <FOR>HeartDisease</FOR>
      <GIVEN>Age</GIVEN>
      <GIVEN>Cholesterol</GIVEN>
      <GIVEN>ExerciseAngina</GIVEN>
      <GIVEN>FastingBS</GIVEN>
      <GIVEN>RestingECG</GIVEN>
      <GIVEN>Sex</GIVEN>
      <TABLE>0.5 0.5 0.9942791762013731 0.005720823798627003 0.5 0.5 0.5 0.5 0.5 0.5 0.5 0.5 0.5 0.5 0.5 0.5 0.5 0.5 0.5 0.5 0.5 0.5 0.5 0.5 0.5 0.5 0.5 0.5 0.5 0.5 0.5 0.5 0.5 0.5 0.5 0.5 0.5 0.5 0.5 0.5 0.5 0.5 0.5 0.5 0.5 0.5 0.5 0.5 0.5 0.5 0.5 0.5 0.5 0.5 0.9971231300345224 0.0028768699654775597 0.5 0.5 0.5 0.5 0.5 0.5 0.5 0.5 0.5 0.5 0.5 0.5 0.5 0.5 0.5 0.5 0.5 0.5 0.5 0.5 0.5 0.5 0.5 0.5 0.5 0.5 0.5 0.5 0.5 0.5 0.5 0.5 0.5 0.5 0.5 0.5 0.5 0.5 0.5 0.5 0.5 0.5 0.5 0.5 0.5 0.5 0.5 0.5 0.5 0.5 0.5 0.5 0.5 0.5 0.5 0.5 0.5 0.5 0.5 0.5 0.5 0.5 0.5 0.5 0.5 0.5 0.5 0.5 0.5 0.5 0.5 0.5 0.5 0.5 0.5 0.5 0.5 0.5 0.5 0.5 0.5 0.5 0.5 0.5 0.5 0.5 0.5 0.5 0.5 0.5 0.9942791762013731 0.005720823798627003 0.9980784012298232 0.0019215987701767868 0.7996531791907515 0.2003468208092486 0.9942791762013731 0.005720823798627003 0.9942791762013731 0.005720823798627003 0.5 0.5 0.5 0.5 0.5 0.5 0.5 0.5 0.5 0.5 0.5 0.5 0.5 0.5 0.5 0.5 0.5 0.5 0.5 0.5 0.5 0.5 0.5 0.5 0.5 0.5 0.5 0.5 0.5 0.5 0.5 0.5 0.5 0.5 0.5 0.5 0.5 0.5 0.9942791762013731 0.005720823798627003 0.5 0.5 0.749819285817551 0.2501807141824491 0.5 0.5 0.9942791762013731 0.005720823798627003 0.5 0.5 0.5 0.5 0.5 0.5 0.5 0.5 0.5 0.5 0.5 0.5 0.5 0.5 0.005720823798627003 0.9942791762013731 0.005720823798627003 0.9942791762013731 0.005720823798627003 0.9942791762013731 0.5 0.5 0.5 0.5 0.5 0.5 0.5 0.5 0.5 0.5 0.005720823798627003 0.9942791762013731 0.5 0.5 0.5 0.5 0.5 0.5 0.5 0.5 0.9985574148874783 0.0014425851125216386 0.7139319907560251 0.2860680092439749 0.9971231300345224 0.0028768699654775597 0.9942791762013731 0.005720823798627003 0.5 0.5 0.5 0.5 0.5 0.5 0.5 0.5 0.5 0.5 0.5 0.5 0.5 0.5 0.005720823798627003 0.9942791762013731 0.5 0.5 0.2507212925562608 0.7492787074437391 0.5 0.5 0.5 0.5 0.5 0.5 0.5 0.5 0.5 0.5 0.5 0.5 0.5 0.5 0.5 0.5 0.9942791762013731 0.005720823798627003 0.9985574148874783 0.0014425851125216386 0.9994744586924533 0.0005255413075467732 0.8418969925727505 0.15810300742724948 0.9985574148874783 0.0014425851125216386 0.9971231300345224 0.0028768699654775597 0.5 0.5 0.5 0.5 0.5 0.5 0.9971231300345224 0.0028768699654775597 0.5 0.5 0.005720823798627003 0.9942791762013731 0.5 0.5 0.9942791762013731 0.005720823798627003 0.0028768699654775597 0.9971231300345224 0.27296615513979405 0.7270338448602061 0.5 0.5 0.5 0.5 0.5 0.5 0.5 0.5 0.5 0.5 0.005720823798627003 0.9942791762013731 0.5 0.5 0.5 0.5 0.9971231300345224 0.0028768699654775597 0.6663457835964575 0.33365421640354254 0.9995182116014647 0.0004817883985353633 0.714167676545114 0.285832323454886 0.9985574148874783 0.0014425851125216386 0.7492787074437391 0.2507212925562608 0.5 0.5 0.5 0.5 0.5 0.5 0.5 0.5 0.5 0.5 0.5 0.5 0.9971231300345224 0.0028768699654775597 0.0019215987701767868 0.9980784012298232 0.9942791762013731 0.005720823798627003 0.0006421782686873876 0.9993578217313127 0.5 0.5 0.0028768699654775597 0.9971231300345224 0.005720823798627003 0.9942791762013731 0.0028768699654775597 0.9971231300345224 0.5 0.5 0.9942791762013731 0.005720823798627003 0.5 0.5 0.5 0.5 0.5 0.5 0.0028768699654775597 0.9971231300345224 0.874458249060965 0.12554175093903494 0.8568478440442756 0.14315215595572445 0.5 0.5 0.5 0.5 0.5 0.5 0.5 0.5 0.5 0.5 0.5 0.5 0.9942791762013731 0.005720823798627003 0.5 0.5 0.5 0.5 0.0028768699654775597 0.9971231300345224 0.5 0.5 0.33397386625672554 0.6660261337432744 0.5 0.5 0.5 0.5 0.5 0.5 0.5 0.5 0.5 0.5 0.5 0.5 0.5 0.5 0.5 0.5 0.9942791762013731 0.005720823798627003 0.4286893364146583 0.5713106635853417 0.9991746450973918 0.0008253549026081214 0.5 0.5 0.9942791762013731 0.005720823798627003 0.5 0.5 0.5 0.5 0.9971231300345224 0.0028768699654775597 0.9942791762013731 0.005720823798627003 0.6663457835964575 0.33365421640354254 0.5 0.5 0.6660261337432744 0.33397386625672554 0.5 0.5 0.5 0.5 0.9971231300345224 0.0028768699654775597 0.37509035709122457 0.6249096429087755 0.005720823798627003 0.9942791762013731 0.1434466820732915 0.8565533179267084 0.005720823798627003 0.9942791762013731 0.005720823798627003 0.9942791762013731 0.5 0.5 0.0014425851125216386 0.9985574148874783 0.5 0.5 0.0028768699654775597 0.9971231300345224 0.7774210120729514 0.22257898792704855 0.5 0.5 0.8883894169021321 0.11161058309786798 0.7645257858212002 0.23547421417879988 0.9971231300345224 0.0028768699654775597 0.6660261337432744 0.33397386625672554 0.5 0.5 0.7492787074437391 0.2507212925562608 0.9942791762013731 0.005720823798627003 0.9985574148874783 0.0014425851125216386 0.005720823798627003 0.9942791762013731 0.005720823798627003 0.9942791762013731 0.005720823798627003 0.9942791762013731 0.1434466820732915 0.8565533179267084 0.16730843280708507 0.8326915671929149 0.11136100758257293 0.888638992417427 0.33397386625672554 0.6660261337432744 0.1434466820732915 0.8565533179267084 0.5 0.5 0.0019215987701767868 0.9980784012298232 0.5 0.5 0.0019215987701767868 0.9980784012298232 0.005720823798627003 0.9942791762013731 0.0009626492106276472 0.9990373507893723 0.5 0.5 0.6660261337432744 0.33397386625672554 0.9985574148874783 0.0014425851125216386 0.7775992802981622 0.22240071970183783 0.5 0.5 0.9980784012298232 0.0019215987701767868 0.5 0.5 0.005720823798627003 0.9942791762013731 0.9942791762013731 0.005720823798627003 0.5 0.5 0.5 0.5 0.9942791762013731 0.005720823798627003 0.5 0.5 0.0028768699654775597 0.9971231300345224 0.5 0.5 0.0009626492106276472 0.9990373507893723 0.5 0.5 0.005720823798627003 0.9942791762013731 0.5 0.5 0.0028768699654775597 0.9971231300345224 0.5 0.5 0.5 0.5 0.5 0.5 0.005720823798627003 0.9942791762013731 0.005720823798627003 0.9942791762013731 0.599769053117783 0.4002309468822171 0.9985574148874783 0.0014425851125216386 0.20069284064665124 0.7993071593533487 0.5 0.5 0.9971231300345224 0.0028768699654775597 0.5 0.5 0.9971231300345224 0.0028768699654775597 0.5 0.5 0.5 0.5 0.5 0.5 0.5 0.5 0.5 0.5 0.33397386625672554 0.6660261337432744 0.5 0.5 0.005720823798627003 0.9942791762013731 0.5 0.5 0.5 0.5 0.5 0.5 0.5 0.5 0.005720823798627003 0.9942791762013731 0.005720823798627003 0.9942791762013731 0.5 0.5 0.0019215987701767868 0.9980784012298232 0.624819416353655 0.375180583646345 0.2860680092439749 0.7139319907560251 0.6660261337432744 0.33397386625672554 0.599769053117783 0.4002309468822171 0.5 0.5 0.5 0.5 0.9942791762013731 0.005720823798627003 0.0028768699654775597 0.9971231300345224 0.5 0.5 0.005720823798627003 0.9942791762013731 0.5 0.5 0.5 0.5 0.005720823798627003 0.9942791762013731 0.0019215987701767868 0.9980784012298232 0.0019215987701767868 0.9980784012298232 0.0004817883985353633 0.9995182116014647 0.9942791762013731 0.005720823798627003 0.2507212925562608 0.7492787074437391 0.5 0.5 0.0028768699654775597 0.9971231300345224 0.9942791762013731 0.005720823798627003 0.6660261337432744 0.33397386625672554 0.5 0.5 0.0019215987701767868 0.9980784012298232 0.5 0.5 0.5 0.5 0.9971231300345224 0.0028768699654775597 0.9942791762013731 0.005720823798627003 0.5 0.5 0.9971231300345224 0.0028768699654775597 0.5 0.5 0.5 0.5 0.5 0.5 0.005720823798627003 0.9942791762013731 0.5 0.5 0.9942791762013731 0.005720823798627003 0.5 0.5 0.0028768699654775597 0.9971231300345224 0.005720823798627003 0.9942791762013731 0.0019215987701767868 0.9980784012298232 0.5 0.5 0.0014425851125216386 0.9985574148874783 0.5 0.5 0.5 0.5 0.5 0.5 0.5 0.5 0.5 0.5 0.5 0.5 0.5 0.5 0.5 0.5 0.5 0.5 0.5 0.5 0.5 0.5 0.5 0.5 0.5 0.5 0.5 0.5 0.5 0.5 0.5 0.5 0.5 0.5 0.005720823798627003 0.9942791762013731 0.5 0.5 0.5 0.5 0.5 0.5 0.0019215987701767868 0.9980784012298232 0.5 0.5 0.5 0.5 0.5 0.5 0.5 0.5 0.5 0.5 0.005720823798627003 0.9942791762013731 0.5 0.5 0.5 0.5 0.5 0.5 0.5 0.5 0.9942791762013731 0.005720823798627003 0.5 0.5 0.5 0.5 0.5 0.5 0.9942791762013731 0.005720823798627003 0.5 0.5 0.5 0.5 0.5 0.5 0.5 0.5 0.5 0.5 0.5 0.5 0.005720823798627003 0.9942791762013731 0.5 0.5 0.5 0.5 0.5 0.5 0.5 0.5 0.5 0.5 0.5 0.5 0.5 0.5 0.9942791762013731 0.005720823798627003 0.5 0.5 0.005720823798627003 0.9942791762013731 0.5 0.5 0.005720823798627003 0.9942791762013731 0.9942791762013731 0.005720823798627003 0.5 0.5 0.9942791762013731 0.005720823798627003 0.5 0.5 0.5 0.5 0.005720823798627003 0.9942791762013731 0.5 0.5 0.5 0.5 0.5 0.5 0.5 0.5 0.5 0.5 0.5 0.5 0.5 0.5 0.5 0.5 0.5 0.5 0.005720823798627003 0.9942791762013731 0.5 0.5 0.5 0.5 0.5 0.5 0.5 0.5 0.5 0.5 0.5 0.5 </TABLE>
    </DEFINITION>
    <DEFINITION>
      <FOR>MaxHR</FOR>
      <GIVEN>Age</GIVEN>
      <GIVEN>Sex</GIVEN>
      <TABLE>0.25 0.25 0.25 0.25 0.3231707317073171 0.03048780487804878 0.03048780487804878 0.6158536585365852 0.23136645962732919 0.007763975155279504 0.15683229813664595 0.6040372670807453 0.3119621342512908 0.06411359724612736 0.1880378657487091 0.43588640275387264 0.26517706576728495 0.18423271500843166 0.14376053962900506 0.4068296795952782 0.25 0.19662713120830244 0.28558191252779835 0.2677909562638992 0.4095273264401773 0.16137370753323485 0.26772525849335305 0.16137370753323485 0.243537268418785 0.3107496768634209 0.274558380008617 0.17115467470917708 0.4414893617021276 0.2591185410334346 0.07674772036474163 0.22264437689969604 0.2126943005181347 0.3743523316062176 0.3743523316062176 0.038601036269430046 0.023584905660377357 0.25 0.4764150943396226 0.25 0.009124087591240879 0.7098540145985403 0.18430656934306572 0.0967153284671533 </TABLE>
    </DEFINITION>
    <DEFINITION>
      <FOR>Oldpeak</FOR>
      <GIVEN>ExerciseAngina</GIVEN>
      <GIVEN>HeartDisease</GIVEN>
      <TABLE>0.09355555555555556 0.11844444444444445 0.022444444444444444 0.7655555555555555 0.15514905149051492 0.20934959349593496 0.15514905149051492 0.4803523035230352 0.23136645962732919 0.3059006211180124 0.05745341614906832 0.4052795031055901 0.16722296395193592 0.45026702269692925 0.2473297730307076 0.13518024032042725 </TABLE>
    </DEFINITION>
    <DEFINITION>
      <FOR>RestingBP</FOR>
      <GIVEN>Age</GIVEN>
      <GIVEN>Cholesterol</GIVEN>
      <TABLE>0.855072463768116 0.07246376811594203 0.07246376811594203 0.4796747967479675 0.4796747967479675 0.04065040650406504 0.3333333333333333 0.3333333333333333 0.3333333333333333 0.3333333333333333 0.552178318135765 0.11448834853090172 0.33333333333333337 0.5392829900839055 0.12738367658276126 0.47166186359269935 0.47166186359269935 0.05667627281460134 0.4910849199153823 0.4258084013297068 0.08310667875491085 0.3855072463768116 0.39973649538866934 0.21475625823451913 0.23425076452599392 0.5645259938837921 0.2012232415902141 0.5921871646276025 0.24447306288903195 0.16333977248336554 0.5494996150885296 0.16705157813702848 0.2834488067744419 0.5104835258878905 0.2563115104835259 0.23320496362858367 0.2342507645259939 0.26727828746177373 0.4984709480122324 0.4992319508448541 0.20061443932411677 0.3001536098310292 0.5262593783494105 0.0632368703108253 0.4105037513397642 0.20701754385964913 0.20701754385964913 0.5859649122807018 0.20701754385964913 0.20701754385964913 0.5859649122807018 0.39649122807017545 0.39649122807017545 0.20701754385964913 </TABLE>
    </DEFINITION>
    <DEFINITION>
      <FOR>RestingECG</FOR>
      <GIVEN>Age</GIVEN>
      <TABLE>0.3333333333333333 0.5942028985507246 0.07246376811594203 0.06918238993710692 0.8292902066486972 0.10152740341419586 0.16237555784414695 0.7123240645382767 0.1253003776175764 0.25728263286635533 0.5574827662886369 0.1852346008450078 0.36424523441524986 0.44770736733642447 0.1880473982483256 0.27017543859649124 0.4596491228070176 0.27017543859649124 </TABLE>
    </DEFINITION>
    <DEFINITION>
      <FOR>ST_Slope</FOR>
      <GIVEN>ExerciseAngina</GIVEN>
      <GIVEN>HeartDisease</GIVEN>
      <GIVEN>Oldpeak</GIVEN>
      <TABLE>0.07996832937450514 0.38400633412509894 0.5360253365003959 0.0031269543464665416 0.5134459036898061 0.4834271419637274 0.6501650165016502 0.1749174917491749 0.1749174917491749 0.005128205128205128 0.08408321238509918 0.9107885824866957 0.07714701601164484 0.636098981077147 0.2867540029112082 0.005393743257820927 0.9374325782092772 0.057173678532901825 0.2168850072780204 0.7059679767103348 0.07714701601164485 0.002350728725905031 0.6342266102491773 0.36342266102491777 0.011185682326621926 0.8702460850111858 0.11856823266219242 0.08967851099830797 0.6582064297800339 0.2521150592216582 0.04504504504504506 0.90990990990991 0.04504504504504506 0.006385696040868455 0.12899106002554278 0.8646232439335887 0.00332667997338656 0.9614105123087159 0.03526280771789753 0.04867803311094637 0.8789226587595749 0.07239930812947862 0.3261358524516419 0.6500224921277553 0.023841655420602792 0.004115226337448559 0.7547325102880658 0.2411522633744856 </TABLE>
    </DEFINITION>
    <DEFINITION>
      <FOR>Sex</FOR>
      <TABLE>0.25207986688851913 0.7479201331114809 </TABLE>
    </DEFINITION>
  </NETWORK>
</BIF>
