<?xml version='1.0' encoding='utf-8'?>
<BIF VERSION="0.3">
  <NETWORK>
    <NAME>UNTITLED</NAME>
    <VARIABLE TYPE="nature">
      <NAME>Age</NAME>
      <OUTCOME>20_40</OUTCOME>
      <OUTCOME>40_50</OUTCOME>
      <OUTCOME>50_60</OUTCOME>
      <OUTCOME>60_70</OUTCOME>
      <OUTCOME>70_</OUTCOME>
      <PROPERTY />
    </VARIABLE>
    <VARIABLE TYPE="nature">
      <NAME>ChestPainType</NAME>
      <OUTCOME>ASY</OUTCOME>
      <OUTCOME>ATA</OUTCOME>
      <OUTCOME>NAP</OUTCOME>
      <OUTCOME>TA</OUTCOME>
      <PROPERTY />
    </VARIABLE>
    <VARIABLE TYPE="nature">
      <NAME>Cholesterol</NAME>
      <OUTCOME>200_240</OUTCOME>
      <OUTCOME>240_</OUTCOME>
      <OUTCOME>_200</OUTCOME>
      <PROPERTY />
    </VARIABLE>
    <VARIABLE TYPE="nature">
      <NAME>ExerciseAngina</NAME>
      <OUTCOME>N</OUTCOME>
      <OUTCOME>Y</OUTCOME>
      <PROPERTY />
    </VARIABLE>
    <VARIABLE TYPE="nature">
      <NAME>FastingBS</NAME>
      <OUTCOME>N</OUTCOME>
      <OUTCOME>Y</OUTCOME>
      <PROPERTY />
    </VARIABLE>
    <VARIABLE TYPE="nature">
      <NAME>HeartDisease</NAME>
      <OUTCOME>0</OUTCOME>
      <OUTCOME>1</OUTCOME>
      <PROPERTY />
    </VARIABLE>
    <VARIABLE TYPE="nature">
      <NAME>MaxHR</NAME>
      <OUTCOME>high</OUTCOME>
      <OUTCOME>low</OUTCOME>
      <OUTCOME>medium</OUTCOME>
      <OUTCOME>very_high</OUTCOME>
      <PROPERTY />
    </VARIABLE>
    <VARIABLE TYPE="nature">
      <NAME>Oldpeak</NAME>
      <OUTCOME>0_5_1</OUTCOME>
      <OUTCOME>1_2</OUTCOME>
      <OUTCOME>2_</OUTCOME>
      <OUTCOME>_0_5</OUTCOME>
      <PROPERTY />
    </VARIABLE>
    <VARIABLE TYPE="nature">
      <NAME>RestingBP</NAME>
      <OUTCOME>120_140</OUTCOME>
      <OUTCOME>140_</OUTCOME>
      <OUTCOME>90_120</OUTCOME>
      <PROPERTY />
    </VARIABLE>
    <VARIABLE TYPE="nature">
      <NAME>RestingECG</NAME>
      <OUTCOME>LVH</OUTCOME>
      <OUTCOME>Normal</OUTCOME>
      <OUTCOME>ST</OUTCOME>
      <PROPERTY />
    </VARIABLE>
    <VARIABLE TYPE="nature">
      <NAME>ST_Slope</NAME>
      <OUTCOME>Down</OUTCOME>
      <OUTCOME>Flat</OUTCOME>
      <OUTCOME>Up</OUTCOME>
      <PROPERTY />
    </VARIABLE>
    <VARIABLE TYPE="nature">
      <NAME>Sex</NAME>
      <OUTCOME>F</OUTCOME>
      <OUTCOME>M</OUTCOME>
      <PROPERTY />
    </VARIABLE>
    <DEFINITION>
      <FOR>Age</FOR>
      <TABLE>0.11222780569514237 0.2747068676716918 0.3869346733668342 0.19597989949748743 0.03015075376884422 </TABLE>
    </DEFINITION>
    <DEFINITION>
      <FOR>ChestPainType</FOR>
      <GIVEN>HeartDisease</GIVEN>
      <TABLE>0.24203821656050956 0.37579617834394907 0.31528662420382164 0.06687898089171974 0.7597173144876325 0.05653710247349823 0.13427561837455831 0.04946996466431095 </TABLE>
    </DEFINITION>
    <DEFINITION>
      <FOR>Cholesterol</FOR>
      <GIVEN>Age</GIVEN>
      <GIVEN>Sex</GIVEN>
      <TABLE>0.3333333333333333 0.2 0.4666666666666667 0.3076923076923077 0.4230769230769231 0.2692307692307692 0.391304347826087 0.45652173913043476 0.15217391304347827 0.288135593220339 0.4915254237288136 0.22033898305084745 0.21818181818181817 0.6363636363636364 0.14545454545454545 0.3806818181818182 0.4034090909090909 0.2159090909090909 0.16666666666666666 0.6666666666666666 0.16666666666666666 0.26881720430107525 0.5591397849462365 0.17204301075268819 0.0 0.75 0.25 0.5714285714285714 0.2857142857142857 0.14285714285714285 </TABLE>
    </DEFINITION>
    <DEFINITION>
      <FOR>ExerciseAngina</FOR>
      <GIVEN>MaxHR</GIVEN>
      <GIVEN>Sex</GIVEN>
      <TABLE>0.7450980392156863 0.2549019607843137 0.6296296296296297 0.37037037037037035 0.7083333333333334 0.2916666666666667 0.288 0.712 0.68 0.32 0.4830508474576271 0.5169491525423728 0.9545454545454546 0.045454545454545456 0.9019607843137255 0.09803921568627451 </TABLE>
    </DEFINITION>
    <DEFINITION>
      <FOR>FastingBS</FOR>
      <GIVEN>Age</GIVEN>
      <GIVEN>RestingBP</GIVEN>
      <TABLE>1.0 0.0 0.8571428571428571 0.14285714285714285 0.9705882352941176 0.029411764705882353 0.8695652173913043 0.13043478260869565 1.0 0.0 0.9402985074626866 0.05970149253731343 0.8307692307692308 0.16923076923076924 0.7333333333333333 0.26666666666666666 0.8928571428571429 0.10714285714285714 0.7391304347826086 0.2608695652173913 0.6122448979591837 0.3877551020408163 0.9545454545454546 0.045454545454545456 0.8333333333333334 0.16666666666666666 0.5 0.5 0.75 0.25 </TABLE>
    </DEFINITION>
    <DEFINITION>
      <FOR>HeartDisease</FOR>
      <GIVEN>Age</GIVEN>
      <GIVEN>Cholesterol</GIVEN>
      <GIVEN>ExerciseAngina</GIVEN>
      <GIVEN>FastingBS</GIVEN>
      <GIVEN>RestingECG</GIVEN>
      <GIVEN>Sex</GIVEN>
      <TABLE>0.5 0.5 1.0 0.0 1.0 0.0 0.8 0.2 1.0 0.0 1.0 0.0 0.5 0.5 0.5 0.5 0.5 0.5 0.5 0.5 0.5 0.5 0.5 0.5 0.5 0.5 0.5 0.5 0.5 0.5 0.3333333333333333 0.6666666666666666 0.5 0.5 0.5 0.5 0.5 0.5 0.5 0.5 0.5 0.5 0.5 0.5 0.5 0.5 0.5 0.5 0.5 0.5 1.0 0.0 1.0 0.0 0.75 0.25 0.5 0.5 1.0 0.0 0.5 0.5 0.5 0.5 0.5 0.5 0.5 0.5 0.5 0.5 0.5 0.5 0.5 0.5 0.5 0.5 0.0 1.0 0.0 1.0 0.5 0.5 0.5 0.5 0.5 0.5 0.5 0.5 0.5 0.5 0.0 1.0 0.5 0.5 0.5 0.5 0.5 0.5 1.0 0.0 1.0 0.0 0.7142857142857143 0.2857142857142857 1.0 0.0 0.5 0.5 0.5 0.5 0.5 0.5 0.5 0.5 1.0 0.0 0.5 0.5 0.5 0.5 0.5 0.5 0.0 1.0 0.5 0.5 0.6666666666666666 0.3333333333333333 0.5 0.5 0.5 0.5 0.5 0.5 0.5 0.5 0.5 0.5 0.5 0.5 0.5 0.5 0.5 0.5 1.0 0.0 1.0 0.0 1.0 0.0 0.625 0.375 1.0 0.0 1.0 0.0 0.5 0.5 0.5 0.5 0.5 0.5 1.0 0.0 0.5 0.5 0.0 1.0 1.0 0.0 1.0 0.0 0.3333333333333333 0.6666666666666666 0.25 0.75 0.5 0.5 0.5 0.5 0.5 0.5 0.5 0.5 0.5 0.5 0.5 0.5 0.5 0.5 0.5 0.5 1.0 0.0 0.5 0.5 1.0 0.0 0.7083333333333334 0.2916666666666667 1.0 0.0 0.75 0.25 0.5 0.5 0.5 0.5 0.0 1.0 0.3333333333333333 0.6666666666666666 0.5 0.5 0.5 0.5 1.0 0.0 0.0 1.0 0.5 0.5 0.08333333333333333 0.9166666666666666 0.5 0.5 0.0 1.0 0.0 1.0 0.0 1.0 0.5 0.5 1.0 0.0 0.5 0.5 0.0 1.0 0.5 0.5 0.0 1.0 1.0 0.0 0.9285714285714286 0.07142857142857142 0.5 0.5 0.0 1.0 0.5 0.5 0.5 0.5 0.5 0.5 1.0 0.0 1.0 0.0 0.5 0.5 1.0 0.0 0.0 1.0 0.5 0.5 0.16666666666666666 0.8333333333333334 0.5 0.5 0.5 0.5 0.5 0.5 0.5 0.5 0.5 0.5 0.5 0.5 0.5 0.5 0.5 0.5 0.6666666666666666 0.3333333333333333 0.25 0.75 1.0 0.0 0.6842105263157895 0.3157894736842105 1.0 0.0 0.6666666666666666 0.3333333333333333 0.5 0.5 1.0 0.0 0.5 0.5 0.6666666666666666 0.3333333333333333 0.5 0.5 0.3333333333333333 0.6666666666666666 0.5 0.5 0.3333333333333333 0.6666666666666666 1.0 0.0 0.4 0.6 0.5 0.5 0.125 0.875 0.0 1.0 0.5 0.5 0.5 0.5 0.0 1.0 0.5 0.5 0.5 0.5 0.9 0.1 0.36363636363636365 0.6363636363636364 0.9 0.1 0.7142857142857143 0.2857142857142857 1.0 0.0 1.0 0.0 1.0 0.0 1.0 0.0 0.5 0.5 1.0 0.0 0.0 1.0 0.0 1.0 0.0 1.0 0.16666666666666666 0.8333333333333334 0.2 0.8 0.15789473684210525 0.8421052631578947 0.5 0.5 0.16666666666666666 0.8333333333333334 1.0 0.0 0.0 1.0 0.5 0.5 0.0 1.0 0.0 1.0 0.0 1.0 1.0 0.0 0.75 0.25 1.0 0.0 0.7777777777777778 0.2222222222222222 0.5 0.5 1.0 0.0 0.5 0.5 1.0 0.0 1.0 0.0 1.0 0.0 0.5 0.5 0.5 0.5 0.5 0.5 0.5 0.5 1.0 0.0 0.25 0.75 0.5 0.5 0.0 1.0 0.5 0.5 0.0 1.0 0.5 0.5 0.5 0.5 0.5 0.5 0.0 1.0 1.0 0.0 0.3333333333333333 0.6666666666666666 1.0 0.0 0.2 0.8 0.5 0.5 1.0 0.0 0.5 0.5 1.0 0.0 0.5 0.5 0.5 0.5 0.5 0.5 0.5 0.5 0.5 0.5 0.0 1.0 0.5 0.5 0.0 1.0 0.5 0.5 0.0 1.0 0.5 0.5 0.5 0.5 0.0 1.0 0.0 1.0 0.5 0.5 0.0 1.0 0.6 0.4 0.42857142857142855 0.5714285714285714 0.8 0.2 0.6666666666666666 0.3333333333333333 0.5 0.5 0.5 0.5 1.0 0.0 0.0 1.0 0.0 1.0 0.0 1.0 0.5 0.5 0.5 0.5 0.0 1.0 0.0 1.0 0.3333333333333333 0.6666666666666666 0.08333333333333333 0.9166666666666666 0.5 0.5 0.0 1.0 0.5 0.5 0.0 1.0 0.5 0.5 0.3333333333333333 0.6666666666666666 0.5 0.5 0.0 1.0 0.0 1.0 0.5 0.5 1.0 0.0 1.0 0.0 0.5 0.5 1.0 0.0 0.5 0.5 0.5 0.5 0.5 0.5 0.0 1.0 0.5 0.5 0.5 0.5 0.5 0.5 0.0 1.0 0.0 1.0 0.0 1.0 0.5 0.5 0.0 1.0 0.5 0.5 0.5 0.5 0.5 0.5 0.0 1.0 0.5 0.5 0.5 0.5 0.5 0.5 0.5 0.5 0.5 0.5 0.5 0.5 0.5 0.5 0.5 0.5 0.5 0.5 0.5 0.5 0.5 0.5 0.0 1.0 0.5 0.5 0.0 1.0 0.5 0.5 0.5 0.5 0.5 0.5 0.0 1.0 0.5 0.5 0.0 1.0 0.5 0.5 0.5 0.5 0.5 0.5 0.0 1.0 0.5 0.5 0.5 0.5 0.5 0.5 0.5 0.5 1.0 0.0 0.5 0.5 0.5 0.5 0.5 0.5 1.0 0.0 0.5 0.5 0.5 0.5 0.5 0.5 0.5 0.5 0.5 0.5 1.0 0.0 0.0 1.0 0.5 0.5 0.0 1.0 0.5 0.5 0.5 0.5 0.5 0.5 0.5 0.5 0.5 0.5 1.0 0.0 0.5 0.5 0.0 1.0 0.5 0.5 0.0 1.0 0.5 0.5 0.5 0.5 1.0 0.0 0.5 0.5 0.5 0.5 0.5 0.5 0.5 0.5 0.5 0.5 0.5 0.5 0.5 0.5 0.5 0.5 0.5 0.5 0.5 0.5 0.5 0.5 0.5 0.5 0.0 1.0 0.5 0.5 0.5 0.5 0.5 0.5 0.5 0.5 0.5 0.5 0.5 0.5 </TABLE>
    </DEFINITION>
    <DEFINITION>
      <FOR>MaxHR</FOR>
      <GIVEN>Age</GIVEN>
      <GIVEN>Sex</GIVEN>
      <TABLE>0.3333333333333333 0.0 0.13333333333333333 0.5333333333333333 0.21153846153846154 0.11538461538461539 0.1346153846153846 0.5384615384615384 0.2391304347826087 0.15217391304347827 0.17391304347826086 0.43478260869565216 0.2457627118644068 0.17796610169491525 0.2457627118644068 0.3305084745762712 0.43636363636363634 0.18181818181818182 0.2 0.18181818181818182 0.2784090909090909 0.2784090909090909 0.26136363636363635 0.18181818181818182 0.4583333333333333 0.20833333333333334 0.125 0.20833333333333334 0.20430107526881722 0.3978494623655914 0.3763440860215054 0.021505376344086023 0.0 0.5 0.25 0.25 0.0 0.8571428571428571 0.07142857142857142 0.07142857142857142 </TABLE>
    </DEFINITION>
    <DEFINITION>
      <FOR>Oldpeak</FOR>
      <GIVEN>ExerciseAngina</GIVEN>
      <GIVEN>HeartDisease</GIVEN>
      <TABLE>0.0989010989010989 0.0989010989010989 0.01098901098901099 0.7912087912087912 0.10638297872340426 0.1702127659574468 0.1595744680851064 0.5638297872340425 0.24390243902439024 0.2926829268292683 0.04878048780487805 0.4146341463414634 0.1746031746031746 0.4497354497354497 0.24338624338624337 0.13227513227513227 </TABLE>
    </DEFINITION>
    <DEFINITION>
      <FOR>RestingBP</FOR>
      <GIVEN>Age</GIVEN>
      <GIVEN>Cholesterol</GIVEN>
      <TABLE>0.38095238095238093 0.14285714285714285 0.47619047619047616 0.32 0.08 0.6 0.47619047619047616 0.09523809523809523 0.42857142857142855 0.5 0.07692307692307693 0.4230769230769231 0.4177215189873418 0.22784810126582278 0.35443037974683544 0.30303030303030304 0.18181818181818182 0.5151515151515151 0.5822784810126582 0.17721518987341772 0.24050632911392406 0.5566037735849056 0.22641509433962265 0.2169811320754717 0.5434782608695652 0.15217391304347827 0.30434782608695654 0.3793103448275862 0.41379310344827586 0.20689655172413793 0.39705882352941174 0.38235294117647056 0.22058823529411764 0.4 0.55 0.05 0.375 0.5 0.125 0.14285714285714285 0.5714285714285714 0.2857142857142857 0.6666666666666666 0.0 0.3333333333333333 </TABLE>
    </DEFINITION>
    <DEFINITION>
      <FOR>RestingECG</FOR>
      <GIVEN>Age</GIVEN>
      <TABLE>0.08955223880597014 0.7910447761194029 0.11940298507462686 0.16463414634146342 0.7195121951219512 0.11585365853658537 0.2554112554112554 0.5714285714285714 0.17316017316017315 0.3162393162393162 0.4358974358974359 0.24786324786324787 0.2222222222222222 0.5 0.2777777777777778 </TABLE>
    </DEFINITION>
    <DEFINITION>
      <FOR>ST_Slope</FOR>
      <GIVEN>ExerciseAngina</GIVEN>
      <GIVEN>HeartDisease</GIVEN>
      <GIVEN>Oldpeak</GIVEN>
      <TABLE>0.037037037037037035 0.4074074074074074 0.5555555555555556 0.037037037037037035 0.48148148148148145 0.48148148148148145 1.0 0.0 0.0 0.009259259259259259 0.08333333333333333 0.9074074074074074 0.1 0.5 0.4 0.0625 0.875 0.0625 0.13333333333333333 0.7333333333333333 0.13333333333333333 0.0 0.7547169811320755 0.24528301886792453 0.0 0.8 0.2 0.16666666666666666 0.5833333333333334 0.25 0.0 1.0 0.0 0.0 0.23529411764705882 0.7647058823529411 0.0 0.8787878787878788 0.12121212121212122 0.08235294117647059 0.8352941176470589 0.08235294117647059 0.2608695652173913 0.6956521739130435 0.043478260869565216 0.0 0.84 0.16 </TABLE>
    </DEFINITION>
    <DEFINITION>
      <FOR>Sex</FOR>
      <TABLE>0.24120603015075376 0.7587939698492462 </TABLE>
    </DEFINITION>
  </NETWORK>
</BIF>
