<?xml version='1.0' encoding='utf-8'?>
<BIF VERSION="0.3">
  <NETWORK>
    <NAME>UNTITLED</NAME>
    <VARIABLE TYPE="nature">
      <NAME>Age</NAME>
      <OUTCOME>20_40</OUTCOME>
      <OUTCOME>40_50</OUTCOME>
      <OUTCOME>50_60</OUTCOME>
      <OUTCOME>60_</OUTCOME>
      <PROPERTY />
    </VARIABLE>
    <VARIABLE TYPE="nature">
      <NAME>ChestPainType</NAME>
      <OUTCOME>ASY</OUTCOME>
      <OUTCOME>ATA</OUTCOME>
      <OUTCOME>NAP</OUTCOME>
      <OUTCOME>TA</OUTCOME>
      <PROPERTY />
    </VARIABLE>
    <VARIABLE TYPE="nature">
      <NAME>Cholesterol</NAME>
      <OUTCOME>200_240</OUTCOME>
      <OUTCOME>240_</OUTCOME>
      <OUTCOME>_200</OUTCOME>
      <PROPERTY />
    </VARIABLE>
    <VARIABLE TYPE="nature">
      <NAME>ExerciseAngina</NAME>
      <OUTCOME>N</OUTCOME>
      <OUTCOME>Y</OUTCOME>
      <PROPERTY />
    </VARIABLE>
    <VARIABLE TYPE="nature">
      <NAME>FastingBS</NAME>
      <OUTCOME>N</OUTCOME>
      <OUTCOME>Y</OUTCOME>
      <PROPERTY />
    </VARIABLE>
    <VARIABLE TYPE="nature">
      <NAME>HeartDisease</NAME>
      <OUTCOME>0</OUTCOME>
      <OUTCOME>1</OUTCOME>
      <PROPERTY />
    </VARIABLE>
    <VARIABLE TYPE="nature">
      <NAME>MaxHR</NAME>
      <OUTCOME>high</OUTCOME>
      <OUTCOME>low</OUTCOME>
      <OUTCOME>medium</OUTCOME>
      <OUTCOME>very_high</OUTCOME>
      <PROPERTY />
    </VARIABLE>
    <VARIABLE TYPE="nature">
      <NAME>Oldpeak</NAME>
      <OUTCOME>0_5_1</OUTCOME>
      <OUTCOME>1_2</OUTCOME>
      <OUTCOME>2_</OUTCOME>
      <OUTCOME>_0_5</OUTCOME>
      <PROPERTY />
    </VARIABLE>
    <VARIABLE TYPE="nature">
      <NAME>RestingBP</NAME>
      <OUTCOME>120_140</OUTCOME>
      <OUTCOME>140_</OUTCOME>
      <OUTCOME>90_120</OUTCOME>
      <PROPERTY />
    </VARIABLE>
    <VARIABLE TYPE="nature">
      <NAME>RestingECG</NAME>
      <OUTCOME>LVH</OUTCOME>
      <OUTCOME>Normal</OUTCOME>
      <OUTCOME>ST</OUTCOME>
      <PROPERTY />
    </VARIABLE>
    <VARIABLE TYPE="nature">
      <NAME>ST_Slope</NAME>
      <OUTCOME>Down</OUTCOME>
      <OUTCOME>Flat</OUTCOME>
      <OUTCOME>Up</OUTCOME>
      <PROPERTY />
    </VARIABLE>
    <VARIABLE TYPE="nature">
      <NAME>Sex</NAME>
      <OUTCOME>F</OUTCOME>
      <OUTCOME>M</OUTCOME>
      <PROPERTY />
    </VARIABLE>
    <DEFINITION>
      <FOR>Age</FOR>
      <TABLE>0.10211267605633803 0.2711267605633803 0.4041471048513302 0.22261345852895148 </TABLE>
    </DEFINITION>
    <DEFINITION>
      <FOR>ChestPainType</FOR>
      <GIVEN>HeartDisease</GIVEN>
      <TABLE>0.2537481259370315 0.358695652173913 0.3137181409295352 0.07383808095952024 0.7647299509001637 0.06096563011456629 0.12970540098199673 0.04459901800327332 </TABLE>
    </DEFINITION>
    <DEFINITION>
      <FOR>Cholesterol</FOR>
      <GIVEN>Age</GIVEN>
      <GIVEN>Sex</GIVEN>
      <TABLE>0.41254125412541254 0.25412541254125415 0.3333333333333333 0.2509897070467142 0.4980205859065716 0.2509897070467142 0.3950299914310197 0.4361610968294773 0.16880891173950302 0.33868271481109996 0.4590437980608492 0.20227348712805082 0.24678837052062202 0.6362407031778228 0.11697092630155509 0.3926679381224836 0.397753761390125 0.2095783004873914 0.19158361018826134 0.6434108527131782 0.16500553709856033 0.29828753484667464 0.5276782158502589 0.1740342493030665 </TABLE>
    </DEFINITION>
    <DEFINITION>
      <FOR>ExerciseAngina</FOR>
      <GIVEN>MaxHR</GIVEN>
      <GIVEN>Sex</GIVEN>
      <TABLE>0.7606741573033707 0.2393258426966292 0.6657579062159215 0.33424209378407854 0.6632653061224489 0.336734693877551 0.3016838166510758 0.6983161833489242 0.6628959276018099 0.33710407239819007 0.4962581852198316 0.5037418147801683 0.9075067024128687 0.09249329758713137 0.9036222509702458 0.0963777490297542 </TABLE>
    </DEFINITION>
    <DEFINITION>
      <FOR>FastingBS</FOR>
      <GIVEN>Age</GIVEN>
      <GIVEN>RestingBP</GIVEN>
      <TABLE>0.9911032028469752 0.008896797153024912 0.8564356435643564 0.14356435643564355 0.9638403990024937 0.03615960099750623 0.8976331360946745 0.10236686390532543 0.993368700265252 0.006631299734748012 0.9270711785297551 0.07292882147024504 0.7528597230583985 0.24714027694160148 0.7563417890520694 0.24365821094793055 0.8918722786647315 0.10812772133526849 0.7699564586357039 0.23004354136429608 0.6480406386066764 0.3519593613933236 0.9559270516717325 0.044072948328267476 </TABLE>
    </DEFINITION>
    <DEFINITION>
      <FOR>HeartDisease</FOR>
      <GIVEN>Age</GIVEN>
      <GIVEN>Cholesterol</GIVEN>
      <GIVEN>ExerciseAngina</GIVEN>
      <GIVEN>FastingBS</GIVEN>
      <GIVEN>RestingECG</GIVEN>
      <GIVEN>Sex</GIVEN>
      <TABLE>0.5 0.5 0.9914675767918089 0.008532423208191127 0.9978392394122731 0.00216076058772688 0.7772429726607625 0.22275702733923758 0.9914675767918089 0.008532423208191127 0.9914675767918089 0.008532423208191127 0.5 0.5 0.5 0.5 0.5 0.5 0.5 0.5 0.5 0.5 0.5 0.5 0.5 0.5 0.5 0.5 0.5 0.5 0.5 0.5 0.5 0.5 0.5 0.5 0.5 0.5 0.5 0.5 0.5 0.5 0.5 0.5 0.5 0.5 0.5 0.5 0.5 0.5 0.9956970740103271 0.004302925989672979 0.5 0.5 0.7497831743278405 0.2502168256721596 0.5 0.5 0.9914675767918089 0.008532423208191127 0.5 0.5 0.5 0.5 0.5 0.5 0.5 0.5 0.5 0.5 0.5 0.5 0.5 0.5 0.5 0.5 0.008532423208191127 0.9914675767918089 0.004302925989672979 0.9956970740103271 0.5 0.5 0.5 0.5 0.5 0.5 0.5 0.5 0.5 0.5 0.008532423208191127 0.9914675767918089 0.5 0.5 0.5 0.5 0.5 0.5 0.9914675767918089 0.008532423208191127 0.9914675767918089 0.008532423208191127 0.5 0.5 0.9971231300345225 0.002876869965477561 0.9914675767918089 0.008532423208191127 0.5 0.5 0.5 0.5 0.5 0.5 0.9914675767918089 0.008532423208191127 0.5 0.5 0.5 0.5 0.5 0.5 0.008532423208191127 0.9914675767918089 0.5 0.5 0.40034602076124565 0.5996539792387543 0.5 0.5 0.5 0.5 0.5 0.5 0.5 0.5 0.5 0.5 0.5 0.5 0.5 0.5 0.5 0.5 0.9956970740103271 0.004302925989672979 0.9971231300345225 0.002876869965477561 0.9992121021115664 0.0007878978884336591 0.7497831743278405 0.2502168256721596 0.9971231300345225 0.002876869965477561 0.9956970740103271 0.004302925989672979 0.5 0.5 0.5 0.5 0.5 0.5 0.9914675767918089 0.008532423208191127 0.5 0.5 0.008532423208191127 0.9914675767918089 0.5 0.5 0.9914675767918089 0.008532423208191127 0.3342922899884926 0.6657077100115075 0.30034662045060656 0.6996533795493934 0.5 0.5 0.3342922899884926 0.6657077100115075 0.5 0.5 0.5 0.5 0.5 0.5 0.008532423208191127 0.9914675767918089 0.5 0.5 0.5 0.5 0.9956970740103271 0.004302925989672979 0.7137555665512123 0.2862444334487877 0.9992121021115664 0.0007878978884336591 0.7081827381812924 0.2918172618187075 0.9971231300345225 0.002876869965477561 0.7489196197061366 0.2510803802938635 0.5 0.5 0.5 0.5 0.008532423208191127 0.9914675767918089 0.3342922899884926 0.6657077100115075 0.5 0.5 0.5 0.5 0.9956970740103271 0.004302925989672979 0.002876869965477561 0.9971231300345225 0.5 0.5 0.08393527882114996 0.9160647211788501 0.5 0.5 0.008532423208191127 0.9914675767918089 0.5 0.5 0.004302925989672979 0.9956970740103271 0.5 0.5 0.9914675767918089 0.008532423208191127 0.5 0.5 0.5 0.5 0.5 0.5 0.004302925989672979 0.9956970740103271 0.9985574148874784 0.0014425851125216388 0.9225126700453454 0.07748732995465459 0.5 0.5 0.008532423208191127 0.9914675767918089 0.5 0.5 0.5 0.5 0.5 0.5 0.9914675767918089 0.008532423208191127 0.9914675767918089 0.008532423208191127 0.5 0.5 0.9914675767918089 0.008532423208191127 0.004302925989672979 0.9956970740103271 0.5 0.5 0.16762839007501443 0.8323716099249856 0.5 0.5 0.5 0.5 0.5 0.5 0.5 0.5 0.5 0.5 0.5 0.5 0.5 0.5 0.5 0.5 0.6657077100115075 0.3342922899884926 0.5 0.5 0.9985574148874784 0.0014425851125216388 0.6189492813480919 0.38105071865190815 0.9914675767918089 0.008532423208191127 0.6657077100115075 0.3342922899884926 0.5 0.5 0.9914675767918089 0.008532423208191127 0.9914675767918089 0.008532423208191127 0.5996539792387543 0.40034602076124565 0.5 0.5 0.5 0.5 0.5 0.5 0.37527067994802943 0.6247293200519706 0.9956970740103271 0.004302925989672979 0.42865989596234827 0.5713401040376517 0.008532423208191127 0.9914675767918089 0.12581203984408837 0.8741879601559117 0.008532423208191127 0.9914675767918089 0.008532423208191127 0.9914675767918089 0.5 0.5 0.00216076058772688 0.9978392394122731 0.5 0.5 0.004302925989672979 0.9956970740103271 0.7994800693240901 0.20051993067590987 0.30034662045060656 0.6996533795493934 0.8993067590987869 0.10069324090121318 0.7140203121129551 0.2859796878870448 0.9914675767918089 0.008532423208191127 0.6657077100115075 0.3342922899884926 0.6657077100115075 0.3342922899884926 0.9971231300345225 0.002876869965477561 0.9914675767918089 0.008532423208191127 0.9978392394122731 0.00216076058772688 0.008532423208191127 0.9914675767918089 0.004302925989672979 0.9956970740103271 0.008532423208191127 0.9914675767918089 0.0010827197921178 0.9989172802078822 0.16762839007501443 0.8323716099249856 0.11803713527851457 0.8819628647214854 0.3342922899884926 0.6657077100115075 0.16762839007501443 0.8323716099249856 0.5 0.5 0.00216076058772688 0.9978392394122731 0.5 0.5 0.004302925989672979 0.9956970740103271 0.008532423208191127 0.9914675767918089 0.001730103806228374 0.9982698961937717 0.9914675767918089 0.008532423208191127 0.5 0.5 0.9978392394122731 0.00216076058772688 0.7892094212159941 0.21079057878400584 0.5 0.5 0.9971231300345225 0.002876869965477561 0.5 0.5 0.5 0.5 0.9914675767918089 0.008532423208191127 0.9914675767918089 0.008532423208191127 0.5 0.5 0.9914675767918089 0.008532423208191127 0.5 0.5 0.004302925989672979 0.9956970740103271 0.9914675767918089 0.008532423208191127 0.14374072241464622 0.8562592775853538 0.5 0.5 0.008532423208191127 0.9914675767918089 0.5 0.5 0.004302925989672979 0.9956970740103271 0.5 0.5 0.5 0.5 0.5 0.5 0.008532423208191127 0.9914675767918089 0.5 0.5 0.5996539792387543 0.40034602076124565 0.9978392394122731 0.00216076058772688 0.20103806228373705 0.798961937716263 0.5 0.5 0.9956970740103271 0.004302925989672979 0.5 0.5 0.9956970740103271 0.004302925989672979 0.5 0.5 0.008532423208191127 0.9914675767918089 0.5 0.5 0.008532423208191127 0.9914675767918089 0.5 0.5 0.004302925989672979 0.9956970740103271 0.5 0.5 0.001730103806228374 0.9982698961937717 0.5 0.5 0.002876869965477561 0.9971231300345225 0.5 0.5 0.008532423208191127 0.9914675767918089 0.008532423208191127 0.9914675767918089 0.004302925989672979 0.9956970740103271 0.5 0.5 0.004302925989672979 0.9956970740103271 0.6247293200519706 0.37527067994802943 0.33365421640354254 0.6663457835964575 0.8323716099249856 0.16762839007501443 0.6661858049624928 0.3338141950375072 0.5 0.5 0.5 0.5 0.9956970740103271 0.004302925989672979 0.004302925989672979 0.9956970740103271 0.008532423208191127 0.9914675767918089 0.008532423208191127 0.9914675767918089 0.5 0.5 0.5 0.5 0.9914675767918089 0.008532423208191127 0.001730103806228374 0.9982698961937717 0.2510803802938635 0.7489196197061366 0.08393527882114996 0.9160647211788501 0.9914675767918089 0.008532423208191127 0.12581203984408837 0.8741879601559117 0.5 0.5 0.002876869965477561 0.9971231300345225 0.9914675767918089 0.008532423208191127 0.5996539792387543 0.40034602076124565 0.5 0.5 0.00216076058772688 0.9978392394122731 0.008532423208191127 0.9914675767918089 0.008532423208191127 0.9914675767918089 0.9971231300345225 0.002876869965477561 0.9914675767918089 0.008532423208191127 0.9914675767918089 0.008532423208191127 0.9956970740103271 0.004302925989672979 0.5 0.5 0.008532423208191127 0.9914675767918089 0.5 0.5 0.008532423208191127 0.9914675767918089 0.5 0.5 0.5 0.5 0.5 0.5 0.004302925989672979 0.9956970740103271 0.008532423208191127 0.9914675767918089 0.002876869965477561 0.9971231300345225 0.5 0.5 0.00216076058772688 0.9978392394122731 0.5 0.5 0.5 0.5 0.5 0.5 0.008532423208191127 0.9914675767918089 0.5 0.5 0.5 0.5 </TABLE>
    </DEFINITION>
    <DEFINITION>
      <FOR>MaxHR</FOR>
      <GIVEN>Age</GIVEN>
      <GIVEN>Sex</GIVEN>
      <TABLE>0.25 0.012376237623762377 0.1707920792079208 0.5668316831683168 0.2690023752969121 0.1169833729216152 0.17399049881235154 0.44002375296912116 0.2911311053984576 0.16773778920308482 0.14717223650385605 0.3939588688946015 0.2660481444332999 0.17778335005015045 0.25802407221664997 0.2981444332998997 0.40821501014198786 0.1810344827586207 0.21348884381338742 0.19726166328600406 0.2398283534647171 0.30594405594405594 0.2906865861411316 0.16354100445009537 0.3496677740863787 0.29651162790697677 0.13704318936877077 0.21677740863787376 0.19265232974910393 0.4316009557945042 0.33602150537634407 0.03972520908004779 </TABLE>
    </DEFINITION>
    <DEFINITION>
      <FOR>Oldpeak</FOR>
      <GIVEN>ExerciseAngina</GIVEN>
      <GIVEN>HeartDisease</GIVEN>
      <TABLE>0.10204525674499565 0.10552654482158398 0.021975630983463883 0.7704525674499565 0.11588235294117646 0.21941176470588236 0.16294117647058823 0.5017647058823529 0.2662162162162162 0.2445945945945946 0.05 0.4391891891891892 0.18224592220828106 0.44824341279799246 0.2374529485570891 0.13205771643663738 </TABLE>
    </DEFINITION>
    <DEFINITION>
      <FOR>RestingBP</FOR>
      <GIVEN>Age</GIVEN>
      <GIVEN>Cholesterol</GIVEN>
      <TABLE>0.38763197586727 0.17043740573152336 0.4419306184012066 0.34466477809254015 0.14069877242681775 0.5146364494806421 0.3524720893141946 0.06539074960127592 0.5821371610845295 0.4744459520578923 0.09995477159656264 0.42559927634554495 0.40984767977329084 0.23131420474672337 0.3588381154799859 0.2734829592684954 0.2136325852036575 0.512884455527847 0.5317102494740006 0.19627291854523599 0.2720168319807635 0.5292169387272297 0.2907499408563993 0.18003312041637096 0.5605278255880665 0.20940906483075156 0.23006310958118187 0.3159797541576283 0.49819233550253067 0.18582791033984092 0.44246239944036375 0.34172787688002804 0.2158097236796083 0.4152445961319681 0.45620022753128553 0.1285551763367463 </TABLE>
    </DEFINITION>
    <DEFINITION>
      <FOR>RestingECG</FOR>
      <GIVEN>Age</GIVEN>
      <TABLE>0.08301404853128992 0.8033205619412516 0.1136653895274585 0.15824915824915825 0.7296777296777297 0.11207311207311207 0.27266860277508875 0.5437237818651177 0.18360761535979347 0.3333333333333333 0.45284124194493264 0.21382542472173405 </TABLE>
    </DEFINITION>
    <DEFINITION>
      <FOR>ST_Slope</FOR>
      <GIVEN>ExerciseAngina</GIVEN>
      <GIVEN>HeartDisease</GIVEN>
      <GIVEN>Oldpeak</GIVEN>
      <TABLE>0.07178393745557925 0.34470504619758346 0.5835110163468373 0.036426116838487975 0.5312714776632302 0.43230240549828175 0.6501650165016502 0.1749174917491749 0.1749174917491749 0.004989174432834417 0.07276663842605667 0.9222441871411089 0.08967851099830797 0.6582064297800339 0.2521150592216582 0.04736371760500446 0.905272564789991 0.04736371760500446 0.2370637785800241 0.6991576413959085 0.06377858002406739 0.00195388823759281 0.6772176631496678 0.32082844861273935 0.008460236886632827 0.8206429780033841 0.1708967851099831 0.1860036832412523 0.5395948434622468 0.2744014732965009 0.04504504504504506 0.90990990990991 0.04504504504504506 0.005128205128205128 0.15282051282051282 0.8420512820512821 0.0028686173264486524 0.8841078600114746 0.11302352266207691 0.05714952181012362 0.874504315372055 0.06834616281782131 0.3403786878027301 0.615147512109203 0.04447380008806693 0.00395882818685669 0.8400633412509897 0.15597783056215359 </TABLE>
    </DEFINITION>
    <DEFINITION>
      <FOR>Sex</FOR>
      <TABLE>0.2511737089201878 0.7488262910798122 </TABLE>
    </DEFINITION>
  </NETWORK>
</BIF>
