<?xml version='1.0' encoding='utf-8'?>
<BIF VERSION="0.3">
  <NETWORK>
    <NAME>UNTITLED</NAME>
    <VARIABLE TYPE="nature">
      <NAME>Age</NAME>
      <OUTCOME>20_40</OUTCOME>
      <OUTCOME>40_50</OUTCOME>
      <OUTCOME>50_60</OUTCOME>
      <OUTCOME>60_70</OUTCOME>
      <OUTCOME>70_</OUTCOME>
      <PROPERTY />
    </VARIABLE>
    <VARIABLE TYPE="nature">
      <NAME>ChestPainType</NAME>
      <OUTCOME>ASY</OUTCOME>
      <OUTCOME>ATA</OUTCOME>
      <OUTCOME>NAP</OUTCOME>
      <OUTCOME>TA</OUTCOME>
      <PROPERTY />
    </VARIABLE>
    <VARIABLE TYPE="nature">
      <NAME>Cholesterol</NAME>
      <OUTCOME>200_240</OUTCOME>
      <OUTCOME>240_</OUTCOME>
      <OUTCOME>_200</OUTCOME>
      <PROPERTY />
    </VARIABLE>
    <VARIABLE TYPE="nature">
      <NAME>ExerciseAngina</NAME>
      <OUTCOME>N</OUTCOME>
      <OUTCOME>Y</OUTCOME>
      <PROPERTY />
    </VARIABLE>
    <VARIABLE TYPE="nature">
      <NAME>FastingBS</NAME>
      <OUTCOME>N</OUTCOME>
      <OUTCOME>Y</OUTCOME>
      <PROPERTY />
    </VARIABLE>
    <VARIABLE TYPE="nature">
      <NAME>HeartDisease</NAME>
      <OUTCOME>0</OUTCOME>
      <OUTCOME>1</OUTCOME>
      <PROPERTY />
    </VARIABLE>
    <VARIABLE TYPE="nature">
      <NAME>MaxHR</NAME>
      <OUTCOME>high</OUTCOME>
      <OUTCOME>low</OUTCOME>
      <OUTCOME>medium</OUTCOME>
      <OUTCOME>very_high</OUTCOME>
      <PROPERTY />
    </VARIABLE>
    <VARIABLE TYPE="nature">
      <NAME>Oldpeak</NAME>
      <OUTCOME>0_5_1</OUTCOME>
      <OUTCOME>1_2</OUTCOME>
      <OUTCOME>2_</OUTCOME>
      <OUTCOME>_0_5</OUTCOME>
      <PROPERTY />
    </VARIABLE>
    <VARIABLE TYPE="nature">
      <NAME>RestingBP</NAME>
      <OUTCOME>120_140</OUTCOME>
      <OUTCOME>140_</OUTCOME>
      <OUTCOME>90_120</OUTCOME>
      <PROPERTY />
    </VARIABLE>
    <VARIABLE TYPE="nature">
      <NAME>RestingECG</NAME>
      <OUTCOME>LVH</OUTCOME>
      <OUTCOME>Normal</OUTCOME>
      <OUTCOME>ST</OUTCOME>
      <PROPERTY />
    </VARIABLE>
    <VARIABLE TYPE="nature">
      <NAME>ST_Slope</NAME>
      <OUTCOME>Down</OUTCOME>
      <OUTCOME>Flat</OUTCOME>
      <OUTCOME>Up</OUTCOME>
      <PROPERTY />
    </VARIABLE>
    <VARIABLE TYPE="nature">
      <NAME>Sex</NAME>
      <OUTCOME>F</OUTCOME>
      <OUTCOME>M</OUTCOME>
      <PROPERTY />
    </VARIABLE>
    <DEFINITION>
      <FOR>Age</FOR>
<<<<<<< HEAD
      <TABLE>0.11332312404287902 0.26339969372128635 0.40428790199081166 0.19142419601837674 0.027565084226646247 </TABLE>
=======
      <TABLE>0.11222780569514237 0.2747068676716918 0.3869346733668342 0.19597989949748743 0.03015075376884422 </TABLE>
>>>>>>> 35fa76d (Update requirements.txt file)
    </DEFINITION>
    <DEFINITION>
      <FOR>ChestPainType</FOR>
      <GIVEN>HeartDisease</GIVEN>
<<<<<<< HEAD
      <TABLE>0.23976608187134502 0.38011695906432746 0.3128654970760234 0.06725146198830409 0.7620578778135049 0.05787781350482315 0.13183279742765272 0.04823151125401929 </TABLE>
=======
      <TABLE>0.24203821656050956 0.37579617834394907 0.31528662420382164 0.06687898089171974 0.7597173144876325 0.05653710247349823 0.13427561837455831 0.04946996466431095 </TABLE>
>>>>>>> 35fa76d (Update requirements.txt file)
    </DEFINITION>
    <DEFINITION>
      <FOR>Cholesterol</FOR>
      <GIVEN>Age</GIVEN>
      <GIVEN>Sex</GIVEN>
<<<<<<< HEAD
      <TABLE>0.3125 0.1875 0.5 0.27586206896551724 0.46551724137931033 0.25862068965517243 0.3673469387755102 0.46938775510204084 0.16326530612244897 0.2926829268292683 0.4796747967479675 0.22764227642276422 0.22580645161290322 0.6451612903225806 0.12903225806451613 0.3811881188118812 0.39603960396039606 0.22277227722772278 0.14814814814814814 0.7037037037037037 0.14814814814814814 0.2653061224489796 0.5510204081632653 0.1836734693877551 0.0 0.75 0.25 0.5714285714285714 0.2857142857142857 0.14285714285714285 </TABLE>
=======
      <TABLE>0.3333333333333333 0.2 0.4666666666666667 0.3076923076923077 0.4230769230769231 0.2692307692307692 0.391304347826087 0.45652173913043476 0.15217391304347827 0.288135593220339 0.4915254237288136 0.22033898305084745 0.21818181818181817 0.6363636363636364 0.14545454545454545 0.3806818181818182 0.4034090909090909 0.2159090909090909 0.16666666666666666 0.6666666666666666 0.16666666666666666 0.26881720430107525 0.5591397849462365 0.17204301075268819 0.0 0.75 0.25 0.5714285714285714 0.2857142857142857 0.14285714285714285 </TABLE>
>>>>>>> 35fa76d (Update requirements.txt file)
    </DEFINITION>
    <DEFINITION>
      <FOR>ExerciseAngina</FOR>
      <GIVEN>MaxHR</GIVEN>
      <GIVEN>Sex</GIVEN>
<<<<<<< HEAD
      <TABLE>0.7547169811320755 0.24528301886792453 0.628099173553719 0.371900826446281 0.6538461538461539 0.34615384615384615 0.3037037037037037 0.6962962962962963 0.6428571428571429 0.35714285714285715 0.49230769230769234 0.5076923076923077 0.9215686274509803 0.0784313725490196 0.908256880733945 0.09174311926605505 </TABLE>
=======
      <TABLE>0.7450980392156863 0.2549019607843137 0.6296296296296297 0.37037037037037035 0.7083333333333334 0.2916666666666667 0.288 0.712 0.68 0.32 0.4830508474576271 0.5169491525423728 0.9545454545454546 0.045454545454545456 0.9019607843137255 0.09803921568627451 </TABLE>
>>>>>>> 35fa76d (Update requirements.txt file)
    </DEFINITION>
    <DEFINITION>
      <FOR>FastingBS</FOR>
      <GIVEN>Age</GIVEN>
      <GIVEN>RestingBP</GIVEN>
<<<<<<< HEAD
      <TABLE>1.0 0.0 0.8571428571428571 0.14285714285714285 0.9736842105263158 0.02631578947368421 0.875 0.125 1.0 0.0 0.9444444444444444 0.05555555555555555 0.8169014084507042 0.18309859154929578 0.7288135593220338 0.2711864406779661 0.873015873015873 0.12698412698412698 0.7450980392156863 0.2549019607843137 0.6122448979591837 0.3877551020408163 0.96 0.04 0.8333333333333334 0.16666666666666666 0.5 0.5 0.75 0.25 </TABLE>
=======
      <TABLE>1.0 0.0 0.8571428571428571 0.14285714285714285 0.9705882352941176 0.029411764705882353 0.8695652173913043 0.13043478260869565 1.0 0.0 0.9402985074626866 0.05970149253731343 0.8307692307692308 0.16923076923076924 0.7333333333333333 0.26666666666666666 0.8928571428571429 0.10714285714285714 0.7391304347826086 0.2608695652173913 0.6122448979591837 0.3877551020408163 0.9545454545454546 0.045454545454545456 0.8333333333333334 0.16666666666666666 0.5 0.5 0.75 0.25 </TABLE>
>>>>>>> 35fa76d (Update requirements.txt file)
    </DEFINITION>
    <DEFINITION>
      <FOR>HeartDisease</FOR>
      <GIVEN>Age</GIVEN>
      <GIVEN>Cholesterol</GIVEN>
      <GIVEN>ExerciseAngina</GIVEN>
      <GIVEN>FastingBS</GIVEN>
      <GIVEN>RestingECG</GIVEN>
      <GIVEN>Sex</GIVEN>
<<<<<<< HEAD
      <TABLE>0.5 0.5 1.0 0.0 1.0 0.0 0.8 0.2 1.0 0.0 1.0 0.0 0.5 0.5 0.5 0.5 0.5 0.5 0.5 0.5 0.5 0.5 0.5 0.5 0.5 0.5 0.5 0.5 0.5 0.5 0.3333333333333333 0.6666666666666666 0.5 0.5 0.5 0.5 0.5 0.5 0.5 0.5 0.5 0.5 0.5 0.5 0.5 0.5 0.5 0.5 0.5 0.5 1.0 0.0 1.0 0.0 0.7894736842105263 0.21052631578947367 0.5 0.5 1.0 0.0 0.5 0.5 0.5 0.5 0.5 0.5 0.5 0.5 0.5 0.5 0.5 0.5 0.5 0.5 0.0 1.0 0.0 1.0 0.0 1.0 0.5 0.5 0.5 0.5 0.5 0.5 0.5 0.5 0.5 0.5 0.0 1.0 0.5 0.5 0.5 0.5 0.5 0.5 1.0 0.0 1.0 0.0 0.7142857142857143 0.2857142857142857 1.0 0.0 0.5 0.5 0.5 0.5 0.5 0.5 0.5 0.5 1.0 0.0 0.5 0.5 0.5 0.5 0.5 0.5 0.0 1.0 0.5 0.5 0.5 0.5 0.5 0.5 0.5 0.5 0.5 0.5 0.5 0.5 0.5 0.5 0.5 0.5 0.5 0.5 0.5 0.5 1.0 0.0 1.0 0.0 1.0 0.0 0.6666666666666666 0.3333333333333333 1.0 0.0 1.0 0.0 0.5 0.5 0.5 0.5 0.5 0.5 1.0 0.0 0.5 0.5 0.0 1.0 1.0 0.0 1.0 0.0 0.3333333333333333 0.6666666666666666 0.25 0.75 0.5 0.5 0.5 0.5 0.5 0.5 0.5 0.5 0.5 0.5 0.5 0.5 0.5 0.5 0.5 0.5 1.0 0.0 0.5 0.5 1.0 0.0 0.72 0.28 1.0 0.0 0.75 0.25 0.5 0.5 0.5 0.5 0.0 1.0 0.3333333333333333 0.6666666666666666 0.5 0.5 0.5 0.5 1.0 0.0 0.0 1.0 0.5 0.5 0.08333333333333333 0.9166666666666666 0.5 0.5 0.0 1.0 0.0 1.0 0.0 1.0 0.5 0.5 1.0 0.0 0.5 0.5 0.0 1.0 0.5 0.5 0.0 1.0 1.0 0.0 0.8666666666666667 0.13333333333333333 0.5 0.5 0.0 1.0 0.5 0.5 0.5 0.5 0.5 0.5 1.0 0.0 1.0 0.0 0.5 0.5 1.0 0.0 0.0 1.0 0.5 0.5 0.16666666666666666 0.8333333333333334 0.5 0.5 0.5 0.5 0.5 0.5 0.5 0.5 0.5 0.5 0.5 0.5 0.5 0.5 0.5 0.5 0.6666666666666666 0.3333333333333333 0.3333333333333333 0.6666666666666666 1.0 0.0 0.6363636363636364 0.36363636363636365 1.0 0.0 0.6666666666666666 0.3333333333333333 0.5 0.5 1.0 0.0 1.0 0.0 0.75 0.25 0.5 0.5 0.3333333333333333 0.6666666666666666 0.5 0.5 0.2857142857142857 0.7142857142857143 1.0 0.0 0.375 0.625 0.0 1.0 0.125 0.875 0.0 1.0 0.0 1.0 0.5 0.5 0.0 1.0 0.5 0.5 0.0 1.0 0.9090909090909091 0.09090909090909091 0.36363636363636365 0.6363636363636364 0.9 0.1 0.7058823529411765 0.29411764705882354 1.0 0.0 1.0 0.0 1.0 0.0 0.75 0.25 1.0 0.0 1.0 0.0 0.0 1.0 0.0 1.0 0.0 1.0 0.14285714285714285 0.8571428571428571 0.16666666666666666 0.8333333333333334 0.15 0.85 0.3333333333333333 0.6666666666666666 0.16666666666666666 0.8333333333333334 1.0 0.0 0.0 1.0 0.5 0.5 0.0 1.0 0.0 1.0 0.0 1.0 1.0 0.0 0.75 0.25 1.0 0.0 0.8095238095238095 0.19047619047619047 0.5 0.5 1.0 0.0 0.5 0.5 1.0 0.0 1.0 0.0 1.0 0.0 0.5 0.5 0.5 0.5 0.5 0.5 0.0 1.0 1.0 0.0 0.2 0.8 0.5 0.5 0.0 1.0 0.5 0.5 0.0 1.0 0.5 0.5 0.5 0.5 0.5 0.5 0.0 1.0 1.0 0.0 0.3333333333333333 0.6666666666666666 1.0 0.0 0.2 0.8 0.5 0.5 1.0 0.0 0.5 0.5 1.0 0.0 0.5 0.5 0.5 0.5 0.5 0.5 0.5 0.5 0.5 0.5 0.0 1.0 0.5 0.5 0.0 1.0 0.5 0.5 0.0 1.0 0.5 0.5 0.5 0.5 0.0 1.0 0.0 1.0 0.5 0.5 0.0 1.0 0.6666666666666666 0.3333333333333333 0.375 0.625 0.8 0.2 0.6666666666666666 0.3333333333333333 0.5 0.5 0.5 0.5 1.0 0.0 0.0 1.0 0.0 1.0 0.0 1.0 0.5 0.5 0.5 0.5 0.0 1.0 0.0 1.0 0.25 0.75 0.08333333333333333 0.9166666666666666 1.0 0.0 0.0 1.0 0.5 0.5 0.0 1.0 0.5 0.5 0.3333333333333333 0.6666666666666666 0.5 0.5 0.0 1.0 0.0 1.0 0.5 0.5 1.0 0.0 1.0 0.0 0.5 0.5 1.0 0.0 0.5 0.5 0.5 0.5 0.5 0.5 0.0 1.0 0.5 0.5 0.5 0.5 0.5 0.5 0.0 1.0 0.0 1.0 0.0 1.0 0.5 0.5 0.0 1.0 0.5 0.5 0.5 0.5 0.5 0.5 0.0 1.0 0.5 0.5 0.5 0.5 0.5 0.5 0.5 0.5 0.5 0.5 0.5 0.5 0.5 0.5 0.5 0.5 0.5 0.5 0.5 0.5 0.5 0.5 0.0 1.0 0.5 0.5 0.0 1.0 0.5 0.5 0.5 0.5 0.5 0.5 0.0 1.0 0.5 0.5 0.0 1.0 0.5 0.5 0.5 0.5 0.5 0.5 0.0 1.0 0.5 0.5 0.5 0.5 0.5 0.5 0.5 0.5 1.0 0.0 0.5 0.5 0.5 0.5 0.5 0.5 1.0 0.0 0.5 0.5 0.5 0.5 0.5 0.5 0.5 0.5 0.5 0.5 1.0 0.0 0.0 1.0 0.5 0.5 0.0 1.0 0.5 0.5 0.5 0.5 0.5 0.5 0.5 0.5 0.5 0.5 1.0 0.0 0.5 0.5 0.0 1.0 0.5 0.5 0.0 1.0 0.5 0.5 0.5 0.5 1.0 0.0 0.5 0.5 0.5 0.5 0.5 0.5 0.5 0.5 0.5 0.5 0.5 0.5 0.5 0.5 0.5 0.5 0.5 0.5 0.5 0.5 0.5 0.5 0.5 0.5 0.0 1.0 0.5 0.5 0.5 0.5 0.5 0.5 0.5 0.5 0.5 0.5 0.5 0.5 </TABLE>
=======
      <TABLE>0.5 0.5 1.0 0.0 1.0 0.0 0.8 0.2 1.0 0.0 1.0 0.0 0.5 0.5 0.5 0.5 0.5 0.5 0.5 0.5 0.5 0.5 0.5 0.5 0.5 0.5 0.5 0.5 0.5 0.5 0.3333333333333333 0.6666666666666666 0.5 0.5 0.5 0.5 0.5 0.5 0.5 0.5 0.5 0.5 0.5 0.5 0.5 0.5 0.5 0.5 0.5 0.5 1.0 0.0 1.0 0.0 0.75 0.25 0.5 0.5 1.0 0.0 0.5 0.5 0.5 0.5 0.5 0.5 0.5 0.5 0.5 0.5 0.5 0.5 0.5 0.5 0.5 0.5 0.0 1.0 0.0 1.0 0.5 0.5 0.5 0.5 0.5 0.5 0.5 0.5 0.5 0.5 0.0 1.0 0.5 0.5 0.5 0.5 0.5 0.5 1.0 0.0 1.0 0.0 0.7142857142857143 0.2857142857142857 1.0 0.0 0.5 0.5 0.5 0.5 0.5 0.5 0.5 0.5 1.0 0.0 0.5 0.5 0.5 0.5 0.5 0.5 0.0 1.0 0.5 0.5 0.6666666666666666 0.3333333333333333 0.5 0.5 0.5 0.5 0.5 0.5 0.5 0.5 0.5 0.5 0.5 0.5 0.5 0.5 0.5 0.5 1.0 0.0 1.0 0.0 1.0 0.0 0.625 0.375 1.0 0.0 1.0 0.0 0.5 0.5 0.5 0.5 0.5 0.5 1.0 0.0 0.5 0.5 0.0 1.0 1.0 0.0 1.0 0.0 0.3333333333333333 0.6666666666666666 0.25 0.75 0.5 0.5 0.5 0.5 0.5 0.5 0.5 0.5 0.5 0.5 0.5 0.5 0.5 0.5 0.5 0.5 1.0 0.0 0.5 0.5 1.0 0.0 0.7083333333333334 0.2916666666666667 1.0 0.0 0.75 0.25 0.5 0.5 0.5 0.5 0.0 1.0 0.3333333333333333 0.6666666666666666 0.5 0.5 0.5 0.5 1.0 0.0 0.0 1.0 0.5 0.5 0.08333333333333333 0.9166666666666666 0.5 0.5 0.0 1.0 0.0 1.0 0.0 1.0 0.5 0.5 1.0 0.0 0.5 0.5 0.0 1.0 0.5 0.5 0.0 1.0 1.0 0.0 0.9285714285714286 0.07142857142857142 0.5 0.5 0.0 1.0 0.5 0.5 0.5 0.5 0.5 0.5 1.0 0.0 1.0 0.0 0.5 0.5 1.0 0.0 0.0 1.0 0.5 0.5 0.16666666666666666 0.8333333333333334 0.5 0.5 0.5 0.5 0.5 0.5 0.5 0.5 0.5 0.5 0.5 0.5 0.5 0.5 0.5 0.5 0.6666666666666666 0.3333333333333333 0.25 0.75 1.0 0.0 0.6842105263157895 0.3157894736842105 1.0 0.0 0.6666666666666666 0.3333333333333333 0.5 0.5 1.0 0.0 0.5 0.5 0.6666666666666666 0.3333333333333333 0.5 0.5 0.3333333333333333 0.6666666666666666 0.5 0.5 0.3333333333333333 0.6666666666666666 1.0 0.0 0.4 0.6 0.5 0.5 0.125 0.875 0.0 1.0 0.5 0.5 0.5 0.5 0.0 1.0 0.5 0.5 0.5 0.5 0.9 0.1 0.36363636363636365 0.6363636363636364 0.9 0.1 0.7142857142857143 0.2857142857142857 1.0 0.0 1.0 0.0 1.0 0.0 1.0 0.0 0.5 0.5 1.0 0.0 0.0 1.0 0.0 1.0 0.0 1.0 0.16666666666666666 0.8333333333333334 0.2 0.8 0.15789473684210525 0.8421052631578947 0.5 0.5 0.16666666666666666 0.8333333333333334 1.0 0.0 0.0 1.0 0.5 0.5 0.0 1.0 0.0 1.0 0.0 1.0 1.0 0.0 0.75 0.25 1.0 0.0 0.7777777777777778 0.2222222222222222 0.5 0.5 1.0 0.0 0.5 0.5 1.0 0.0 1.0 0.0 1.0 0.0 0.5 0.5 0.5 0.5 0.5 0.5 0.5 0.5 1.0 0.0 0.25 0.75 0.5 0.5 0.0 1.0 0.5 0.5 0.0 1.0 0.5 0.5 0.5 0.5 0.5 0.5 0.0 1.0 1.0 0.0 0.3333333333333333 0.6666666666666666 1.0 0.0 0.2 0.8 0.5 0.5 1.0 0.0 0.5 0.5 1.0 0.0 0.5 0.5 0.5 0.5 0.5 0.5 0.5 0.5 0.5 0.5 0.0 1.0 0.5 0.5 0.0 1.0 0.5 0.5 0.0 1.0 0.5 0.5 0.5 0.5 0.0 1.0 0.0 1.0 0.5 0.5 0.0 1.0 0.6 0.4 0.42857142857142855 0.5714285714285714 0.8 0.2 0.6666666666666666 0.3333333333333333 0.5 0.5 0.5 0.5 1.0 0.0 0.0 1.0 0.0 1.0 0.0 1.0 0.5 0.5 0.5 0.5 0.0 1.0 0.0 1.0 0.3333333333333333 0.6666666666666666 0.08333333333333333 0.9166666666666666 0.5 0.5 0.0 1.0 0.5 0.5 0.0 1.0 0.5 0.5 0.3333333333333333 0.6666666666666666 0.5 0.5 0.0 1.0 0.0 1.0 0.5 0.5 1.0 0.0 1.0 0.0 0.5 0.5 1.0 0.0 0.5 0.5 0.5 0.5 0.5 0.5 0.0 1.0 0.5 0.5 0.5 0.5 0.5 0.5 0.0 1.0 0.0 1.0 0.0 1.0 0.5 0.5 0.0 1.0 0.5 0.5 0.5 0.5 0.5 0.5 0.0 1.0 0.5 0.5 0.5 0.5 0.5 0.5 0.5 0.5 0.5 0.5 0.5 0.5 0.5 0.5 0.5 0.5 0.5 0.5 0.5 0.5 0.5 0.5 0.0 1.0 0.5 0.5 0.0 1.0 0.5 0.5 0.5 0.5 0.5 0.5 0.0 1.0 0.5 0.5 0.0 1.0 0.5 0.5 0.5 0.5 0.5 0.5 0.0 1.0 0.5 0.5 0.5 0.5 0.5 0.5 0.5 0.5 1.0 0.0 0.5 0.5 0.5 0.5 0.5 0.5 1.0 0.0 0.5 0.5 0.5 0.5 0.5 0.5 0.5 0.5 0.5 0.5 1.0 0.0 0.0 1.0 0.5 0.5 0.0 1.0 0.5 0.5 0.5 0.5 0.5 0.5 0.5 0.5 0.5 0.5 1.0 0.0 0.5 0.5 0.0 1.0 0.5 0.5 0.0 1.0 0.5 0.5 0.5 0.5 1.0 0.0 0.5 0.5 0.5 0.5 0.5 0.5 0.5 0.5 0.5 0.5 0.5 0.5 0.5 0.5 0.5 0.5 0.5 0.5 0.5 0.5 0.5 0.5 0.5 0.5 0.0 1.0 0.5 0.5 0.5 0.5 0.5 0.5 0.5 0.5 0.5 0.5 0.5 0.5 </TABLE>
>>>>>>> 35fa76d (Update requirements.txt file)
    </DEFINITION>
    <DEFINITION>
      <FOR>MaxHR</FOR>
      <GIVEN>Age</GIVEN>
      <GIVEN>Sex</GIVEN>
<<<<<<< HEAD
      <TABLE>0.3125 0.0 0.125 0.5625 0.25862068965517243 0.10344827586206896 0.13793103448275862 0.5 0.24489795918367346 0.14285714285714285 0.16326530612244897 0.4489795918367347 0.25203252032520324 0.17073170731707318 0.25203252032520324 0.3252032520325203 0.3870967741935484 0.1774193548387097 0.22580645161290322 0.20967741935483872 0.27722772277227725 0.28217821782178215 0.2623762376237624 0.1782178217821782 0.4444444444444444 0.2222222222222222 0.1111111111111111 0.2222222222222222 0.19387755102040816 0.3979591836734694 0.37755102040816324 0.030612244897959183 0.0 0.5 0.25 0.25 0.0 0.8571428571428571 0.07142857142857142 0.07142857142857142 </TABLE>
=======
      <TABLE>0.3333333333333333 0.0 0.13333333333333333 0.5333333333333333 0.21153846153846154 0.11538461538461539 0.1346153846153846 0.5384615384615384 0.2391304347826087 0.15217391304347827 0.17391304347826086 0.43478260869565216 0.2457627118644068 0.17796610169491525 0.2457627118644068 0.3305084745762712 0.43636363636363634 0.18181818181818182 0.2 0.18181818181818182 0.2784090909090909 0.2784090909090909 0.26136363636363635 0.18181818181818182 0.4583333333333333 0.20833333333333334 0.125 0.20833333333333334 0.20430107526881722 0.3978494623655914 0.3763440860215054 0.021505376344086023 0.0 0.5 0.25 0.25 0.0 0.8571428571428571 0.07142857142857142 0.07142857142857142 </TABLE>
>>>>>>> 35fa76d (Update requirements.txt file)
    </DEFINITION>
    <DEFINITION>
      <FOR>Oldpeak</FOR>
      <GIVEN>ExerciseAngina</GIVEN>
      <GIVEN>HeartDisease</GIVEN>
<<<<<<< HEAD
      <TABLE>0.09698996655518395 0.10702341137123746 0.013377926421404682 0.782608695652174 0.11650485436893204 0.20388349514563106 0.1553398058252427 0.5242718446601942 0.2558139534883721 0.27906976744186046 0.046511627906976744 0.4186046511627907 0.16826923076923078 0.4423076923076923 0.25 0.13942307692307693 </TABLE>
=======
      <TABLE>0.0989010989010989 0.0989010989010989 0.01098901098901099 0.7912087912087912 0.10638297872340426 0.1702127659574468 0.1595744680851064 0.5638297872340425 0.24390243902439024 0.2926829268292683 0.04878048780487805 0.4146341463414634 0.1746031746031746 0.4497354497354497 0.24338624338624337 0.13227513227513227 </TABLE>
>>>>>>> 35fa76d (Update requirements.txt file)
    </DEFINITION>
    <DEFINITION>
      <FOR>RestingBP</FOR>
      <GIVEN>Age</GIVEN>
      <GIVEN>Cholesterol</GIVEN>
<<<<<<< HEAD
      <TABLE>0.38095238095238093 0.14285714285714285 0.47619047619047616 0.36666666666666664 0.06666666666666667 0.5666666666666667 0.43478260869565216 0.08695652173913043 0.4782608695652174 0.5185185185185185 0.07407407407407407 0.4074074074074074 0.4146341463414634 0.21951219512195122 0.36585365853658536 0.2777777777777778 0.16666666666666666 0.5555555555555556 0.5604395604395604 0.17582417582417584 0.26373626373626374 0.5333333333333333 0.26666666666666666 0.2 0.5094339622641509 0.20754716981132076 0.2830188679245283 0.36666666666666664 0.4 0.23333333333333334 0.410958904109589 0.3561643835616438 0.2328767123287671 0.45454545454545453 0.5 0.045454545454545456 0.375 0.5 0.125 0.14285714285714285 0.5714285714285714 0.2857142857142857 0.6666666666666666 0.0 0.3333333333333333 </TABLE>
=======
      <TABLE>0.38095238095238093 0.14285714285714285 0.47619047619047616 0.32 0.08 0.6 0.47619047619047616 0.09523809523809523 0.42857142857142855 0.5 0.07692307692307693 0.4230769230769231 0.4177215189873418 0.22784810126582278 0.35443037974683544 0.30303030303030304 0.18181818181818182 0.5151515151515151 0.5822784810126582 0.17721518987341772 0.24050632911392406 0.5566037735849056 0.22641509433962265 0.2169811320754717 0.5434782608695652 0.15217391304347827 0.30434782608695654 0.3793103448275862 0.41379310344827586 0.20689655172413793 0.39705882352941174 0.38235294117647056 0.22058823529411764 0.4 0.55 0.05 0.375 0.5 0.125 0.14285714285714285 0.5714285714285714 0.2857142857142857 0.6666666666666666 0.0 0.3333333333333333 </TABLE>
>>>>>>> 35fa76d (Update requirements.txt file)
    </DEFINITION>
    <DEFINITION>
      <FOR>RestingECG</FOR>
      <GIVEN>Age</GIVEN>
<<<<<<< HEAD
      <TABLE>0.10810810810810811 0.7837837837837838 0.10810810810810811 0.1686046511627907 0.7151162790697675 0.11627906976744186 0.26515151515151514 0.5643939393939394 0.17045454545454544 0.328 0.424 0.248 0.2222222222222222 0.5 0.2777777777777778 </TABLE>
=======
      <TABLE>0.08955223880597014 0.7910447761194029 0.11940298507462686 0.16463414634146342 0.7195121951219512 0.11585365853658537 0.2554112554112554 0.5714285714285714 0.17316017316017315 0.3162393162393162 0.4358974358974359 0.24786324786324787 0.2222222222222222 0.5 0.2777777777777778 </TABLE>
>>>>>>> 35fa76d (Update requirements.txt file)
    </DEFINITION>
    <DEFINITION>
      <FOR>ST_Slope</FOR>
      <GIVEN>ExerciseAngina</GIVEN>
      <GIVEN>HeartDisease</GIVEN>
      <GIVEN>Oldpeak</GIVEN>
<<<<<<< HEAD
      <TABLE>0.034482758620689655 0.3793103448275862 0.5862068965517241 0.03125 0.46875 0.5 0.75 0.25 0.0 0.008547008547008548 0.07692307692307693 0.9145299145299145 0.08333333333333333 0.5 0.4166666666666667 0.047619047619047616 0.9047619047619048 0.047619047619047616 0.125 0.75 0.125 0.0 0.7407407407407407 0.25925925925925924 0.0 0.8181818181818182 0.18181818181818182 0.16666666666666666 0.5833333333333334 0.25 0.0 1.0 0.0 0.0 0.2222222222222222 0.7777777777777778 0.0 0.8857142857142857 0.11428571428571428 0.07608695652173914 0.8478260869565217 0.07608695652173914 0.2692307692307692 0.6923076923076923 0.038461538461538464 0.0 0.7931034482758621 0.20689655172413793 </TABLE>
    </DEFINITION>
    <DEFINITION>
      <FOR>Sex</FOR>
      <TABLE>0.24196018376722817 0.7580398162327718 </TABLE>
=======
      <TABLE>0.037037037037037035 0.4074074074074074 0.5555555555555556 0.037037037037037035 0.48148148148148145 0.48148148148148145 1.0 0.0 0.0 0.009259259259259259 0.08333333333333333 0.9074074074074074 0.1 0.5 0.4 0.0625 0.875 0.0625 0.13333333333333333 0.7333333333333333 0.13333333333333333 0.0 0.7547169811320755 0.24528301886792453 0.0 0.8 0.2 0.16666666666666666 0.5833333333333334 0.25 0.0 1.0 0.0 0.0 0.23529411764705882 0.7647058823529411 0.0 0.8787878787878788 0.12121212121212122 0.08235294117647059 0.8352941176470589 0.08235294117647059 0.2608695652173913 0.6956521739130435 0.043478260869565216 0.0 0.84 0.16 </TABLE>
    </DEFINITION>
    <DEFINITION>
      <FOR>Sex</FOR>
      <TABLE>0.24120603015075376 0.7587939698492462 </TABLE>
>>>>>>> 35fa76d (Update requirements.txt file)
    </DEFINITION>
  </NETWORK>
</BIF>
