<?xml version='1.0' encoding='utf-8'?>
<BIF VERSION="0.3">
  <NETWORK>
    <NAME>UNTITLED</NAME>
    <VARIABLE TYPE="nature">
      <NAME>Age</NAME>
      <OUTCOME>old</OUTCOME>
      <OUTCOME>young</OUTCOME>
      <PROPERTY />
    </VARIABLE>
    <VARIABLE TYPE="nature">
      <NAME>ChestPainType</NAME>
      <OUTCOME>ASY</OUTCOME>
      <OUTCOME>ATA</OUTCOME>
      <OUTCOME>NAP</OUTCOME>
      <OUTCOME>TA</OUTCOME>
      <PROPERTY />
    </VARIABLE>
    <VARIABLE TYPE="nature">
      <NAME>Cholesterol</NAME>
      <OUTCOME>borderline</OUTCOME>
      <OUTCOME>high</OUTCOME>
      <OUTCOME>optimal</OUTCOME>
      <PROPERTY />
    </VARIABLE>
    <VARIABLE TYPE="nature">
      <NAME>ExerciseAngina</NAME>
      <OUTCOME>False</OUTCOME>
      <OUTCOME>True</OUTCOME>
      <PROPERTY />
    </VARIABLE>
    <VARIABLE TYPE="nature">
      <NAME>FastingBS</NAME>
      <OUTCOME>False</OUTCOME>
      <OUTCOME>True</OUTCOME>
      <PROPERTY />
    </VARIABLE>
    <VARIABLE TYPE="nature">
      <NAME>HeartDisease</NAME>
      <OUTCOME>False</OUTCOME>
      <OUTCOME>True</OUTCOME>
      <PROPERTY />
    </VARIABLE>
    <VARIABLE TYPE="nature">
      <NAME>MaxHR</NAME>
      <OUTCOME>high</OUTCOME>
      <OUTCOME>low</OUTCOME>
      <OUTCOME>medium</OUTCOME>
      <PROPERTY />
    </VARIABLE>
    <VARIABLE TYPE="nature">
      <NAME>Oldpeak</NAME>
      <OUTCOME>high</OUTCOME>
      <OUTCOME>low</OUTCOME>
      <OUTCOME>medium</OUTCOME>
      <PROPERTY />
    </VARIABLE>
    <VARIABLE TYPE="nature">
      <NAME>RestingBP</NAME>
      <OUTCOME>high</OUTCOME>
      <OUTCOME>normal</OUTCOME>
      <OUTCOME>very_high</OUTCOME>
      <PROPERTY />
    </VARIABLE>
    <VARIABLE TYPE="nature">
      <NAME>RestingECG</NAME>
      <OUTCOME>LVH</OUTCOME>
      <OUTCOME>Normal</OUTCOME>
      <OUTCOME>ST</OUTCOME>
      <PROPERTY />
    </VARIABLE>
    <VARIABLE TYPE="nature">
      <NAME>ST_Slope</NAME>
      <OUTCOME>Down</OUTCOME>
      <OUTCOME>Flat</OUTCOME>
      <OUTCOME>Up</OUTCOME>
      <PROPERTY />
    </VARIABLE>
    <VARIABLE TYPE="nature">
      <NAME>Sex</NAME>
      <OUTCOME>F</OUTCOME>
      <OUTCOME>M</OUTCOME>
      <PROPERTY />
    </VARIABLE>
    <DEFINITION>
      <FOR>Age</FOR>
      <TABLE>0.45174708818635606 0.5482529118136439 </TABLE>
    </DEFINITION>
    <DEFINITION>
      <FOR>ChestPainType</FOR>
      <GIVEN>HeartDisease</GIVEN>
      <TABLE>0.25699844479004663 0.3689735614307932 0.3067651632970451 0.06726283048211508 0.7714669051878354 0.06305903398926654 0.1310375670840787 0.03443649373881932 </TABLE>
    </DEFINITION>
    <DEFINITION>
      <FOR>Cholesterol</FOR>
      <GIVEN>Sex</GIVEN>
      <TABLE>0.28272827282728275 0.5467546754675467 0.1705170517051705 0.3555802743789396 0.4445680385613645 0.19985168705969594 </TABLE>
    </DEFINITION>
    <DEFINITION>
      <FOR>ExerciseAngina</FOR>
      <GIVEN>ChestPainType</GIVEN>
      <GIVEN>HeartDisease</GIVEN>
      <TABLE>0.754160363086233 0.245839636913767 0.2426086956521739 0.7573913043478261 0.9636459430979979 0.03635405690200211 0.5851063829787234 0.4148936170212766 0.8751584283903675 0.12484157160963244 0.5819112627986348 0.4180887372013652 0.846820809248555 0.1531791907514451 0.8636363636363636 0.13636363636363635 </TABLE>
    </DEFINITION>
    <DEFINITION>
      <FOR>FastingBS</FOR>
      <GIVEN>Age</GIVEN>
      <GIVEN>RestingBP</GIVEN>
      <TABLE>0.7648125755743651 0.23518742442563478 0.8686006825938567 0.13139931740614336 0.6650294695481336 0.3349705304518664 0.86310223266745 0.13689776733254994 0.9520547945205479 0.04794520547945205 0.9365325077399381 0.06346749226006192 </TABLE>
    </DEFINITION>
    <DEFINITION>
      <FOR>HeartDisease</FOR>
      <GIVEN>Age</GIVEN>
      <GIVEN>Cholesterol</GIVEN>
      <GIVEN>Sex</GIVEN>
      <TABLE>0.596 0.40399999999999997 0.36077348066298337 0.6392265193370166 0.5603621730382293 0.4396378269617706 0.2510803802938634 0.7489196197061366 0.8564356435643564 0.14356435643564355 0.33509513742071884 0.6649048625792812 0.9318766066838047 0.06812339331619538 0.642152023692004 0.35784797630799603 0.8018108651911469 0.1981891348088531 0.5338436744560838 0.4661563255439162 0.930622009569378 0.06937799043062201 0.6190082644628099 0.38099173553719007 </TABLE>
    </DEFINITION>
    <DEFINITION>
      <FOR>MaxHR</FOR>
      <GIVEN>Age</GIVEN>
      <GIVEN>ExerciseAngina</GIVEN>
      <TABLE>0.2706449668474985 0.15491259795057263 0.574442435201929 0.07066916823014384 0.27329580988117574 0.6560350218886805 0.45235565001771166 0.035777541622387526 0.5118668083599008 0.11052166224580016 0.22723253757736517 0.6622458001768347 </TABLE>
    </DEFINITION>
    <DEFINITION>
      <FOR>Oldpeak</FOR>
      <GIVEN>HeartDisease</GIVEN>
      <GIVEN>ST_Slope</GIVEN>
      <TABLE>0.14465408805031446 0.4842767295597485 0.37106918238993714 0.004156275976724855 0.946799667497922 0.049044056525353284 0.0011299435028248588 0.9936723163841809 0.00519774011299435 0.09557109557109555 0.2214452214452214 0.682983682983683 0.005839045443005839 0.8146737750698148 0.17948717948717952 0.007541478129713424 0.9306184012066364 0.06184012066365007 </TABLE>
    </DEFINITION>
    <DEFINITION>
      <FOR>RestingBP</FOR>
      <GIVEN>Age</GIVEN>
      <TABLE>0.5076734192756293 0.17986494782074894 0.31246163290362183 0.43045017703591304 0.4061709661102681 0.16337885685381892 </TABLE>
    </DEFINITION>
    <DEFINITION>
      <FOR>RestingECG</FOR>
      <GIVEN>Age</GIVEN>
      <GIVEN>ExerciseAngina</GIVEN>
      <TABLE>0.40807715491259794 0.4731766124171188 0.11874623267028331 0.23577235772357724 0.4609130706691682 0.3033145716072545 0.12929507616011338 0.7414098476797734 0.12929507616011338 0.22723253757736517 0.6622458001768347 0.11052166224580016 </TABLE>
    </DEFINITION>
    <DEFINITION>
      <FOR>ST_Slope</FOR>
      <GIVEN>ExerciseAngina</GIVEN>
      <GIVEN>HeartDisease</GIVEN>
      <TABLE>0.02637037037037037 0.16503703703703704 0.8085925925925925 0.04787714543812104 0.7091237579042456 0.24299909665763322 0.035196687370600416 0.5072463768115942 0.45755693581780543 0.10369381397418782 0.8193146417445484 0.07699154428126391 </TABLE>
    </DEFINITION>
    <DEFINITION>
      <FOR>Sex</FOR>
      <TABLE>0.25207986688851913 0.7479201331114809 </TABLE>
    </DEFINITION>
  </NETWORK>
</BIF>
