network unknown {
}
variable Age {
    type discrete [ 5 ] { 20-40, 40-50, 50-60, 60-70, 70+ };
}
variable ChestPainType {
    type discrete [ 4 ] { ASY, ATA, NAP, TA };
}
variable Cholesterol {
    type discrete [ 3 ] { 200-240, 240+, <=200 };
}
variable ExerciseAngina {
    type discrete [ 2 ] { N, Y };
}
variable FastingBS {
    type discrete [ 2 ] { N, Y };
}
variable HeartDisease {
    type discrete [ 2 ] { 0, 1 };
}
variable MaxHR {
    type discrete [ 4 ] { high, low, medium, very-high };
}
variable Oldpeak {
    type discrete [ 4 ] { 0-5-1, 1-2, 2+, <=0.5 };
}
variable RestingBP {
    type discrete [ 3 ] { 120-140, 140+, 90-120 };
}
variable RestingECG {
    type discrete [ 3 ] { LVH, Normal, ST };
}
variable ST_Slope {
    type discrete [ 3 ] { Down, Flat, Up };
}
variable Sex {
    type discrete [ 2 ] { F, M };
}
probability ( Age ) {
    table 0.11222780569514237, 0.2747068676716918, 0.3869346733668342, 0.19597989949748743, 0.03015075376884422 ;
}
probability ( ChestPainType | HeartDisease ) {
    ( 0 ) 0.24203821656050956, 0.37579617834394907, 0.31528662420382164, 0.06687898089171974;
    ( 1 ) 0.7597173144876325, 0.05653710247349823, 0.13427561837455831, 0.04946996466431095;

}
probability ( Cholesterol | Age, Sex ) {
    ( 20-40, F ) 0.3333333333333333, 0.2, 0.4666666666666667;
    ( 20-40, M ) 0.3076923076923077, 0.4230769230769231, 0.2692307692307692;
    ( 40-50, F ) 0.391304347826087, 0.45652173913043476, 0.15217391304347827;
    ( 40-50, M ) 0.288135593220339, 0.4915254237288136, 0.22033898305084745;
    ( 50-60, F ) 0.21818181818181817, 0.6363636363636364, 0.14545454545454545;
    ( 50-60, M ) 0.3806818181818182, 0.4034090909090909, 0.2159090909090909;
    ( 60-70, F ) 0.16666666666666666, 0.6666666666666666, 0.16666666666666666;
    ( 60-70, M ) 0.26881720430107525, 0.5591397849462365, 0.17204301075268819;
    ( 70+, F ) 0.0, 0.75, 0.25;
    ( 70+, M ) 0.5714285714285714, 0.2857142857142857, 0.14285714285714285;

}
probability ( ExerciseAngina | MaxHR, Sex ) {
    ( high, F ) 0.7450980392156863, 0.2549019607843137;
    ( high, M ) 0.6296296296296297, 0.37037037037037035;
    ( low, F ) 0.7083333333333334, 0.2916666666666667;
    ( low, M ) 0.288, 0.712;
    ( medium, F ) 0.68, 0.32;
    ( medium, M ) 0.4830508474576271, 0.5169491525423728;
    ( very-high, F ) 0.9545454545454546, 0.045454545454545456;
    ( very-high, M ) 0.9019607843137255, 0.09803921568627451;

}
probability ( FastingBS | Age, RestingBP ) {
    ( 20-40, 120-140 ) 1.0, 0.0;
    ( 20-40, 140+ ) 0.8571428571428571, 0.14285714285714285;
    ( 20-40, 90-120 ) 0.9705882352941176, 0.029411764705882353;
    ( 40-50, 120-140 ) 0.8695652173913043, 0.13043478260869565;
    ( 40-50, 140+ ) 1.0, 0.0;
    ( 40-50, 90-120 ) 0.9402985074626866, 0.05970149253731343;
    ( 50-60, 120-140 ) 0.8307692307692308, 0.16923076923076924;
    ( 50-60, 140+ ) 0.7333333333333333, 0.26666666666666666;
    ( 50-60, 90-120 ) 0.8928571428571429, 0.10714285714285714;
    ( 60-70, 120-140 ) 0.7391304347826086, 0.2608695652173913;
    ( 60-70, 140+ ) 0.6122448979591837, 0.3877551020408163;
    ( 60-70, 90-120 ) 0.9545454545454546, 0.045454545454545456;
    ( 70+, 120-140 ) 0.8333333333333334, 0.16666666666666666;
    ( 70+, 140+ ) 0.5, 0.5;
    ( 70+, 90-120 ) 0.75, 0.25;

}
probability ( HeartDisease | Age, Cholesterol, ExerciseAngina, FastingBS, RestingECG, Sex ) {
    ( 20-40, 200-240, N, N, LVH, F ) 0.5, 0.5;
    ( 20-40, 200-240, N, N, LVH, M ) 1.0, 0.0;
    ( 20-40, 200-240, N, N, Normal, F ) 1.0, 0.0;
    ( 20-40, 200-240, N, N, Normal, M ) 0.8, 0.2;
    ( 20-40, 200-240, N, N, ST, F ) 1.0, 0.0;
    ( 20-40, 200-240, N, N, ST, M ) 1.0, 0.0;
    ( 20-40, 200-240, N, Y, LVH, F ) 0.5, 0.5;
    ( 20-40, 200-240, N, Y, LVH, M ) 0.5, 0.5;
    ( 20-40, 200-240, N, Y, Normal, F ) 0.5, 0.5;
    ( 20-40, 200-240, N, Y, Normal, M ) 0.5, 0.5;
    ( 20-40, 200-240, N, Y, ST, F ) 0.5, 0.5;
    ( 20-40, 200-240, N, Y, ST, M ) 0.5, 0.5;
    ( 20-40, 200-240, Y, N, LVH, F ) 0.5, 0.5;
    ( 20-40, 200-240, Y, N, LVH, M ) 0.5, 0.5;
    ( 20-40, 200-240, Y, N, Normal, F ) 0.5, 0.5;
    ( 20-40, 200-240, Y, N, Normal, M ) 0.3333333333333333, 0.6666666666666666;
    ( 20-40, 200-240, Y, N, ST, F ) 0.5, 0.5;
    ( 20-40, 200-240, Y, N, ST, M ) 0.5, 0.5;
    ( 20-40, 200-240, Y, Y, LVH, F ) 0.5, 0.5;
    ( 20-40, 200-240, Y, Y, LVH, M ) 0.5, 0.5;
    ( 20-40, 200-240, Y, Y, Normal, F ) 0.5, 0.5;
    ( 20-40, 200-240, Y, Y, Normal, M ) 0.5, 0.5;
    ( 20-40, 200-240, Y, Y, ST, F ) 0.5, 0.5;
    ( 20-40, 200-240, Y, Y, ST, M ) 0.5, 0.5;
    ( 20-40, 240+, N, N, LVH, F ) 0.5, 0.5;
    ( 20-40, 240+, N, N, LVH, M ) 1.0, 0.0;
    ( 20-40, 240+, N, N, Normal, F ) 1.0, 0.0;
    ( 20-40, 240+, N, N, Normal, M ) 0.75, 0.25;
    ( 20-40, 240+, N, N, ST, F ) 0.5, 0.5;
    ( 20-40, 240+, N, N, ST, M ) 1.0, 0.0;
    ( 20-40, 240+, N, Y, LVH, F ) 0.5, 0.5;
    ( 20-40, 240+, N, Y, LVH, M ) 0.5, 0.5;
    ( 20-40, 240+, N, Y, Normal, F ) 0.5, 0.5;
    ( 20-40, 240+, N, Y, Normal, M ) 0.5, 0.5;
    ( 20-40, 240+, N, Y, ST, F ) 0.5, 0.5;
    ( 20-40, 240+, N, Y, ST, M ) 0.5, 0.5;
    ( 20-40, 240+, Y, N, LVH, F ) 0.5, 0.5;
    ( 20-40, 240+, Y, N, LVH, M ) 0.5, 0.5;
    ( 20-40, 240+, Y, N, Normal, F ) 0.0, 1.0;
    ( 20-40, 240+, Y, N, Normal, M ) 0.0, 1.0;
    ( 20-40, 240+, Y, N, ST, F ) 0.5, 0.5;
    ( 20-40, 240+, Y, N, ST, M ) 0.5, 0.5;
    ( 20-40, 240+, Y, Y, LVH, F ) 0.5, 0.5;
    ( 20-40, 240+, Y, Y, LVH, M ) 0.5, 0.5;
    ( 20-40, 240+, Y, Y, Normal, F ) 0.5, 0.5;
    ( 20-40, 240+, Y, Y, Normal, M ) 0.0, 1.0;
    ( 20-40, 240+, Y, Y, ST, F ) 0.5, 0.5;
    ( 20-40, 240+, Y, Y, ST, M ) 0.5, 0.5;
    ( 20-40, <=200, N, N, LVH, F ) 0.5, 0.5;
    ( 20-40, <=200, N, N, LVH, M ) 1.0, 0.0;
    ( 20-40, <=200, N, N, Normal, F ) 1.0, 0.0;
    ( 20-40, <=200, N, N, Normal, M ) 0.7142857142857143, 0.2857142857142857;
    ( 20-40, <=200, N, N, ST, F ) 1.0, 0.0;
    ( 20-40, <=200, N, N, ST, M ) 0.5, 0.5;
    ( 20-40, <=200, N, Y, LVH, F ) 0.5, 0.5;
    ( 20-40, <=200, N, Y, LVH, M ) 0.5, 0.5;
    ( 20-40, <=200, N, Y, Normal, F ) 0.5, 0.5;
    ( 20-40, <=200, N, Y, Normal, M ) 1.0, 0.0;
    ( 20-40, <=200, N, Y, ST, F ) 0.5, 0.5;
    ( 20-40, <=200, N, Y, ST, M ) 0.5, 0.5;
    ( 20-40, <=200, Y, N, LVH, F ) 0.5, 0.5;
    ( 20-40, <=200, Y, N, LVH, M ) 0.0, 1.0;
    ( 20-40, <=200, Y, N, Normal, F ) 0.5, 0.5;
    ( 20-40, <=200, Y, N, Normal, M ) 0.6666666666666666, 0.3333333333333333;
    ( 20-40, <=200, Y, N, ST, F ) 0.5, 0.5;
    ( 20-40, <=200, Y, N, ST, M ) 0.5, 0.5;
    ( 20-40, <=200, Y, Y, LVH, F ) 0.5, 0.5;
    ( 20-40, <=200, Y, Y, LVH, M ) 0.5, 0.5;
    ( 20-40, <=200, Y, Y, Normal, F ) 0.5, 0.5;
    ( 20-40, <=200, Y, Y, Normal, M ) 0.5, 0.5;
    ( 20-40, <=200, Y, Y, ST, F ) 0.5, 0.5;
    ( 20-40, <=200, Y, Y, ST, M ) 0.5, 0.5;
    ( 40-50, 200-240, N, N, LVH, F ) 1.0, 0.0;
    ( 40-50, 200-240, N, N, LVH, M ) 1.0, 0.0;
    ( 40-50, 200-240, N, N, Normal, F ) 1.0, 0.0;
    ( 40-50, 200-240, N, N, Normal, M ) 0.625, 0.375;
    ( 40-50, 200-240, N, N, ST, F ) 1.0, 0.0;
    ( 40-50, 200-240, N, N, ST, M ) 1.0, 0.0;
    ( 40-50, 200-240, N, Y, LVH, F ) 0.5, 0.5;
    ( 40-50, 200-240, N, Y, LVH, M ) 0.5, 0.5;
    ( 40-50, 200-240, N, Y, Normal, F ) 0.5, 0.5;
    ( 40-50, 200-240, N, Y, Normal, M ) 1.0, 0.0;
    ( 40-50, 200-240, N, Y, ST, F ) 0.5, 0.5;
    ( 40-50, 200-240, N, Y, ST, M ) 0.0, 1.0;
    ( 40-50, 200-240, Y, N, LVH, F ) 1.0, 0.0;
    ( 40-50, 200-240, Y, N, LVH, M ) 1.0, 0.0;
    ( 40-50, 200-240, Y, N, Normal, F ) 0.3333333333333333, 0.6666666666666666;
    ( 40-50, 200-240, Y, N, Normal, M ) 0.25, 0.75;
    ( 40-50, 200-240, Y, N, ST, F ) 0.5, 0.5;
    ( 40-50, 200-240, Y, N, ST, M ) 0.5, 0.5;
    ( 40-50, 200-240, Y, Y, LVH, F ) 0.5, 0.5;
    ( 40-50, 200-240, Y, Y, LVH, M ) 0.5, 0.5;
    ( 40-50, 200-240, Y, Y, Normal, F ) 0.5, 0.5;
    ( 40-50, 200-240, Y, Y, Normal, M ) 0.5, 0.5;
    ( 40-50, 200-240, Y, Y, ST, F ) 0.5, 0.5;
    ( 40-50, 200-240, Y, Y, ST, M ) 0.5, 0.5;
    ( 40-50, 240+, N, N, LVH, F ) 1.0, 0.0;
    ( 40-50, 240+, N, N, LVH, M ) 0.5, 0.5;
    ( 40-50, 240+, N, N, Normal, F ) 1.0, 0.0;
    ( 40-50, 240+, N, N, Normal, M ) 0.7083333333333334, 0.2916666666666667;
    ( 40-50, 240+, N, N, ST, F ) 1.0, 0.0;
    ( 40-50, 240+, N, N, ST, M ) 0.75, 0.25;
    ( 40-50, 240+, N, Y, LVH, F ) 0.5, 0.5;
    ( 40-50, 240+, N, Y, LVH, M ) 0.5, 0.5;
    ( 40-50, 240+, N, Y, Normal, F ) 0.0, 1.0;
    ( 40-50, 240+, N, Y, Normal, M ) 0.3333333333333333, 0.6666666666666666;
    ( 40-50, 240+, N, Y, ST, F ) 0.5, 0.5;
    ( 40-50, 240+, N, Y, ST, M ) 0.5, 0.5;
    ( 40-50, 240+, Y, N, LVH, F ) 1.0, 0.0;
    ( 40-50, 240+, Y, N, LVH, M ) 0.0, 1.0;
    ( 40-50, 240+, Y, N, Normal, F ) 0.5, 0.5;
    ( 40-50, 240+, Y, N, Normal, M ) 0.08333333333333333, 0.9166666666666666;
    ( 40-50, 240+, Y, N, ST, F ) 0.5, 0.5;
    ( 40-50, 240+, Y, N, ST, M ) 0.0, 1.0;
    ( 40-50, 240+, Y, Y, LVH, F ) 0.0, 1.0;
    ( 40-50, 240+, Y, Y, LVH, M ) 0.0, 1.0;
    ( 40-50, 240+, Y, Y, Normal, F ) 0.5, 0.5;
    ( 40-50, 240+, Y, Y, Normal, M ) 1.0, 0.0;
    ( 40-50, 240+, Y, Y, ST, F ) 0.5, 0.5;
    ( 40-50, 240+, Y, Y, ST, M ) 0.0, 1.0;
    ( 40-50, <=200, N, N, LVH, F ) 0.5, 0.5;
    ( 40-50, <=200, N, N, LVH, M ) 0.0, 1.0;
    ( 40-50, <=200, N, N, Normal, F ) 1.0, 0.0;
    ( 40-50, <=200, N, N, Normal, M ) 0.9285714285714286, 0.07142857142857142;
    ( 40-50, <=200, N, N, ST, F ) 0.5, 0.5;
    ( 40-50, <=200, N, N, ST, M ) 0.0, 1.0;
    ( 40-50, <=200, N, Y, LVH, F ) 0.5, 0.5;
    ( 40-50, <=200, N, Y, LVH, M ) 0.5, 0.5;
    ( 40-50, <=200, N, Y, Normal, F ) 0.5, 0.5;
    ( 40-50, <=200, N, Y, Normal, M ) 1.0, 0.0;
    ( 40-50, <=200, N, Y, ST, F ) 1.0, 0.0;
    ( 40-50, <=200, N, Y, ST, M ) 0.5, 0.5;
    ( 40-50, <=200, Y, N, LVH, F ) 1.0, 0.0;
    ( 40-50, <=200, Y, N, LVH, M ) 0.0, 1.0;
    ( 40-50, <=200, Y, N, Normal, F ) 0.5, 0.5;
    ( 40-50, <=200, Y, N, Normal, M ) 0.16666666666666666, 0.8333333333333334;
    ( 40-50, <=200, Y, N, ST, F ) 0.5, 0.5;
    ( 40-50, <=200, Y, N, ST, M ) 0.5, 0.5;
    ( 40-50, <=200, Y, Y, LVH, F ) 0.5, 0.5;
    ( 40-50, <=200, Y, Y, LVH, M ) 0.5, 0.5;
    ( 40-50, <=200, Y, Y, Normal, F ) 0.5, 0.5;
    ( 40-50, <=200, Y, Y, Normal, M ) 0.5, 0.5;
    ( 40-50, <=200, Y, Y, ST, F ) 0.5, 0.5;
    ( 40-50, <=200, Y, Y, ST, M ) 0.5, 0.5;
    ( 50-60, 200-240, N, N, LVH, F ) 0.6666666666666666, 0.3333333333333333;
    ( 50-60, 200-240, N, N, LVH, M ) 0.25, 0.75;
    ( 50-60, 200-240, N, N, Normal, F ) 1.0, 0.0;
    ( 50-60, 200-240, N, N, Normal, M ) 0.6842105263157895, 0.3157894736842105;
    ( 50-60, 200-240, N, N, ST, F ) 1.0, 0.0;
    ( 50-60, 200-240, N, N, ST, M ) 0.6666666666666666, 0.3333333333333333;
    ( 50-60, 200-240, N, Y, LVH, F ) 0.5, 0.5;
    ( 50-60, 200-240, N, Y, LVH, M ) 1.0, 0.0;
    ( 50-60, 200-240, N, Y, Normal, F ) 0.5, 0.5;
    ( 50-60, 200-240, N, Y, Normal, M ) 0.6666666666666666, 0.3333333333333333;
    ( 50-60, 200-240, N, Y, ST, F ) 0.5, 0.5;
    ( 50-60, 200-240, N, Y, ST, M ) 0.3333333333333333, 0.6666666666666666;
    ( 50-60, 200-240, Y, N, LVH, F ) 0.5, 0.5;
    ( 50-60, 200-240, Y, N, LVH, M ) 0.3333333333333333, 0.6666666666666666;
    ( 50-60, 200-240, Y, N, Normal, F ) 1.0, 0.0;
    ( 50-60, 200-240, Y, N, Normal, M ) 0.4, 0.6;
    ( 50-60, 200-240, Y, N, ST, F ) 0.5, 0.5;
    ( 50-60, 200-240, Y, N, ST, M ) 0.125, 0.875;
    ( 50-60, 200-240, Y, Y, LVH, F ) 0.0, 1.0;
    ( 50-60, 200-240, Y, Y, LVH, M ) 0.5, 0.5;
    ( 50-60, 200-240, Y, Y, Normal, F ) 0.5, 0.5;
    ( 50-60, 200-240, Y, Y, Normal, M ) 0.0, 1.0;
    ( 50-60, 200-240, Y, Y, ST, F ) 0.5, 0.5;
    ( 50-60, 200-240, Y, Y, ST, M ) 0.5, 0.5;
    ( 50-60, 240+, N, N, LVH, F ) 0.9, 0.1;
    ( 50-60, 240+, N, N, LVH, M ) 0.36363636363636365, 0.6363636363636364;
    ( 50-60, 240+, N, N, Normal, F ) 0.9, 0.1;
    ( 50-60, 240+, N, N, Normal, M ) 0.7142857142857143, 0.2857142857142857;
    ( 50-60, 240+, N, N, ST, F ) 1.0, 0.0;
    ( 50-60, 240+, N, N, ST, M ) 1.0, 0.0;
    ( 50-60, 240+, N, Y, LVH, F ) 1.0, 0.0;
    ( 50-60, 240+, N, Y, LVH, M ) 1.0, 0.0;
    ( 50-60, 240+, N, Y, Normal, F ) 0.5, 0.5;
    ( 50-60, 240+, N, Y, Normal, M ) 1.0, 0.0;
    ( 50-60, 240+, N, Y, ST, F ) 0.0, 1.0;
    ( 50-60, 240+, N, Y, ST, M ) 0.0, 1.0;
    ( 50-60, 240+, Y, N, LVH, F ) 0.0, 1.0;
    ( 50-60, 240+, Y, N, LVH, M ) 0.16666666666666666, 0.8333333333333334;
    ( 50-60, 240+, Y, N, Normal, F ) 0.2, 0.8;
    ( 50-60, 240+, Y, N, Normal, M ) 0.15789473684210525, 0.8421052631578947;
    ( 50-60, 240+, Y, N, ST, F ) 0.5, 0.5;
    ( 50-60, 240+, Y, N, ST, M ) 0.16666666666666666, 0.8333333333333334;
    ( 50-60, 240+, Y, Y, LVH, F ) 1.0, 0.0;
    ( 50-60, 240+, Y, Y, LVH, M ) 0.0, 1.0;
    ( 50-60, 240+, Y, Y, Normal, F ) 0.5, 0.5;
    ( 50-60, 240+, Y, Y, Normal, M ) 0.0, 1.0;
    ( 50-60, 240+, Y, Y, ST, F ) 0.0, 1.0;
    ( 50-60, 240+, Y, Y, ST, M ) 0.0, 1.0;
    ( 50-60, <=200, N, N, LVH, F ) 1.0, 0.0;
    ( 50-60, <=200, N, N, LVH, M ) 0.75, 0.25;
    ( 50-60, <=200, N, N, Normal, F ) 1.0, 0.0;
    ( 50-60, <=200, N, N, Normal, M ) 0.7777777777777778, 0.2222222222222222;
    ( 50-60, <=200, N, N, ST, F ) 0.5, 0.5;
    ( 50-60, <=200, N, N, ST, M ) 1.0, 0.0;
    ( 50-60, <=200, N, Y, LVH, F ) 0.5, 0.5;
    ( 50-60, <=200, N, Y, LVH, M ) 1.0, 0.0;
    ( 50-60, <=200, N, Y, Normal, F ) 1.0, 0.0;
    ( 50-60, <=200, N, Y, Normal, M ) 1.0, 0.0;
    ( 50-60, <=200, N, Y, ST, F ) 0.5, 0.5;
    ( 50-60, <=200, N, Y, ST, M ) 0.5, 0.5;
    ( 50-60, <=200, Y, N, LVH, F ) 0.5, 0.5;
    ( 50-60, <=200, Y, N, LVH, M ) 0.5, 0.5;
    ( 50-60, <=200, Y, N, Normal, F ) 1.0, 0.0;
    ( 50-60, <=200, Y, N, Normal, M ) 0.25, 0.75;
    ( 50-60, <=200, Y, N, ST, F ) 0.5, 0.5;
    ( 50-60, <=200, Y, N, ST, M ) 0.0, 1.0;
    ( 50-60, <=200, Y, Y, LVH, F ) 0.5, 0.5;
    ( 50-60, <=200, Y, Y, LVH, M ) 0.0, 1.0;
    ( 50-60, <=200, Y, Y, Normal, F ) 0.5, 0.5;
    ( 50-60, <=200, Y, Y, Normal, M ) 0.5, 0.5;
    ( 50-60, <=200, Y, Y, ST, F ) 0.5, 0.5;
    ( 50-60, <=200, Y, Y, ST, M ) 0.0, 1.0;
    ( 60-70, 200-240, N, N, LVH, F ) 1.0, 0.0;
    ( 60-70, 200-240, N, N, LVH, M ) 0.3333333333333333, 0.6666666666666666;
    ( 60-70, 200-240, N, N, Normal, F ) 1.0, 0.0;
    ( 60-70, 200-240, N, N, Normal, M ) 0.2, 0.8;
    ( 60-70, 200-240, N, N, ST, F ) 0.5, 0.5;
    ( 60-70, 200-240, N, N, ST, M ) 1.0, 0.0;
    ( 60-70, 200-240, N, Y, LVH, F ) 0.5, 0.5;
    ( 60-70, 200-240, N, Y, LVH, M ) 1.0, 0.0;
    ( 60-70, 200-240, N, Y, Normal, F ) 0.5, 0.5;
    ( 60-70, 200-240, N, Y, Normal, M ) 0.5, 0.5;
    ( 60-70, 200-240, N, Y, ST, F ) 0.5, 0.5;
    ( 60-70, 200-240, N, Y, ST, M ) 0.5, 0.5;
    ( 60-70, 200-240, Y, N, LVH, F ) 0.5, 0.5;
    ( 60-70, 200-240, Y, N, LVH, M ) 0.0, 1.0;
    ( 60-70, 200-240, Y, N, Normal, F ) 0.5, 0.5;
    ( 60-70, 200-240, Y, N, Normal, M ) 0.0, 1.0;
    ( 60-70, 200-240, Y, N, ST, F ) 0.5, 0.5;
    ( 60-70, 200-240, Y, N, ST, M ) 0.0, 1.0;
    ( 60-70, 200-240, Y, Y, LVH, F ) 0.5, 0.5;
    ( 60-70, 200-240, Y, Y, LVH, M ) 0.5, 0.5;
    ( 60-70, 200-240, Y, Y, Normal, F ) 0.0, 1.0;
    ( 60-70, 200-240, Y, Y, Normal, M ) 0.0, 1.0;
    ( 60-70, 200-240, Y, Y, ST, F ) 0.5, 0.5;
    ( 60-70, 200-240, Y, Y, ST, M ) 0.0, 1.0;
    ( 60-70, 240+, N, N, LVH, F ) 0.6, 0.4;
    ( 60-70, 240+, N, N, LVH, M ) 0.42857142857142855, 0.5714285714285714;
    ( 60-70, 240+, N, N, Normal, F ) 0.8, 0.2;
    ( 60-70, 240+, N, N, Normal, M ) 0.6666666666666666, 0.3333333333333333;
    ( 60-70, 240+, N, N, ST, F ) 0.5, 0.5;
    ( 60-70, 240+, N, N, ST, M ) 0.5, 0.5;
    ( 60-70, 240+, N, Y, LVH, F ) 1.0, 0.0;
    ( 60-70, 240+, N, Y, LVH, M ) 0.0, 1.0;
    ( 60-70, 240+, N, Y, Normal, F ) 0.0, 1.0;
    ( 60-70, 240+, N, Y, Normal, M ) 0.0, 1.0;
    ( 60-70, 240+, N, Y, ST, F ) 0.5, 0.5;
    ( 60-70, 240+, N, Y, ST, M ) 0.5, 0.5;
    ( 60-70, 240+, Y, N, LVH, F ) 0.0, 1.0;
    ( 60-70, 240+, Y, N, LVH, M ) 0.0, 1.0;
    ( 60-70, 240+, Y, N, Normal, F ) 0.3333333333333333, 0.6666666666666666;
    ( 60-70, 240+, Y, N, Normal, M ) 0.08333333333333333, 0.9166666666666666;
    ( 60-70, 240+, Y, N, ST, F ) 0.5, 0.5;
    ( 60-70, 240+, Y, N, ST, M ) 0.0, 1.0;
    ( 60-70, 240+, Y, Y, LVH, F ) 0.5, 0.5;
    ( 60-70, 240+, Y, Y, LVH, M ) 0.0, 1.0;
    ( 60-70, 240+, Y, Y, Normal, F ) 0.5, 0.5;
    ( 60-70, 240+, Y, Y, Normal, M ) 0.3333333333333333, 0.6666666666666666;
    ( 60-70, 240+, Y, Y, ST, F ) 0.5, 0.5;
    ( 60-70, 240+, Y, Y, ST, M ) 0.0, 1.0;
    ( 60-70, <=200, N, N, LVH, F ) 0.0, 1.0;
    ( 60-70, <=200, N, N, LVH, M ) 0.5, 0.5;
    ( 60-70, <=200, N, N, Normal, F ) 1.0, 0.0;
    ( 60-70, <=200, N, N, Normal, M ) 1.0, 0.0;
    ( 60-70, <=200, N, N, ST, F ) 0.5, 0.5;
    ( 60-70, <=200, N, N, ST, M ) 1.0, 0.0;
    ( 60-70, <=200, N, Y, LVH, F ) 0.5, 0.5;
    ( 60-70, <=200, N, Y, LVH, M ) 0.5, 0.5;
    ( 60-70, <=200, N, Y, Normal, F ) 0.5, 0.5;
    ( 60-70, <=200, N, Y, Normal, M ) 0.0, 1.0;
    ( 60-70, <=200, N, Y, ST, F ) 0.5, 0.5;
    ( 60-70, <=200, N, Y, ST, M ) 0.5, 0.5;
    ( 60-70, <=200, Y, N, LVH, F ) 0.5, 0.5;
    ( 60-70, <=200, Y, N, LVH, M ) 0.0, 1.0;
    ( 60-70, <=200, Y, N, Normal, F ) 0.0, 1.0;
    ( 60-70, <=200, Y, N, Normal, M ) 0.0, 1.0;
    ( 60-70, <=200, Y, N, ST, F ) 0.5, 0.5;
    ( 60-70, <=200, Y, N, ST, M ) 0.0, 1.0;
    ( 60-70, <=200, Y, Y, LVH, F ) 0.5, 0.5;
    ( 60-70, <=200, Y, Y, LVH, M ) 0.5, 0.5;
    ( 60-70, <=200, Y, Y, Normal, F ) 0.5, 0.5;
    ( 60-70, <=200, Y, Y, Normal, M ) 0.0, 1.0;
    ( 60-70, <=200, Y, Y, ST, F ) 0.5, 0.5;
    ( 60-70, <=200, Y, Y, ST, M ) 0.5, 0.5;
    ( 70+, 200-240, N, N, LVH, F ) 0.5, 0.5;
    ( 70+, 200-240, N, N, LVH, M ) 0.5, 0.5;
    ( 70+, 200-240, N, N, Normal, F ) 0.5, 0.5;
    ( 70+, 200-240, N, N, Normal, M ) 0.5, 0.5;
    ( 70+, 200-240, N, N, ST, F ) 0.5, 0.5;
    ( 70+, 200-240, N, N, ST, M ) 0.5, 0.5;
    ( 70+, 200-240, N, Y, LVH, F ) 0.5, 0.5;
    ( 70+, 200-240, N, Y, LVH, M ) 0.5, 0.5;
    ( 70+, 200-240, N, Y, Normal, F ) 0.5, 0.5;
    ( 70+, 200-240, N, Y, Normal, M ) 0.0, 1.0;
    ( 70+, 200-240, N, Y, ST, F ) 0.5, 0.5;
    ( 70+, 200-240, N, Y, ST, M ) 0.0, 1.0;
    ( 70+, 200-240, Y, N, LVH, F ) 0.5, 0.5;
    ( 70+, 200-240, Y, N, LVH, M ) 0.5, 0.5;
    ( 70+, 200-240, Y, N, Normal, F ) 0.5, 0.5;
    ( 70+, 200-240, Y, N, Normal, M ) 0.0, 1.0;
    ( 70+, 200-240, Y, N, ST, F ) 0.5, 0.5;
    ( 70+, 200-240, Y, N, ST, M ) 0.0, 1.0;
    ( 70+, 200-240, Y, Y, LVH, F ) 0.5, 0.5;
    ( 70+, 200-240, Y, Y, LVH, M ) 0.5, 0.5;
    ( 70+, 200-240, Y, Y, Normal, F ) 0.5, 0.5;
    ( 70+, 200-240, Y, Y, Normal, M ) 0.0, 1.0;
    ( 70+, 200-240, Y, Y, ST, F ) 0.5, 0.5;
    ( 70+, 200-240, Y, Y, ST, M ) 0.5, 0.5;
    ( 70+, 240+, N, N, LVH, F ) 0.5, 0.5;
    ( 70+, 240+, N, N, LVH, M ) 0.5, 0.5;
    ( 70+, 240+, N, N, Normal, F ) 1.0, 0.0;
    ( 70+, 240+, N, N, Normal, M ) 0.5, 0.5;
    ( 70+, 240+, N, N, ST, F ) 0.5, 0.5;
    ( 70+, 240+, N, N, ST, M ) 0.5, 0.5;
    ( 70+, 240+, N, Y, LVH, F ) 1.0, 0.0;
    ( 70+, 240+, N, Y, LVH, M ) 0.5, 0.5;
    ( 70+, 240+, N, Y, Normal, F ) 0.5, 0.5;
    ( 70+, 240+, N, Y, Normal, M ) 0.5, 0.5;
    ( 70+, 240+, N, Y, ST, F ) 0.5, 0.5;
    ( 70+, 240+, N, Y, ST, M ) 0.5, 0.5;
    ( 70+, 240+, Y, N, LVH, F ) 1.0, 0.0;
    ( 70+, 240+, Y, N, LVH, M ) 0.0, 1.0;
    ( 70+, 240+, Y, N, Normal, F ) 0.5, 0.5;
    ( 70+, 240+, Y, N, Normal, M ) 0.0, 1.0;
    ( 70+, 240+, Y, N, ST, F ) 0.5, 0.5;
    ( 70+, 240+, Y, N, ST, M ) 0.5, 0.5;
    ( 70+, 240+, Y, Y, LVH, F ) 0.5, 0.5;
    ( 70+, 240+, Y, Y, LVH, M ) 0.5, 0.5;
    ( 70+, 240+, Y, Y, Normal, F ) 0.5, 0.5;
    ( 70+, 240+, Y, Y, Normal, M ) 1.0, 0.0;
    ( 70+, 240+, Y, Y, ST, F ) 0.5, 0.5;
    ( 70+, 240+, Y, Y, ST, M ) 0.0, 1.0;
    ( 70+, <=200, N, N, LVH, F ) 0.5, 0.5;
    ( 70+, <=200, N, N, LVH, M ) 0.0, 1.0;
    ( 70+, <=200, N, N, Normal, F ) 0.5, 0.5;
    ( 70+, <=200, N, N, Normal, M ) 0.5, 0.5;
    ( 70+, <=200, N, N, ST, F ) 1.0, 0.0;
    ( 70+, <=200, N, N, ST, M ) 0.5, 0.5;
    ( 70+, <=200, N, Y, LVH, F ) 0.5, 0.5;
    ( 70+, <=200, N, Y, LVH, M ) 0.5, 0.5;
    ( 70+, <=200, N, Y, Normal, F ) 0.5, 0.5;
    ( 70+, <=200, N, Y, Normal, M ) 0.5, 0.5;
    ( 70+, <=200, N, Y, ST, F ) 0.5, 0.5;
    ( 70+, <=200, N, Y, ST, M ) 0.5, 0.5;
    ( 70+, <=200, Y, N, LVH, F ) 0.5, 0.5;
    ( 70+, <=200, Y, N, LVH, M ) 0.5, 0.5;
    ( 70+, <=200, Y, N, Normal, F ) 0.5, 0.5;
    ( 70+, <=200, Y, N, Normal, M ) 0.5, 0.5;
    ( 70+, <=200, Y, N, ST, F ) 0.5, 0.5;
    ( 70+, <=200, Y, N, ST, M ) 0.0, 1.0;
    ( 70+, <=200, Y, Y, LVH, F ) 0.5, 0.5;
    ( 70+, <=200, Y, Y, LVH, M ) 0.5, 0.5;
    ( 70+, <=200, Y, Y, Normal, F ) 0.5, 0.5;
    ( 70+, <=200, Y, Y, Normal, M ) 0.5, 0.5;
    ( 70+, <=200, Y, Y, ST, F ) 0.5, 0.5;
    ( 70+, <=200, Y, Y, ST, M ) 0.5, 0.5;

}
probability ( MaxHR | Age, Sex ) {
    ( 20-40, F ) 0.3333333333333333, 0.0, 0.13333333333333333, 0.5333333333333333;
    ( 20-40, M ) 0.21153846153846154, 0.11538461538461539, 0.1346153846153846, 0.5384615384615384;
    ( 40-50, F ) 0.2391304347826087, 0.15217391304347827, 0.17391304347826086, 0.43478260869565216;
    ( 40-50, M ) 0.2457627118644068, 0.17796610169491525, 0.2457627118644068, 0.3305084745762712;
    ( 50-60, F ) 0.43636363636363634, 0.18181818181818182, 0.2, 0.18181818181818182;
    ( 50-60, M ) 0.2784090909090909, 0.2784090909090909, 0.26136363636363635, 0.18181818181818182;
    ( 60-70, F ) 0.4583333333333333, 0.20833333333333334, 0.125, 0.20833333333333334;
    ( 60-70, M ) 0.20430107526881722, 0.3978494623655914, 0.3763440860215054, 0.021505376344086023;
    ( 70+, F ) 0.0, 0.5, 0.25, 0.25;
    ( 70+, M ) 0.0, 0.8571428571428571, 0.07142857142857142, 0.07142857142857142;

}
probability ( Oldpeak | ExerciseAngina, HeartDisease ) {
    ( N, 0 ) 0.0989010989010989, 0.0989010989010989, 0.01098901098901099, 0.7912087912087912;
    ( N, 1 ) 0.10638297872340426, 0.1702127659574468, 0.1595744680851064, 0.5638297872340425;
    ( Y, 0 ) 0.24390243902439024, 0.2926829268292683, 0.04878048780487805, 0.4146341463414634;
    ( Y, 1 ) 0.1746031746031746, 0.4497354497354497, 0.24338624338624337, 0.13227513227513227;

}
probability ( RestingBP | Age, Cholesterol ) {
    ( 20-40, 200-240 ) 0.38095238095238093, 0.14285714285714285, 0.47619047619047616;
    ( 20-40, 240+ ) 0.32, 0.08, 0.6;
    ( 20-40, <=200 ) 0.47619047619047616, 0.09523809523809523, 0.42857142857142855;
    ( 40-50, 200-240 ) 0.5, 0.07692307692307693, 0.4230769230769231;
    ( 40-50, 240+ ) 0.4177215189873418, 0.22784810126582278, 0.35443037974683544;
    ( 40-50, <=200 ) 0.30303030303030304, 0.18181818181818182, 0.5151515151515151;
    ( 50-60, 200-240 ) 0.5822784810126582, 0.17721518987341772, 0.24050632911392406;
    ( 50-60, 240+ ) 0.5566037735849056, 0.22641509433962265, 0.2169811320754717;
    ( 50-60, <=200 ) 0.5434782608695652, 0.15217391304347827, 0.30434782608695654;
    ( 60-70, 200-240 ) 0.3793103448275862, 0.41379310344827586, 0.20689655172413793;
    ( 60-70, 240+ ) 0.39705882352941174, 0.38235294117647056, 0.22058823529411764;
    ( 60-70, <=200 ) 0.4, 0.55, 0.05;
    ( 70+, 200-240 ) 0.375, 0.5, 0.125;
    ( 70+, 240+ ) 0.14285714285714285, 0.5714285714285714, 0.2857142857142857;
    ( 70+, <=200 ) 0.6666666666666666, 0.0, 0.3333333333333333;

}
probability ( RestingECG | Age ) {
    ( 20-40 ) 0.08955223880597014, 0.7910447761194029, 0.11940298507462686;
    ( 40-50 ) 0.16463414634146342, 0.7195121951219512, 0.11585365853658537;
    ( 50-60 ) 0.2554112554112554, 0.5714285714285714, 0.17316017316017315;
    ( 60-70 ) 0.3162393162393162, 0.4358974358974359, 0.24786324786324787;
    ( 70+ ) 0.2222222222222222, 0.5, 0.2777777777777778;

}
probability ( ST_Slope | ExerciseAngina, HeartDisease, Oldpeak ) {
    ( N, 0, 0-5-1 ) 0.037037037037037035, 0.4074074074074074, 0.5555555555555556;
    ( N, 0, 1-2 ) 0.037037037037037035, 0.48148148148148145, 0.48148148148148145;
    ( N, 0, 2+ ) 1.0, 0.0, 0.0;
    ( N, 0, <=0.5 ) 0.009259259259259259, 0.08333333333333333, 0.9074074074074074;
    ( N, 1, 0-5-1 ) 0.1, 0.5, 0.4;
    ( N, 1, 1-2 ) 0.0625, 0.875, 0.0625;
    ( N, 1, 2+ ) 0.13333333333333333, 0.7333333333333333, 0.13333333333333333;
    ( N, 1, <=0.5 ) 0.0, 0.7547169811320755, 0.24528301886792453;
    ( Y, 0, 0-5-1 ) 0.0, 0.8, 0.2;
    ( Y, 0, 1-2 ) 0.16666666666666666, 0.5833333333333334, 0.25;
    ( Y, 0, 2+ ) 0.0, 1.0, 0.0;
    ( Y, 0, <=0.5 ) 0.0, 0.23529411764705882, 0.7647058823529411;
    ( Y, 1, 0-5-1 ) 0.0, 0.8787878787878788, 0.12121212121212122;
    ( Y, 1, 1-2 ) 0.08235294117647059, 0.8352941176470589, 0.08235294117647059;
    ( Y, 1, 2+ ) 0.2608695652173913, 0.6956521739130435, 0.043478260869565216;
    ( Y, 1, <=0.5 ) 0.0, 0.84, 0.16;

}
probability ( Sex ) {
    table 0.24120603015075376, 0.7587939698492462 ;
}
