<?xml version='1.0' encoding='utf-8'?>
<BIF VERSION="0.3">
  <NETWORK>
    <NAME>UNTITLED</NAME>
    <VARIABLE TYPE="nature">
      <NAME>Age</NAME>
      <OUTCOME>20_30</OUTCOME>
      <OUTCOME>30_40</OUTCOME>
      <OUTCOME>40_50</OUTCOME>
      <OUTCOME>50_60</OUTCOME>
      <OUTCOME>60_70</OUTCOME>
      <OUTCOME>70_80</OUTCOME>
      <PROPERTY />
    </VARIABLE>
    <VARIABLE TYPE="nature">
      <NAME>ChestPainType</NAME>
      <OUTCOME>ASY</OUTCOME>
      <OUTCOME>ATA</OUTCOME>
      <OUTCOME>NAP</OUTCOME>
      <OUTCOME>TA</OUTCOME>
      <PROPERTY />
    </VARIABLE>
    <VARIABLE TYPE="nature">
      <NAME>Cholesterol</NAME>
      <OUTCOME>200_240</OUTCOME>
      <OUTCOME>240_</OUTCOME>
      <OUTCOME>_200</OUTCOME>
      <PROPERTY />
    </VARIABLE>
    <VARIABLE TYPE="nature">
      <NAME>ExerciseAngina</NAME>
      <OUTCOME>N</OUTCOME>
      <OUTCOME>Y</OUTCOME>
      <PROPERTY />
    </VARIABLE>
    <VARIABLE TYPE="nature">
      <NAME>FastingBS</NAME>
      <OUTCOME>N</OUTCOME>
      <OUTCOME>Y</OUTCOME>
      <PROPERTY />
    </VARIABLE>
    <VARIABLE TYPE="nature">
      <NAME>HeartDisease</NAME>
      <OUTCOME>0</OUTCOME>
      <OUTCOME>1</OUTCOME>
      <PROPERTY />
    </VARIABLE>
    <VARIABLE TYPE="nature">
      <NAME>MaxHR</NAME>
      <OUTCOME>high</OUTCOME>
      <OUTCOME>low</OUTCOME>
      <OUTCOME>medium</OUTCOME>
      <OUTCOME>very_high</OUTCOME>
      <PROPERTY />
    </VARIABLE>
    <VARIABLE TYPE="nature">
      <NAME>Oldpeak</NAME>
      <OUTCOME>0_5_1</OUTCOME>
      <OUTCOME>1_2</OUTCOME>
      <OUTCOME>2_</OUTCOME>
      <OUTCOME>_0_5</OUTCOME>
      <PROPERTY />
    </VARIABLE>
    <VARIABLE TYPE="nature">
      <NAME>RestingBP</NAME>
      <OUTCOME>120_140</OUTCOME>
      <OUTCOME>140_</OUTCOME>
      <OUTCOME>90_120</OUTCOME>
      <PROPERTY />
    </VARIABLE>
    <VARIABLE TYPE="nature">
      <NAME>RestingECG</NAME>
      <OUTCOME>LVH</OUTCOME>
      <OUTCOME>Normal</OUTCOME>
      <OUTCOME>ST</OUTCOME>
      <PROPERTY />
    </VARIABLE>
    <VARIABLE TYPE="nature">
      <NAME>ST_Slope</NAME>
      <OUTCOME>Down</OUTCOME>
      <OUTCOME>Flat</OUTCOME>
      <OUTCOME>Up</OUTCOME>
      <PROPERTY />
    </VARIABLE>
    <VARIABLE TYPE="nature">
      <NAME>Sex</NAME>
      <OUTCOME>F</OUTCOME>
      <OUTCOME>M</OUTCOME>
      <PROPERTY />
    </VARIABLE>
    <DEFINITION>
      <FOR>Age</FOR>
      <TABLE>0.004434011476264998 0.09833072509128847 0.27047470005216484 0.40349504434011474 0.193792383933229 0.02947313510693792 </TABLE>
    </DEFINITION>
    <DEFINITION>
      <FOR>ChestPainType</FOR>
      <GIVEN>HeartDisease</GIVEN>
      <TABLE>0.2537481259370315 0.358695652173913 0.3137181409295352 0.07383808095952024 0.7647299509001637 0.06096563011456629 0.12970540098199673 0.04459901800327332 </TABLE>
    </DEFINITION>
    <DEFINITION>
      <FOR>Cholesterol</FOR>
      <GIVEN>Age</GIVEN>
      <GIVEN>Sex</GIVEN>
      <TABLE>0.803921568627451 0.09803921568627452 0.09803921568627452 0.09803921568627452 0.803921568627451 0.09803921568627452 0.36253041362530414 0.27493917274939167 0.36253041362530414 0.255537547271745 0.48892490545650996 0.255537547271745 0.3952954675846242 0.43660355708548476 0.168100975329891 0.3386916722482697 0.459254297834338 0.2020540299173923 0.24649479873360475 0.6372682044323836 0.11623699683401179 0.39273087257813605 0.39782209022769055 0.20944703719417337 0.22022279348757495 0.6520994001713796 0.12767780634104542 0.2640534791856579 0.5594044363415376 0.17654208447280464 0.025641025641025644 0.5794871794871795 0.3948717948717949 0.5320910973084886 0.3084886128364389 0.15942028985507245 </TABLE>
    </DEFINITION>
    <DEFINITION>
      <FOR>ExerciseAngina</FOR>
      <GIVEN>MaxHR</GIVEN>
      <GIVEN>Sex</GIVEN>
      <TABLE>0.7606741573033707 0.2393258426966292 0.6657579062159215 0.33424209378407854 0.6632653061224489 0.336734693877551 0.3016838166510758 0.6983161833489242 0.6628959276018099 0.33710407239819007 0.4962581852198316 0.5037418147801683 0.9075067024128687 0.09249329758713137 0.9036222509702458 0.0963777490297542 </TABLE>
    </DEFINITION>
    <DEFINITION>
      <FOR>FastingBS</FOR>
      <GIVEN>Age</GIVEN>
      <GIVEN>RestingBP</GIVEN>
      <TABLE>0.891304347826087 0.10869565217391305 0.891304347826087 0.10869565217391305 0.5 0.5 0.9937655860349127 0.006234413965087282 0.8435114503816794 0.1564885496183206 0.9657762938230385 0.034223706176961605 0.8984189723320158 0.1015810276679842 0.9955595026642984 0.004440497335701598 0.9279033515198754 0.07209664848012472 0.7531137002812375 0.24688629971876255 0.7569134701159679 0.24308652988403215 0.8928225024248303 0.10717749757516976 0.7721584984358707 0.22784150156412933 0.686421173762946 0.31357882623705413 0.9937655860349127 0.006234413965087282 0.7337662337662337 0.2662337662337662 0.44610778443113774 0.5538922155688623 0.7842105263157895 0.21578947368421048 </TABLE>
    </DEFINITION>
    <DEFINITION>
      <FOR>HeartDisease</FOR>
      <GIVEN>Age</GIVEN>
      <GIVEN>Cholesterol</GIVEN>
      <GIVEN>ExerciseAngina</GIVEN>
      <GIVEN>FastingBS</GIVEN>
      <GIVEN>RestingECG</GIVEN>
      <GIVEN>Sex</GIVEN>
      <TABLE>0.5 0.5 0.5 0.5 0.5 0.5 0.5 0.5 0.9942791762013731 0.005720823798627003 0.5 0.5 0.5 0.5 0.5 0.5 0.5 0.5 0.5 0.5 0.5 0.5 0.5 0.5 0.5 0.5 0.5 0.5 0.5 0.5 0.5 0.5 0.5 0.5 0.5 0.5 0.5 0.5 0.5 0.5 0.5 0.5 0.5 0.5 0.5 0.5 0.5 0.5 0.5 0.5 0.5 0.5 0.5 0.5 0.9942791762013731 0.005720823798627003 0.5 0.5 0.5 0.5 0.5 0.5 0.5 0.5 0.5 0.5 0.5 0.5 0.5 0.5 0.5 0.5 0.5 0.5 0.5 0.5 0.5 0.5 0.5 0.5 0.5 0.5 0.5 0.5 0.5 0.5 0.5 0.5 0.5 0.5 0.5 0.5 0.5 0.5 0.5 0.5 0.5 0.5 0.5 0.5 0.5 0.5 0.5 0.5 0.5 0.5 0.5 0.5 0.5 0.5 0.5 0.5 0.5 0.5 0.5 0.5 0.5 0.5 0.5 0.5 0.5 0.5 0.5 0.5 0.5 0.5 0.5 0.5 0.5 0.5 0.5 0.5 0.5 0.5 0.5 0.5 0.5 0.5 0.5 0.5 0.5 0.5 0.5 0.5 0.5 0.5 0.9942791762013731 0.005720823798627003 0.9985574148874783 0.0014425851125216386 0.7774210120729514 0.22257898792704855 0.5 0.5 0.9942791762013731 0.005720823798627003 0.5 0.5 0.5 0.5 0.5 0.5 0.5 0.5 0.5 0.5 0.5 0.5 0.5 0.5 0.5 0.5 0.5 0.5 0.5 0.5 0.5 0.5 0.5 0.5 0.5 0.5 0.5 0.5 0.5 0.5 0.5 0.5 0.5 0.5 0.5 0.5 0.5 0.5 0.9971231300345224 0.0028768699654775597 0.5 0.5 0.7366979179349812 0.2633020820650189 0.5 0.5 0.9942791762013731 0.005720823798627003 0.5 0.5 0.5 0.5 0.5 0.5 0.5 0.5 0.5 0.5 0.5 0.5 0.5 0.5 0.5 0.5 0.005720823798627003 0.9942791762013731 0.0028768699654775597 0.9971231300345224 0.5 0.5 0.5 0.5 0.5 0.5 0.5 0.5 0.5 0.5 0.005720823798627003 0.9942791762013731 0.5 0.5 0.5 0.5 0.5 0.5 0.9942791762013731 0.005720823798627003 0.9942791762013731 0.005720823798627003 0.5 0.5 0.9980784012298232 0.0019215987701767868 0.9942791762013731 0.005720823798627003 0.5 0.5 0.5 0.5 0.5 0.5 0.9942791762013731 0.005720823798627003 0.5 0.5 0.5 0.5 0.5 0.5 0.005720823798627003 0.9942791762013731 0.5 0.5 0.4002309468822171 0.599769053117783 0.5 0.5 0.5 0.5 0.5 0.5 0.5 0.5 0.5 0.5 0.5 0.5 0.5 0.5 0.5 0.5 0.9971231300345224 0.0028768699654775597 0.9980784012298232 0.0019215987701767868 0.9994744586924533 0.0005255413075467732 0.7498554077501446 0.2501445922498554 0.9980784012298232 0.0019215987701767868 0.9971231300345224 0.0028768699654775597 0.5 0.5 0.5 0.5 0.5 0.5 0.9942791762013731 0.005720823798627003 0.5 0.5 0.005720823798627003 0.9942791762013731 0.5 0.5 0.9942791762013731 0.005720823798627003 0.33397386625672554 0.6660261337432744 0.30023121387283236 0.6997687861271676 0.5 0.5 0.33397386625672554 0.6660261337432744 0.5 0.5 0.5 0.5 0.5 0.5 0.005720823798627003 0.9942791762013731 0.5 0.5 0.5 0.5 0.9971231300345224 0.0028768699654775597 0.7139319907560251 0.2860680092439749 0.9994744586924533 0.0005255413075467732 0.7082329123686494 0.2917670876313506 0.9980784012298232 0.0019215987701767868 0.7492787074437391 0.2507212925562608 0.5 0.5 0.5 0.5 0.005720823798627003 0.9942791762013731 0.33397386625672554 0.6660261337432744 0.5 0.5 0.5 0.5 0.9971231300345224 0.0028768699654775597 0.0019215987701767868 0.9980784012298232 0.5 0.5 0.08373482366544614 0.916265176334554 0.5 0.5 0.005720823798627003 0.9942791762013731 0.5 0.5 0.0028768699654775597 0.9971231300345224 0.5 0.5 0.9942791762013731 0.005720823798627003 0.5 0.5 0.5 0.5 0.5 0.5 0.0028768699654775597 0.9971231300345224 0.9990373507893723 0.0009626492106276472 0.9227005870841488 0.07729941291585128 0.5 0.5 0.005720823798627003 0.9942791762013731 0.5 0.5 0.5 0.5 0.5 0.5 0.9942791762013731 0.005720823798627003 0.9942791762013731 0.005720823798627003 0.5 0.5 0.9942791762013731 0.005720823798627003 0.0028768699654775597 0.9971231300345224 0.5 0.5 0.16730843280708507 0.8326915671929149 0.5 0.5 0.5 0.5 0.5 0.5 0.5 0.5 0.5 0.5 0.5 0.5 0.5 0.5 0.5 0.5 0.6660261337432744 0.33397386625672554 0.5 0.5 0.9990373507893723 0.0009626492106276472 0.6189820425250634 0.38101795747493666 0.9942791762013731 0.005720823798627003 0.6660261337432744 0.33397386625672554 0.5 0.5 0.9942791762013731 0.005720823798627003 0.9942791762013731 0.005720823798627003 0.599769053117783 0.4002309468822171 0.5 0.5 0.5 0.5 0.5 0.5 0.375180583646345 0.624819416353655 0.9971231300345224 0.0028768699654775597 0.42863043119114497 0.5713695688088551 0.005720823798627003 0.9942791762013731 0.12554175093903494 0.874458249060965 0.005720823798627003 0.9942791762013731 0.005720823798627003 0.9942791762013731 0.5 0.5 0.0014425851125216386 0.9985574148874783 0.5 0.5 0.0028768699654775597 0.9971231300345224 0.7996531791907515 0.2003468208092486 0.30023121387283236 0.6997687861271676 0.8995375722543353 0.10046242774566475 0.7141087064265653 0.2858912935734347 0.9942791762013731 0.005720823798627003 0.6660261337432744 0.33397386625672554 0.6660261337432744 0.33397386625672554 0.9980784012298232 0.0019215987701767868 0.9942791762013731 0.005720823798627003 0.9985574148874783 0.0014425851125216386 0.005720823798627003 0.9942791762013731 0.0028768699654775597 0.9971231300345224 0.005720823798627003 0.9942791762013731 0.0007223345853799481 0.9992776654146202 0.16730843280708507 0.8326915671929149 0.11790719825826645 0.8820928017417337 0.33397386625672554 0.6660261337432744 0.16730843280708507 0.8326915671929149 0.5 0.5 0.0014425851125216386 0.9985574148874783 0.5 0.5 0.0028768699654775597 0.9971231300345224 0.005720823798627003 0.9942791762013731 0.0011547344110854501 0.9988452655889145 0.9942791762013731 0.005720823798627003 0.5 0.5 0.9985574148874783 0.0014425851125216386 0.7892974552538659 0.2107025447461342 0.5 0.5 0.9980784012298232 0.0019215987701767868 0.5 0.5 0.5 0.5 0.9942791762013731 0.005720823798627003 0.9942791762013731 0.005720823798627003 0.5 0.5 0.9942791762013731 0.005720823798627003 0.5 0.5 0.0028768699654775597 0.9971231300345224 0.9942791762013731 0.005720823798627003 0.1434466820732915 0.8565533179267084 0.5 0.5 0.005720823798627003 0.9942791762013731 0.5 0.5 0.0028768699654775597 0.9971231300345224 0.5 0.5 0.5 0.5 0.5 0.5 0.005720823798627003 0.9942791762013731 0.5 0.5 0.599769053117783 0.4002309468822171 0.9985574148874783 0.0014425851125216386 0.20069284064665124 0.7993071593533487 0.5 0.5 0.9971231300345224 0.0028768699654775597 0.5 0.5 0.9971231300345224 0.0028768699654775597 0.5 0.5 0.5 0.5 0.5 0.5 0.5 0.5 0.5 0.5 0.0028768699654775597 0.9971231300345224 0.5 0.5 0.005720823798627003 0.9942791762013731 0.5 0.5 0.0019215987701767868 0.9980784012298232 0.5 0.5 0.005720823798627003 0.9942791762013731 0.005720823798627003 0.9942791762013731 0.005720823798627003 0.9942791762013731 0.5 0.5 0.0028768699654775597 0.9971231300345224 0.624819416353655 0.375180583646345 0.33354739275622913 0.6664526072437709 0.7993071593533487 0.20069284064665124 0.6663457835964575 0.33365421640354254 0.5 0.5 0.5 0.5 0.9942791762013731 0.005720823798627003 0.0028768699654775597 0.9971231300345224 0.005720823798627003 0.9942791762013731 0.005720823798627003 0.9942791762013731 0.5 0.5 0.5 0.5 0.5 0.5 0.0014425851125216386 0.9985574148874783 0.2507212925562608 0.7492787074437391 0.09133907925162918 0.9086609207483709 0.9942791762013731 0.005720823798627003 0.12554175093903494 0.874458249060965 0.5 0.5 0.0019215987701767868 0.9980784012298232 0.9942791762013731 0.005720823798627003 0.5 0.5 0.5 0.5 0.0019215987701767868 0.9980784012298232 0.005720823798627003 0.9942791762013731 0.5 0.5 0.9971231300345224 0.0028768699654775597 0.9942791762013731 0.005720823798627003 0.5 0.5 0.9971231300345224 0.0028768699654775597 0.5 0.5 0.5 0.5 0.5 0.5 0.005720823798627003 0.9942791762013731 0.5 0.5 0.5 0.5 0.5 0.5 0.0028768699654775597 0.9971231300345224 0.005720823798627003 0.9942791762013731 0.0019215987701767868 0.9980784012298232 0.5 0.5 0.0014425851125216386 0.9985574148874783 0.5 0.5 0.5 0.5 0.5 0.5 0.005720823798627003 0.9942791762013731 0.5 0.5 0.5 0.5 0.5 0.5 0.5 0.5 0.5 0.5 0.5 0.5 0.5 0.5 0.5 0.5 0.5 0.5 0.5 0.5 0.5 0.5 0.005720823798627003 0.9942791762013731 0.5 0.5 0.005720823798627003 0.9942791762013731 0.5 0.5 0.5 0.5 0.5 0.5 0.0014425851125216386 0.9985574148874783 0.5 0.5 0.5 0.5 0.5 0.5 0.5 0.5 0.5 0.5 0.005720823798627003 0.9942791762013731 0.5 0.5 0.5 0.5 0.5 0.5 0.5 0.5 0.9942791762013731 0.005720823798627003 0.5 0.5 0.5 0.5 0.5 0.5 0.9942791762013731 0.005720823798627003 0.5 0.5 0.5 0.5 0.5 0.5 0.5 0.5 0.5 0.5 0.9942791762013731 0.005720823798627003 0.005720823798627003 0.9942791762013731 0.5 0.5 0.005720823798627003 0.9942791762013731 0.5 0.5 0.5 0.5 0.5 0.5 0.5 0.5 0.5 0.5 0.9942791762013731 0.005720823798627003 0.5 0.5 0.005720823798627003 0.9942791762013731 0.5 0.5 0.005720823798627003 0.9942791762013731 0.9942791762013731 0.005720823798627003 0.5 0.5 0.9942791762013731 0.005720823798627003 0.5 0.5 0.5 0.5 0.005720823798627003 0.9942791762013731 0.5 0.5 0.5 0.5 0.5 0.5 0.5 0.5 0.5 0.5 0.5 0.5 0.5 0.5 0.5 0.5 0.5 0.5 0.5 0.5 0.5 0.5 0.5 0.5 0.5 0.5 0.5 0.5 0.5 0.5 0.5 0.5 </TABLE>
    </DEFINITION>
    <DEFINITION>
      <FOR>MaxHR</FOR>
      <GIVEN>Age</GIVEN>
      <GIVEN>Sex</GIVEN>
      <TABLE>0.07352941176470588 0.07352941176470588 0.07352941176470588 0.7794117647058824 0.07352941176470588 0.07352941176470588 0.07352941176470588 0.7794117647058824 0.2718978102189781 0.009124087591240875 0.18430656934306566 0.5346715328467153 0.2743111831442463 0.11871961102106969 0.17706645056726092 0.429902755267423 0.29130808950086057 0.1673838209982788 0.14672977624784853 0.394578313253012 0.2660750167448091 0.17766242464835902 0.2580375083724046 0.29822505023442736 0.40875169606512896 0.18080054274084126 0.21336499321573948 0.19708276797829036 0.23981756470089097 0.3060033941450997 0.29072974119643613 0.16344929995757318 0.40424164524421596 0.2808483290488432 0.09575835475578406 0.21915167095115684 0.2199179580674567 0.38400182315405645 0.36212397447584316 0.03395624430264357 0.019230769230769232 0.3884615384615384 0.3884615384615384 0.20384615384615384 0.007763975155279505 0.7531055900621119 0.15683229813664598 0.08229813664596275 </TABLE>
    </DEFINITION>
    <DEFINITION>
      <FOR>Oldpeak</FOR>
      <GIVEN>ExerciseAngina</GIVEN>
      <GIVEN>HeartDisease</GIVEN>
      <TABLE>0.10204525674499565 0.10552654482158398 0.021975630983463883 0.7704525674499565 0.11588235294117646 0.21941176470588236 0.16294117647058823 0.5017647058823529 0.2662162162162162 0.2445945945945946 0.05 0.4391891891891892 0.18224592220828106 0.44824341279799246 0.2374529485570891 0.13205771643663738 </TABLE>
    </DEFINITION>
    <DEFINITION>
      <FOR>RestingBP</FOR>
      <GIVEN>Age</GIVEN>
      <GIVEN>Cholesterol</GIVEN>
      <TABLE>0.07246376811594203 0.855072463768116 0.07246376811594203 0.855072463768116 0.07246376811594203 0.07246376811594203 0.3333333333333333 0.3333333333333333 0.3333333333333333 0.4105037513397642 0.12111468381564844 0.4683815648445874 0.32154551407989523 0.1447282252783235 0.5337262606417813 0.352625937834941 0.0632368703108253 0.5841371918542336 0.4747657902689635 0.09942580840132971 0.4258084013297069 0.4099834397918145 0.2311331913886917 0.3588833688194937 0.27323316638842515 0.21313299944351696 0.5136338341680579 0.532008830022075 0.19606662653020265 0.2719245434477222 0.5294489183641244 0.29069951050055265 0.17985157113532288 0.561181434599156 0.20905255082470273 0.22976601457614118 0.3226761397276495 0.48253404381290704 0.19478981645944346 0.471688444786062 0.31949782218806044 0.20881373302587752 0.4484018264840183 0.497716894977169 0.053881278538812784 0.2875318066157761 0.5623409669211196 0.15012722646310434 0.15012722646310434 0.5623409669211196 0.2875318066157761 0.2554112554112554 0.2554112554112554 0.48917748917748916 </TABLE>
    </DEFINITION>
    <DEFINITION>
      <FOR>RestingECG</FOR>
      <GIVEN>Age</GIVEN>
      <TABLE>0.09803921568627452 0.45098039215686275 0.45098039215686275 0.08399646330680813 0.8160919540229885 0.09991158267020335 0.15782706525233045 0.730633236901318 0.11153969784635168 0.2725705666882137 0.5440637793578971 0.18336565395388926 0.3414087034544639 0.43831314490803047 0.2202781516375056 0.2802359882005899 0.5457227138643067 0.17404129793510323 </TABLE>
    </DEFINITION>
    <DEFINITION>
      <FOR>ST_Slope</FOR>
      <GIVEN>ExerciseAngina</GIVEN>
      <GIVEN>HeartDisease</GIVEN>
      <GIVEN>Oldpeak</GIVEN>
      <TABLE>0.07178393745557925 0.34470504619758346 0.5835110163468373 0.036426116838487975 0.5312714776632302 0.43230240549828175 0.6501650165016502 0.1749174917491749 0.1749174917491749 0.004989174432834417 0.07276663842605667 0.9222441871411089 0.08967851099830797 0.6582064297800339 0.2521150592216582 0.04736371760500446 0.905272564789991 0.04736371760500446 0.2370637785800241 0.6991576413959085 0.06377858002406739 0.00195388823759281 0.6772176631496678 0.32082844861273935 0.008460236886632827 0.8206429780033841 0.1708967851099831 0.1860036832412523 0.5395948434622468 0.2744014732965009 0.04504504504504506 0.90990990990991 0.04504504504504506 0.005128205128205128 0.15282051282051282 0.8420512820512821 0.0028686173264486524 0.8841078600114746 0.11302352266207691 0.05714952181012362 0.874504315372055 0.06834616281782131 0.3403786878027301 0.615147512109203 0.04447380008806693 0.00395882818685669 0.8400633412509897 0.15597783056215359 </TABLE>
    </DEFINITION>
    <DEFINITION>
      <FOR>Sex</FOR>
      <TABLE>0.2511737089201878 0.7488262910798122 </TABLE>
    </DEFINITION>
  </NETWORK>
</BIF>
